6347 32
1 0.6942207 -0.06946154 -1.0857615 1.71265 0.46954274 0.33795264 -2.1592612 0.35809958 -1.5325917 0.2837805 -0.24798045 0.11720177 0.88065344 1.2396086 0.46647796 1.4724494 -0.017338833 -0.8452872 -0.7452782 0.5686983 -0.6126687 -1.2135895 -2.0087385 1.6603082 0.2811022 -1.3073398 -0.20329423 0.3968818 0.8409625 0.1927736 1.1917523 0.8788174
6 0.73992175 -0.06436929 -1.101201 1.6928661 0.47157648 0.3491583 -2.046612 0.33460003 -1.6152893 0.30100012 -0.15661804 -0.13016988 1.0119792 1.1675127 0.4318809 1.3759865 -0.077825576 -0.81744105 -0.72001743 0.6080195 -0.6734222 -1.3351365 -2.0518327 1.6699108 0.30686527 -1.317731 -0.1937475 0.33072358 0.80336183 0.016014762 1.2398534 0.8439227
2239 0.705553 -0.17252435 -1.1661307 1.6046581 0.4421227 0.3972051 -2.012437 0.34778532 -1.6500939 0.21929942 -0.20744702 -0.0610374 0.873798 1.2192996 0.43400323 1.4249908 -0.17208524 -0.7457882 -0.77572376 0.5755384 -0.64643043 -1.2538912 -2.0105681 1.5580322 0.35408625 -1.3036046 -0.24136497 0.35284945 0.73483217 0.085906394 1.2735562 0.85039294
8 -1.6906923 -0.1178097 -0.30348855 1.9259218 -0.117516145 -0.8325709 -0.37735653 -0.9090327 -1.1211807 -0.48460564 -0.27354205 1.662229 -1.2227682 0.5837479 -0.1838083 0.5493633 0.97638744 0.28564557 -1.4846919 0.48131895 0.5382291 -1.025629 -1.4147962 0.48418725 0.93605417 -1.8053501 0.18073486 1.0139883 -0.011584 -1.3200377 1.1554294 -0.41700104
2099 -1.7594444 -0.16963498 -0.27737027 1.979348 -0.24415363 -0.85651046 -0.4823341 -0.8319068 -1.0267081 -0.4113564 -0.20956667 1.6768767 -1.2981082 0.56519765 -0.26052842 0.47776613 0.99658304 0.31546593 -1.5830233 0.46118513 0.5434733 -0.9763702 -1.4815516 0.3550712 0.9272622 -1.73014 0.16127731 0.9792294 -0.10221193 -1.2426709 1.0750064 -0.4835895
261 -1.8257719 -0.22299202 -0.37527505 1.8955408 -0.16192964 -0.7648457 -0.46943226 -0.9394272 -1.0949641 -0.5640893 -0.25851113 1.495607 -1.2202477 0.57108414 -0.18341954 0.59618753 0.9115935 0.3343235 -1.5145601 0.52419466 0.47909573 -1.017288 -1.5542046 0.3787425 1.031069 -1.8471824 0.18418409 0.91616803 -0.20349906 -1.369816 1.1143638 -0.43878174
2095 -1.7622011 -0.16204311 -0.3189857 1.9291294 -0.3623386 -0.7580881 -0.34783632 -0.8588584 -1.1057309 -0.6783812 -0.2171403 1.5408226 -1.2144387 0.5362125 -0.2994047 0.5796641 0.93976086 0.36255845 -1.4413384 0.52424896 0.48228902 -1.0022055 -1.4873217 0.4647438 1.1250443 -1.7600915 0.24233016 1.023655 -0.03136785 -1.3902373 1.0860666 -0.5009668
11 -1.9692194 0.30638686 -1.1121818 1.1133113 0.37729022 -0.7214471 0.83350384 0.058326077 0.46294326 -0.29590252 0.5551405 0.80665517 1.3319199 -0.32584035 1.8489931 0.9052329 0.3116416 0.2954913 -1.9612577 -0.9547294 -0.5192424 -0.19369219 -1.9428822 -0.39053676 1.7540629 -0.76007175 -0.37772253 -0.23864521 0.21056756 -0.56342137 0.69273525 -0.5813656
1313 -2.05045 0.59168565 -0.8944265 1.087551 0.4499331 -0.7418002 0.7457183 0.08507706 0.53742 -0.35068253 0.60261387 0.9722122 1.3200272 -0.24631497 1.8958514 1.0346491 0.23662731 0.2938665 -2.0339918 -1.0163492 -0.6097452 -0.11906101 -1.8882866 -0.33335352 1.6827954 -0.66286886 -0.31476897 -0.10127985 0.29137984 -0.50667197 0.7604362 -0.60098463
1515 -2.050563 0.5209316 -1.0321013 1.0772026 0.4104766 -0.78728193 0.6482028 0.14732535 0.62186265 -0.25024506 0.58970827 0.9439612 1.3171251 -0.19985436 1.8670719 0.9394788 0.3127826 0.19588192 -2.0678911 -1.0743222 -0.5850657 -0.20050809 -1.9261707 -0.40902352 1.6873194 -0.7159592 -0.3331548 -0.15378286 0.21697421 -0.47710776 0.7151526 -0.60864604
1521 -2.0526094 0.5029417 -0.987654 1.03548 0.3817086 -0.80206585 0.71705765 0.038486212 0.5238028 -0.3226417 0.46198273 0.9634336 1.2492999 -0.15044767 1.8832986 0.99736196 0.31834218 0.25511086 -1.9171054 -1.0319579 -0.49668986 -0.15647018 -1.9148837 -0.46978813 1.7276039 -0.77956325 -0.3520204 -0.1033498 0.21214953 -0.47631347 0.81752473 -0.548112
1519 -2.005252 0.5438991 -0.92982656 1.1203173 0.45570123 -0.65912944 0.67665726 0.13184752 0.5358632 -0.32907906 0.56750077 0.95426726 1.2877458 -0.15802181 1.9640528 0.9326075 0.30352792 0.2403955 -2.1052437 -1.0176694 -0.5164891 -0.029805869 -1.9340051 -0.41170895 1.7506293 -0.7339855 -0.38671952 -0.19460937 0.29179907 -0.417876 0.70853835 -0.57004076
13 0.11047285 -0.80260426 0.112488925 -0.47215655 -0.068214916 -1.2089765 -1.419307 0.6348788 -2.2208304 0.3718689 0.48170555 -1.1163937 0.55314857 -0.14908203 1.1956836 1.0812624 0.19067408 -0.3706191 -0.10964782 1.2341278 0.42060685 -1.0544657 -0.67637473 2.9430764 0.9255416 -0.30896133 1.083572 0.44758257 0.50561506 1.1876601 -0.07701851 0.15397961
737 0.21973556 -0.9775393 -0.1447877 -0.31447193 -0.06704103 -1.2093155 -1.2934183 1.0641055 -1.9877139 -0.06970666 0.575055 -1.0004416 0.41847828 -0.29194546 0.8810624 0.7898272 0.27517375 -0.19963099 -0.504481 1.7339534 0.80746037 -0.7777409 -0.57867676 3.1216047 0.28569964 -0.6367401 1.0968857 0.54463935 0.1958698 0.8340363 -0.13894108 0.23526008
676 -0.009476804 -0.77664274 0.32776183 -0.38300547 -0.14460228 -1.0603594 -1.5854619 0.58288217 -2.1604805 0.7133482 0.37627828 -0.96398824 0.6768688 -0.054117367 1.4478552 1.2207526 0.21588224 -0.2394781 0.08539545 1.0165952 0.40486172 -0.93902063 -0.61535954 2.9002874 0.9697663 -0.06885109 1.0603888 0.34625265 0.5806826 1.3983511 0.094729155 -0.004110469
936 -0.055891298 -0.83148915 0.34376633 -0.41616797 -0.22308643 -1.0067807 -1.4597981 0.651397 -2.181349 0.69120014 0.4229373 -1.0109117 0.5782146 -0.012551578 1.6557351 1.168622 0.239915 -0.1293134 0.06460187 1.0034021 0.5206431 -1.0423347 -0.5456197 2.9119225 1.0593228 -0.08590587 1.0228771 0.41336206 0.6700317 1.4446205 0.064369746 -0.09702476
2257 0.13521536 -0.7200711 0.09851613 -0.43217683 0.07579084 -1.0504237 -1.4124057 0.74861795 -2.197706 0.45823628 0.48735815 -1.0958347 0.5554359 -0.20877486 1.2556264 1.0014791 0.31339312 -0.1923186 0.0051772813 1.1941614 0.48816475 -1.1177257 -0.69455284 3.0081515 0.87317663 -0.33853775 1.0052171 0.50373507 0.5290754 1.208563 -0.00017009425 0.044843256
402 0.040682733 -0.8196808 0.32835403 -0.20756304 -0.23445265 -1.0694364 -1.5518123 0.5939866 -2.1817253 0.7065328 0.41154578 -0.89816344 0.57703066 -0.080011114 1.5941663 1.2118999 0.25449258 -0.14354517 0.035940986 1.1475676 0.39766055 -0.97179556 -0.47936583 2.8876727 0.9205085 0.09005819 1.0705739 0.31911603 0.65819204 1.4768326 0.07377212 -0.13569117
15 -1.2690556 -1.8958627 0.8521719 0.9569285 0.36233598 -0.13839899 -2.2218924 0.7737308 0.46011513 0.55619246 0.19340104 0.3294169 0.38348794 -0.55395555 1.7163905 2.759789 0.2493579 -0.67162234 -1.1862898 0.052529838 -0.63954574 1.5969034 0.15520743 2.0485616 0.25761303 0.45573834 0.9842575 0.7185997 -0.1712032 0.5196384 1.3350648 -2.0112095
290 -1.067145 -2.0201979 0.9722464 0.8935506 0.3061613 -0.16549669 -2.0459702 0.80049723 0.41469595 0.51672614 0.12164884 0.24047703 0.3133298 -0.6217378 1.6675853 2.7163444 0.2263098 -0.5936367 -1.1636674 0.1964834 -0.6276499 1.5355856 0.25279826 2.0403616 0.30925786 0.34518215 1.118121 0.77718437 -0.16389832 0.45128855 1.3229599 -1.960337
16 0.6504142 0.86211973 -0.20358579 1.6756544 -1.140334 -1.3314791 -0.6529479 -0.78342265 -0.96074706 0.6640209 -0.10209067 0.07691351 -2.008362 0.41130304 -0.9840235 0.23890072 -0.061909035 0.32131878 -3.0366676 1.7025769 -0.11098266 0.45226198 -1.9883696 0.69884664 0.59893453 -0.890156 0.2945233 -0.40163198 1.5834335 0.59344226 -0.7222009 -0.034718964
1052 0.76924723 0.67639995 -0.36255226 1.5934721 -1.099829 -1.3361151 -0.5824347 -0.7730467 -1.048694 0.4742331 -0.10251913 -0.03903046 -1.9719751 0.29474354 -1.1117986 0.08266794 -0.20551513 0.34909078 -3.023721 1.7112851 -0.16871879 0.50066715 -2.1625984 0.63735706 0.7540945 -0.9468729 0.32976076 -0.4195762 1.4929031 0.45926693 -0.6085763 0.0285567
18 -1.3223245 -0.43621266 -0.44837916 0.31986538 0.9354763 0.29037994 -1.2098962 0.94334847 -1.2903156 0.24462098 0.41117626 -0.046935603 -0.20031719 0.88899976 0.45352024 2.3990633 0.20114444 0.38916832 -0.23149888 -0.6140195 0.052103624 -0.34341505 -0.5677896 2.0447178 1.2268356 0.82738554 0.3605307 0.1890761 -0.40965202 0.32776016 1.8072389 -0.74899065
816 -1.3057708 -0.3561161 -0.55026233 0.28420633 1.0902884 0.19910263 -0.9985578 0.8891625 -1.3575984 0.09123971 0.28108317 -0.24071732 -0.16109644 0.80652106 0.22998941 2.6021476 0.056730684 0.40164536 -0.1734587 -0.60780966 0.0013986507 -0.37533948 -0.7486706 2.050331 1.5585171 0.78143156 0.20953579 0.15468413 -0.48468766 0.30377746 1.8945953 -0.72739846
66 -1.2861477 -0.20234643 -0.48942357 0.46172914 1.0370638 0.30196476 -1.1210929 0.87495565 -1.4498367 0.11129354 0.22883888 0.17997946 -0.17704119 1.0328636 0.50332916 2.460048 0.19571371 0.08307035 -0.16735023 -0.77234876 0.09242238 -0.6467815 -0.67007595 2.0807593 1.4843211 0.8352084 0.33528566 0.20120406 -0.38458923 0.57126385 1.7477938 -0.6832004
19 -0.6998922 0.7601668 -0.49617893 1.1597823 -0.9111189 -2.2385616 -0.8363961 0.122927055 -1.413017 -0.27244163 1.7110538 1.2571027 -1.0391117 0.3742867 1.151861 -1.0380114 -1.1818384 0.6500274 -0.4548418 1.8079036 -0.66692847 -0.5842592 -1.1488236 -0.020954372 1.0253837 -0.11880427 0.080913946 -0.9268106 2.6444674 0.23263864 -0.6321468 -0.76689076
938 -0.69331944 0.9556293 -0.24475254 1.3921959 -1.0286163 -2.2308435 -0.9965217 0.22733635 -1.3524408 -0.017731564 1.751986 1.4741567 -1.1175145 0.3163056 1.1728977 -1.0212696 -1.0797645 0.57937473 -0.49738845 1.8715276 -0.5739702 -0.5483906 -1.094348 -0.030147038 0.88995504 -0.09227373 0.18085599 -0.89346886 2.6928813 0.4679929 -0.6752734 -0.79072887
20 -1.7692767 0.7009428 -1.1305748 0.9759095 0.19282371 -1.5607243 0.1449114 -0.2725741 -1.0949394 0.03591396 1.698079 -0.7790722 -0.044193335 -1.6523442 -0.12338575 -0.16644238 0.052480962 0.93985385 -1.5181323 0.003915061 -1.2857746 -0.42407748 -2.7546546 0.3465004 1.9586471 0.25951248 -0.6384937 -1.7053777 0.4405442 -0.74208605 1.045186 0.32354683
941 -1.7698625 0.7328865 -1.1618406 0.9480784 0.16854808 -1.6903172 0.051946938 -0.32250097 -1.0850962 0.0018407728 1.7112099 -0.74186003 0.04187023 -1.561243 -0.12152432 -0.2649538 0.1063381 1.017811 -1.4908991 0.014075701 -1.2668436 -0.42325142 -2.6923573 0.42264158 2.0632598 0.2937077 -0.676837 -1.6595489 0.3645091 -0.7173786 0.98335934 0.29685703
26 -0.69895166 -0.53583497 -0.12835766 1.3845345 -0.029142322 -0.5426498 -0.013094664 0.46737373 0.29775634 0.4970975 1.3233299 1.9882793 0.016170159 0.6602132 0.38457856 0.62447405 -0.14666493 0.020762924 -0.9395753 0.52129334 -1.3203126 0.40499413 -2.4747143 1.9345355 0.03866689 -1.5261501 -0.003977516 -0.5863267 -0.87475306 -1.0053105 -0.48627988 0.3093718
808 -0.72532046 -0.3936646 0.07491696 1.5231236 0.0123523595 -0.630652 0.0155047 0.40169543 0.40618172 0.6476886 1.396962 2.019121 0.0461543 0.7335027 0.4122853 0.6685551 -0.13886598 -0.040114574 -0.8815515 0.47080162 -1.3652897 0.40069115 -2.4716089 1.9771748 0.044948414 -1.5393808 0.04497153 -0.4560101 -0.75266343 -0.9690018 -0.5442098 0.40221462
1890 -0.6678049 -0.52334154 -0.029355692 1.5025551 0.013328314 -0.58013284 -0.08758694 0.45127252 0.48893434 0.6611507 1.2329222 2.0531647 0.04861556 0.7742607 0.47282693 0.6401633 -0.1034284 -0.0065023475 -1.0039324 0.54355216 -1.3812748 0.45869473 -2.4882467 1.8695006 -0.0031821316 -1.5324144 -0.017958805 -0.6148823 -0.74621487 -0.9553149 -0.61802894 0.28225777
2280 -0.64042395 -0.5498516 -0.074230954 1.4645481 -0.02295914 -0.6260879 0.042063426 0.47447696 0.40489933 0.54080224 1.2911842 1.9629787 0.104117736 0.62212145 0.42386395 0.63579184 -0.08500294 -0.0071814246 -0.8447497 0.52054465 -1.3627602 0.35221645 -2.4890983 1.9220217 0.13430388 -1.5161667 -0.0046674004 -0.65860087 -0.7226562 -1.0536243 -0.6053815 0.37426934
2276 -0.68660164 -0.39588252 -0.036562454 1.5051198 0.039124314 -0.7137923 -0.015680863 0.40573767 0.38892215 0.5168314 1.2756891 2.0184963 0.022902837 0.87680596 0.44334242 0.69423443 -0.05530865 -0.01505309 -0.81572765 0.4781802 -1.2845026 0.37469345 -2.5128145 1.9733784 0.008158626 -1.5486157 0.09223756 -0.5374462 -0.8142355 -1.0621914 -0.60221666 0.3100144
27 -1.992842 -0.12996657 0.10295486 0.12608446 0.9849863 -1.326509 -0.3482333 1.8507435 -0.7099834 -0.06385317 0.92481023 1.3295344 0.102129996 -0.55343217 0.9737502 0.27142885 0.11928467 -0.5375297 -0.21104108 -0.06980186 -0.073177956 0.6252922 -0.27901682 1.7273812 1.5026904 -1.2384032 1.0392016 0.044930685 1.9226915 -1.4775015 0.38823065 0.43242127
2209 -1.9685876 -0.23998562 0.09244724 0.020426402 1.1486782 -1.363001 -0.20565307 1.8491867 -0.71273774 -0.45646873 1.1982427 1.0701894 -0.025363663 -0.7326603 0.915647 0.4661136 0.19971351 -0.036537744 0.06904122 0.11584979 -0.10047979 0.73169816 -0.22791342 1.4399421 1.6280607 -1.1639967 0.9095651 -0.37414637 2.1105525 -1.4125748 0.4349562 0.28359535
2211 -1.9825997 -0.2311717 0.20583598 0.15984367 0.97857964 -1.3596858 -0.3409678 1.9515754 -0.7427194 -0.49556363 1.2028334 1.166667 -0.07408063 -0.5621148 0.8932335 0.51324165 0.20255348 -0.13270961 -0.007246561 0.03775226 -0.11405839 0.61206216 0.025971124 1.484753 1.5213128 -1.1130718 0.9682585 -0.27029604 2.0805447 -1.2863047 0.3616244 0.29567644
452 -2.0995846 -0.23986347 0.40649915 0.16267173 0.89593345 -1.3320981 -0.35420844 1.8716494 -0.74750084 0.02366219 0.8843318 1.5569869 0.11400904 -0.45734745 1.1506357 0.19957374 0.004668466 -0.6057996 -0.22279876 0.038499843 -0.1469042 0.5866245 -0.122758344 1.7390882 1.4489528 -1.0915482 0.9165131 0.17025433 1.8359495 -1.291771 0.41662872 0.4230239
536 -2.108799 -0.58778626 0.25872 0.09552319 0.5171261 -1.2869788 -0.09766565 1.9044888 -1.1116061 0.20555201 0.70411634 1.2871916 0.17647979 -0.374763 1.0662336 0.16734104 -0.11626146 -0.69278836 -0.15639219 -0.099247456 -0.24500366 0.6350934 -0.30709028 2.0510883 1.3297822 -0.92764926 0.81774604 0.48939806 1.5644261 -1.4292166 0.41020945 0.48927718
2138 -2.0585175 -0.19566639 0.11145319 0.21260025 0.90835017 -1.3970532 -0.29958507 1.8271664 -0.68109167 -0.06024934 0.94720924 1.3885984 0.15522864 -0.6282025 0.98915744 0.22533661 0.116204806 -0.6757607 -0.13024002 -0.0038343775 -0.10085337 0.51280785 -0.19239148 1.6759106 1.4955328 -1.3552355 0.90423906 0.039270207 1.9897034 -1.3907765 0.49588287 0.39734837
28 -0.25309476 0.4690425 -1.1576662 0.8971391 -0.702626 -0.20678067 -1.182023 -0.16158667 -0.5834242 -0.21523489 -0.30670205 1.0604026 0.329597 -0.25885665 1.407226 1.9594619 -0.73072904 -0.41158208 -0.8301094 0.41640607 -0.91806483 -0.51799625 -1.4606171 2.568777 -0.962789 -1.3722614 -0.08157506 -1.5802664 0.23552564 -1.0062586 1.2378507 -0.6254615
974 -0.26812816 0.49934238 -1.2129844 0.82471174 -0.55675185 -0.2933896 -1.2443174 -0.2451621 -0.49573165 -0.16020036 -0.33300892 1.1833442 0.37324223 -0.14991577 1.4706808 1.9239022 -0.62073326 -0.3909128 -0.8200356 0.47776365 -0.87639874 -0.5647329 -1.4381162 2.5536351 -1.0554523 -1.3692771 -0.04715415 -1.6185652 0.3085634 -0.99254507 1.2068563 -0.61397755
973 -0.18352124 0.45440823 -1.1766005 0.93148774 -0.63766843 -0.21451482 -1.2317755 -0.2523795 -0.57477945 -0.20992985 -0.30682808 1.0281786 0.43984488 -0.18685313 1.51539 1.9115888 -0.7511891 -0.46948472 -0.6870246 0.56087816 -0.93192595 -0.54340696 -1.5142105 2.535635 -0.99820083 -1.3815675 0.0006454672 -1.6834115 0.32877865 -1.0801654 1.1783173 -0.7029153
358 -0.19771777 0.5217906 -1.1569891 0.96106625 -0.5772042 -0.2153026 -1.3063177 -0.26366016 -0.531374 -0.26545486 -0.40675467 1.2000333 0.42287982 -0.13436575 1.5572004 1.94833 -0.7342425 -0.47194153 -0.84668255 0.47354707 -0.9195949 -0.5653066 -1.4435887 2.5159845 -1.0545095 -1.4427211 -0.0035409792 -1.5905219 0.3207046 -0.9766976 1.1465914 -0.6156386
29 0.60249954 0.67186 0.43772957 1.2699025 1.9894611 -2.0458765 0.038216267 0.31014472 -0.47690162 -1.089475 1.0242405 -0.7742775 0.3855672 -0.19734961 0.2661092 1.378864 0.32785502 -0.10871524 -1.3328478 -0.3649746 0.32613894 0.18582967 -1.8162327 -0.25601614 1.5888686 -0.3116855 1.8241527 -0.38005033 0.7955133 -0.06579044 1.0700853 -0.54758036
2120 0.22785395 0.6529488 0.55943626 1.0811605 1.8389548 -2.2959836 0.02376895 0.08132509 -0.77300996 -1.0895985 1.0434437 -0.6055243 0.28803843 -0.17494354 0.5963074 1.3653994 0.42044714 0.02774373 -1.6427846 -0.40263748 0.4397039 -0.0072081676 -1.5607255 -0.4296986 1.2917997 -0.28546092 1.6363508 -0.37847605 0.9459887 -0.07108735 0.7814503 -0.58881754
1603 0.24987449 0.9669112 0.56171274 1.2554009 1.6616564 -2.033374 -0.10798348 0.20576304 -0.37713155 -1.0530062 0.9349902 -0.5335631 0.47764087 0.20598368 0.2597442 1.1907827 0.56448436 -0.36939454 -1.3416113 -0.34690002 0.611327 -0.06908142 -1.7348629 -0.31711516 1.5371339 -0.41063768 1.5625083 -0.22764115 1.1405865 0.15320326 1.1394323 -0.4545231
2203 0.2517924 0.59343123 0.52466637 1.1132386 1.9293402 -2.1807141 0.063466206 0.08841101 -0.70340806 -1.0822719 1.1273253 -0.57471997 0.27674603 -0.12185289 0.62186694 1.3933641 0.42940697 0.04332773 -1.6783197 -0.57658476 0.2985122 0.07707475 -1.4875724 -0.35292476 1.3713968 -0.2879185 1.588002 -0.40271932 0.91288596 -0.04613427 0.7527442 -0.5251952
822 0.39279106 0.5534876 0.51446134 1.1347407 1.8571748 -2.3240013 0.20803112 0.03390234 -0.70774704 -1.0162134 0.9004529 -0.5870206 0.3486346 -0.15135251 0.5702198 1.482527 0.42713144 -0.010340435 -1.50851 -0.57398653 0.3452856 0.03718853 -1.6968125 -0.46303827 1.5703377 -0.14890465 1.6244425 -0.40641087 0.89773756 -0.08130091 0.7072585 -0.58546644
31 -0.38956088 -0.19145608 -0.5863296 -0.20224324 1.4333969 -1.9424126 -0.8741752 -0.1690561 -0.53507036 -0.11851184 -0.70769984 1.0354185 0.06758949 -0.56991905 0.32945234 0.38911563 0.10708492 -0.8695235 -1.5754384 -0.23073953 2.1581964 0.11105006 -2.0110767 1.7547643 -0.3941765 0.4374113 -0.5805616 -0.2712459 0.40340027 0.008484428 -0.0012743112 -0.18229319
1068 -0.60823715 -0.71287405 -0.6537333 -0.1762632 1.3898886 -2.185408 -0.65012413 -0.05519997 -0.98201555 -0.182021 -0.86447275 1.0970165 0.19694705 -0.4958202 -0.049042758 0.30776393 0.084773086 -0.6613908 -1.6464608 -0.27663717 2.2133486 0.0059443726 -1.9355538 1.8780696 -0.21527162 0.5993205 -0.6194052 -0.5611855 0.4289735 -0.015406797 0.22710195 -0.39960817
33 -0.81898737 -0.13327636 -2.0296884 1.4814098 -0.8485224 0.15762617 0.06991774 -0.70039093 -0.56237483 -1.4217429 -0.7866977 1.5027012 -0.89139956 -1.5994655 1.2183065 0.5801076 0.6000374 -0.56739193 -0.63583577 0.05296704 -0.47637132 2.105145 -0.93402547 0.82324797 1.6040866 -0.7626296 -0.5075223 0.8792166 0.3241596 2.3707523 0.86059123 -0.6648599
153 -0.7585625 0.06731552 -1.935417 1.476124 -0.87816054 0.0598011 -0.0053197257 -0.7333309 -0.5774191 -1.2388743 -0.7656414 1.6265696 -0.97038025 -1.5059563 1.2489489 0.7949765 0.60789484 -0.554703 -0.6863638 0.04188613 -0.41211808 2.1456738 -0.7628282 0.7305161 1.4627686 -0.71809816 -0.37592986 0.8918226 0.38728687 2.6411765 0.80480134 -0.67166287
35 -1.0912408 -0.69852674 0.9266985 0.20919675 1.0389154 -0.42699865 -1.8311348 0.22909233 -1.1944938 0.7174956 -0.82913244 1.9323047 -0.7864712 1.583882 0.7470366 1.0143372 0.1662102 1.0235893 -1.3225896 0.5436512 0.9698608 0.41830102 -0.70439464 2.198822 -0.24475326 0.4934713 -0.12529863 -0.022736376 1.1442361 0.03619905 0.4820307 0.6945469
873 -1.1073107 -0.6056215 1.0028363 0.0023234908 0.9036901 -0.19724482 -1.7776474 0.18467425 -1.2486061 0.7019163 -0.6616234 1.8011631 -0.8682115 1.675676 0.7707676 1.2603064 0.22773223 0.79844856 -1.2379165 0.46600592 1.0329496 0.4053604 -0.73713595 2.1720457 -0.20808959 0.41487032 0.054398272 0.0584552 1.2278705 0.058009364 0.4348338 0.7710223
578 -1.1939892 -0.5364006 0.87243354 0.087147534 1.0673339 -0.13777012 -1.7564483 0.16543941 -1.2489538 0.7068653 -0.65016 1.8535274 -0.885097 1.6509129 0.789295 1.0857475 0.25114417 0.89643514 -1.2321069 0.4772921 1.0615965 0.3516758 -0.6976416 2.1632273 -0.20604809 0.41521993 0.003660322 0.043170694 1.196455 0.14036965 0.35530078 0.7446599
723 -0.7654947 -0.42966917 0.57568663 -0.028740147 1.4305567 -0.6914115 -1.5743872 0.4999486 -1.0001467 0.2569921 -0.9622172 1.6483992 -1.021086 1.6718904 0.84172606 1.2492745 0.30423087 1.1571928 -1.259948 0.39583868 0.91699946 0.23745467 -0.72724015 2.0373676 -0.4130025 0.47622064 -0.053486347 0.15290476 1.4024284 0.089583546 0.092565015 0.8519439
410 -1.4044597 -0.6901956 1.0034518 0.14338985 0.7618036 -0.30555528 -1.9255862 -0.025841303 -1.2634164 0.8091539 -0.69825137 1.68163 -0.817013 1.7071409 0.6170622 1.1656246 -0.003363379 0.7135264 -1.0805231 0.3631297 1.142205 0.45945603 -0.9000241 2.3031034 -0.0916207 0.5003501 0.018570013 0.008644552 1.1695778 0.14265685 0.48969826 0.6385964
36 -1.1473184 -0.861991 -0.44972795 0.33216655 -1.7687562 0.12981062 0.16552846 0.02905246 -1.4025985 1.0812498 0.57447004 1.3180838 0.8466447 -0.046665873 -0.30036005 -0.05784632 1.678062 0.41609746 -2.5067573 0.15225953 -0.7243098 0.30576342 -1.5015606 1.5106122 0.9693429 0.031268533 0.6071341 0.6913866 1.7478083 -0.94391936 -0.22199726 -1.3573096
40 -1.2166619 -0.73429537 -0.38616642 0.4515567 -1.7232734 0.17628653 0.14524926 -0.048500452 -1.4185053 1.1916902 0.51112145 1.5093257 0.83510196 0.09088909 -0.33110717 -0.11155327 1.6766368 0.30717415 -2.5702107 0.2499488 -0.64508873 0.36515832 -1.4519339 1.5314069 0.90737814 0.08676783 0.66374576 0.67690694 1.7873862 -0.78100806 -0.22921412 -1.3609962
956 -1.2208787 -0.73766696 -0.43686184 0.4153678 -1.6862222 0.1563182 0.08125319 -0.008279551 -1.4836522 1.1862248 0.5172897 1.5316235 0.7656131 0.04153887 -0.26348674 -0.14600626 1.6764278 0.37801075 -2.6286325 0.2651054 -0.6313206 0.31204084 -1.4851204 1.4663447 0.85631776 0.05052522 0.5552543 0.68086106 1.8704581 -0.8054226 -0.16798817 -1.3163747
38 -0.5791123 -0.3592327 -0.6106769 1.4113009 1.0495903 -0.9691245 0.021128293 1.5257062 -1.1600255 -0.7870044 0.43358976 0.38752547 -0.74433976 0.8797664 -0.70623004 1.7924265 0.6790961 -0.60265887 -0.4621364 -1.0846052 0.57786936 0.6940583 -1.3180937 0.9238623 0.40082836 -0.9216706 0.8996497 -0.39069307 1.3922536 1.0383217 1.2217743 1.2491719
105 -0.6202507 -0.39481843 -0.58425164 1.5305532 0.9954041 -1.0404423 0.19963878 1.5478965 -1.3814412 -0.5876209 0.31668982 0.39314416 -0.732006 0.77489364 -0.68968594 1.9013966 0.61682355 -0.58503443 -0.34382203 -1.1183624 0.6821084 0.7391888 -1.3800526 1.1952825 0.4707501 -0.6424337 0.95186985 -0.53897685 1.0975385 1.0659341 1.3473924 1.1389247
266 -0.56119925 -0.41806966 -0.52162266 1.4681928 0.9502443 -0.9300534 0.19238573 1.5989934 -1.3170657 -0.66396743 0.2851014 0.3685533 -0.6530459 0.86049247 -0.68804497 1.8244 0.6682059 -0.6565345 -0.42262217 -1.1685396 0.7450326 0.6972111 -1.5117215 1.1072592 0.44452733 -0.73755586 0.81642807 -0.4240406 1.2667145 1.0514916 1.3096939 1.0708717
305 -0.6340203 -0.34541133 -0.4366514 1.5179743 1.0030907 -0.94689107 -0.084689066 1.5111177 -1.1975957 -0.70651215 0.41702813 0.43332276 -0.829169 0.87463784 -0.5858069 1.8288981 0.72148746 -0.5431683 -0.3794365 -1.0237871 0.55717605 0.7093916 -1.2160406 1.0177057 0.46009517 -0.75800735 0.9751708 -0.43122005 1.3869057 1.154503 1.290157 1.3159999
2162 -0.6301506 -0.44196767 -0.45867008 1.4904913 0.9308229 -0.9430172 0.028699065 1.4188653 -1.4021251 -0.65244937 0.2730404 0.3367967 -0.6865914 0.8816525 -0.7268034 1.8492506 0.6579052 -0.6956985 -0.4289226 -1.0543424 0.7586785 0.68611634 -1.4548616 1.120784 0.3828003 -0.79289144 0.86385846 -0.5859086 1.2463211 1.0037079 1.3880619 1.1006216
1298 -0.6563652 -0.26610595 -0.35456234 1.5469332 0.8772289 -1.0086768 0.10214253 1.5313376 -1.3019322 -0.52623177 0.29828763 0.58033687 -0.6597204 1.011235 -0.56266826 1.7557487 0.79665035 -0.6563342 -0.39566395 -1.2330904 0.6368075 0.6848985 -1.329329 1.033144 0.38422474 -0.6440481 0.82546705 -0.5489798 1.1489174 1.1267132 1.2644899 1.1321412
989 -0.5594628 -0.43885815 -0.5068468 1.5678377 0.92494243 -1.0412391 0.20746008 1.5326164 -1.3638693 -0.7105579 0.31374726 0.3962159 -0.677168 0.80880356 -0.6437375 1.9579817 0.68939626 -0.539586 -0.43565816 -1.1621008 0.6214651 0.66532993 -1.3957502 1.0640022 0.39553225 -0.69029367 0.74917054 -0.55625397 1.2421514 1.0196421 1.417103 1.0744413
1566 -0.6954557 -0.44415444 -0.38371906 1.5458916 1.0380988 -0.9607214 0.050492097 1.4154598 -1.3227059 -0.5485514 0.2587088 0.6128504 -0.48113558 0.9344205 -0.60693717 1.745037 0.6085595 -0.5883692 -0.3818882 -1.0862025 0.9159688 0.6390424 -1.2552767 1.0550864 0.23097974 -0.76820123 0.82524884 -0.58600897 1.0172092 1.057617 1.1943825 1.0204223
39 -0.2676492 -1.1702543 -3.2871704 1.9377111 1.7069529 0.2564428 0.7500834 -0.69641334 -1.7172176 -0.11087018 0.708029 -0.14295796 -0.73337483 -0.9311501 0.88890064 0.47421142 -0.90890825 0.9920528 -0.83817387 -0.21289286 -1.2055036 0.56000084 -1.884632 1.4444226 1.6896415 -0.19561481 -0.39597085 -0.90568894 -0.13889697 0.6284395 0.21801783 0.13407026
1134 -0.33765072 -1.1414695 -3.313361 2.003648 1.7885364 0.18886659 0.71929723 -0.71789765 -1.8367985 -0.15134282 0.63533044 -0.054568645 -0.82952833 -0.9231591 0.8690466 0.44863635 -0.86378586 1.012497 -0.8910744 -0.25304666 -1.2142147 0.4425176 -1.8713007 1.4197825 1.6437445 -0.1984649 -0.4489242 -0.93469316 -0.2826411 0.5267045 0.20403646 0.21149291
42 -0.6337774 0.16725235 -0.76781446 0.7408758 0.36651808 -1.3354169 -1.2397801 0.3613491 -1.352118 0.42077315 -0.31554806 0.46499136 0.87902963 1.5691314 -0.2172568 1.395939 0.124369785 -0.1120132 -0.12681045 1.3092817 -0.68888265 -0.0807426 -2.802552 0.5715571 1.3219095 -0.28124082 0.4406197 -0.42369545 -1.9221044 0.54873824 -0.11772796 -0.39393497
1160 -0.64214104 0.11315227 -0.74485594 0.76451904 0.35520783 -1.2413188 -1.3814598 0.34820363 -1.269602 0.49570602 -0.36446306 0.56307465 0.85953194 1.6652256 -0.2911413 1.3835317 0.22767165 -0.0031002583 -0.2119159 1.2490809 -0.6985839 -0.05350125 -2.8774114 0.561275 1.2692752 -0.26745024 0.5020875 -0.3580352 -1.9268049 0.6088553 -0.07267797 -0.41763058
1586 -0.5944444 0.20225653 -0.7047822 0.78908366 0.37901995 -1.4021438 -1.2460489 0.35960847 -1.372257 0.4879494 -0.34356326 0.56333923 0.91353863 1.6972114 -0.2867062 1.2998096 0.008513391 -0.17926249 -0.18132094 1.3119096 -0.69630563 -0.053094957 -2.8350177 0.5942796 1.1517034 -0.16736588 0.5666267 -0.38366917 -1.9792533 0.63049763 -0.0008346895 -0.29820058
1594 -0.6243052 0.08502401 -0.82402915 0.80897343 0.3420398 -1.2614801 -1.3022566 0.42691207 -1.346536 0.40314314 -0.34844333 0.52211016 0.85088444 1.593928 -0.32010508 1.2146256 0.09603832 -0.16315177 -0.28655759 1.3076181 -0.6620779 -0.05015925 -2.864996 0.57585394 1.2954795 -0.33354512 0.5574627 -0.39543146 -2.029685 0.49143425 -0.019916678 -0.29345506
1414 -0.5945456 0.063971914 -0.7516611 0.70984566 0.26281968 -1.2693466 -1.2153176 0.4168372 -1.4584376 0.4069329 -0.42759076 0.42228127 0.870631 1.6459953 -0.2235974 1.4173189 0.01839997 -0.028959164 -0.24233603 1.329466 -0.72058177 -0.060806416 -2.8395972 0.5894088 1.1954294 -0.24921426 0.48599932 -0.40031266 -2.0322204 0.49683082 -0.11959455 -0.35236824
43 -1.3377515 1.2813373 0.9517882 0.36583957 1.2605237 -0.5483498 -1.9600017 1.1261668 0.28222814 0.49338537 0.83453256 0.2934848 0.48309016 0.99310905 1.0854475 0.5048839 -0.32467452 0.7088567 -1.4080801 -0.17173518 0.39277458 -0.52286345 -1.3150185 0.8824587 1.6688567 0.09743022 1.972019 -0.014762495 0.33548835 1.1179024 0.73069876 -0.2758733
1433 -1.1362027 1.4227616 0.81768847 0.20207936 1.4740372 -0.58390874 -2.0749815 1.0877637 0.26076898 0.37564826 1.089432 0.5377101 0.20986834 1.1339134 1.0256796 0.47756827 -0.18323405 0.585453 -1.5517725 -0.13548921 0.3044487 -0.33875874 -1.5977852 0.7611801 1.5915166 -0.03789896 2.1660454 0.1595649 0.25096124 1.3541785 0.6213349 -0.042155612
46 -0.11739586 -1.4491334 -0.94606733 0.7942466 1.1356153 -0.6664607 -0.51271 0.059197772 -0.026958106 0.28425437 0.058091223 0.060429737 0.8965897 -0.18524016 2.5264943 1.5138671 0.96281636 -0.45756197 0.02148186 -0.03534729 -0.120453455 0.74871314 -2.1686995 1.6033847 -0.90761423 0.2827245 0.09807508 -0.20258373 0.122733496 1.3367047 0.39293185 0.05473482
323 0.106324285 -1.3663822 -1.1469604 0.80861896 1.451488 -0.6192958 -0.17817198 -0.00042325587 -0.052137833 0.07541202 0.0059316675 -0.090076506 0.8758867 -0.29740053 2.4999297 1.7020345 0.813515 -0.35049856 0.2855925 -0.039995756 0.018076321 0.8571387 -2.4466069 1.5878971 -0.64921325 0.30894178 0.21184552 -0.14267628 0.21605617 1.2300911 0.40820497 -0.0061410037
1256 -0.31836626 -1.7792333 -1.0870616 0.42831972 1.22603 -0.2829947 -0.5345869 0.3050845 -0.051416304 0.3285199 0.2527608 -0.015658366 0.99589187 -0.2028712 2.2745426 1.5830172 1.1404124 -0.390259 -0.19000176 -0.06806541 -0.2531128 0.587242 -2.1977897 1.390264 -0.47089326 0.15906414 0.1129362 0.26382384 0.22429164 1.2453063 -0.016678236 0.27092394
2256 0.0008114915 -1.2146828 -1.3049175 0.66007614 1.4987763 -0.6186937 -0.362921 0.030270003 -0.15801248 0.07310788 -0.1924281 -0.2074952 0.9883672 -0.36409768 2.5169485 1.7689552 0.86171573 -0.39199787 0.07701996 -0.04602168 -0.0045692623 0.8371969 -2.3514433 1.5795227 -0.720349 0.28708023 0.15287243 -0.2718451 0.20083134 1.2379733 0.5570421 -0.03416609
1880 -0.20460014 -1.6913345 -1.2108581 0.6296969 1.1905572 -0.5645728 -0.38636026 0.3083411 0.023335524 0.3958608 0.19122703 -0.086033374 0.9274533 -0.30912566 2.4051008 1.5772171 1.1503608 -0.4791646 0.025808753 0.048826013 -0.1511596 0.70989144 -2.1251404 1.6943905 -0.60823864 0.24697648 0.21279924 -0.061256424 0.20252675 1.2993065 0.25929937 0.09183233
89 -0.21550004 -1.6538153 -1.2873124 0.64649767 1.1485337 -0.44954816 -0.4762211 0.28994474 -0.055408746 0.29326847 0.2610057 -0.0383126 1.0825438 -0.20537457 2.3063097 1.644289 1.1384798 -0.5337056 0.112973645 0.0716065 -0.1138888 0.6299614 -2.1481543 1.620116 -0.5798507 0.27433902 0.1495066 0.01654804 0.17592305 1.334841 0.22941315 0.16972312
187 -0.1550004 -1.6140306 -1.0781022 0.6928452 1.2219955 -0.49368882 -0.47040826 0.2887029 -0.06502112 0.37309304 0.14229521 -0.019554665 1.0287515 -0.26535627 2.3612497 1.5130571 1.072979 -0.32237503 0.06746315 0.0018918571 -0.17153114 0.555453 -2.2305872 1.5698769 -0.63743573 0.27165237 0.13174386 -0.15900917 0.21474102 1.3465483 0.2572342 0.20927773
47 -0.065740354 -0.029120509 0.9310155 0.6887384 0.37308356 -0.33624795 -1.2921133 1.4607347 -0.5815278 0.92588365 0.96251625 -0.18025598 0.38506466 -1.2958902 0.48711428 1.2226945 -0.64710724 0.52139485 -1.3214597 -1.8573838 -0.3832198 0.35750273 -1.3793527 1.4016756 2.6365695 0.1186288 0.39569026 -1.0128685 -0.021463204 0.52316093 0.21399419 -0.54973364
2273 0.067775585 0.13160814 1.2352031 0.73706836 0.7318965 -0.25855225 -1.547013 1.221292 -0.45282272 1.001874 0.8859245 0.13978909 0.44208503 -1.027161 0.5322996 1.0601904 -0.8339874 0.25446832 -1.2752815 -1.7338952 -0.16969824 0.31363007 -1.5349184 1.4518548 2.5597196 0.18667923 0.24691647 -1.0036199 0.121978 0.42531046 0.37725076 -0.11185329
1457 -0.06190709 -0.036125153 0.8579072 0.6853961 0.43834305 -0.3564552 -1.2578965 1.3797755 -0.51984715 0.9574852 1.0949154 -0.23041305 0.43440396 -1.1890048 0.4247619 1.241902 -0.602746 0.5682329 -1.4027771 -1.8410424 -0.38690805 0.33031404 -1.3864733 1.331224 2.7117507 0.2870853 0.37312308 -1.0784245 0.0053553465 0.4984402 0.3045932 -0.6099566
49 -2.0756197 1.6806506 -1.9433893 1.5145608 -0.1453209 -1.105365 -0.53661054 -1.0157475 -0.43849924 -0.24451432 -0.011304593 2.5441177 -0.29750642 1.3982497 1.2637687 0.42021433 0.419395 0.82309055 -1.161306 0.8376497 -0.16863893 0.82236695 -0.29511046 0.7355771 0.7853119 0.109277375 0.44040176 -0.8300022 1.0095372 2.6522603 -0.06493994 -0.39535025
1321 -2.2162204 1.6868002 -1.9724174 1.4455383 -0.13058211 -1.0754844 -0.49423128 -1.1030022 -0.4098894 -0.16780606 0.07959975 2.523261 -0.31600982 1.3266393 1.2358816 0.48796713 0.4316027 0.7736445 -1.1053289 0.7349307 -0.0862596 0.81275254 -0.23306896 0.7872646 0.8214979 0.12372752 0.47585222 -0.8635083 0.90524197 2.7106915 -0.13074721 -0.4181851
50 -0.20739163 -0.746109 1.1449509 -0.38243088 0.41820675 -0.7450916 -0.482104 1.139982 -0.12837154 -0.1386426 0.084875435 1.8968214 -0.39711258 -2.2977417 0.6576637 1.5362043 -0.14355923 0.7720873 -1.8782041 -0.21805897 -0.829202 1.4982708 -1.8788481 0.62002754 0.41991273 -0.11068002 1.4904215 0.45748523 0.22882912 0.23337816 -0.98015857 0.044571027
1201 -0.15362236 -0.7763553 0.85584366 -0.14234343 0.34624332 -0.8825999 -0.6374423 1.4207516 -0.26365563 -0.09765969 0.2454467 1.553209 -0.55285764 -2.4691644 0.8378376 1.6562842 -0.10462382 0.7494133 -1.6548275 -0.0996856 -0.55580986 1.295351 -1.7922428 0.2717216 0.5098737 -0.4313322 1.8083292 0.48208177 0.22432029 0.23164564 -1.095613 0.1353616
242 -0.23198545 -0.80399907 0.8835673 -0.49401352 0.42921478 -0.6329977 -0.24756086 0.82812613 -0.14283012 -0.072444595 0.07474719 1.5205482 -0.36086097 -2.5397458 0.53873575 1.5175813 -0.07919131 0.7407142 -1.7361246 -0.17314999 -0.8687491 1.2680111 -1.9897609 0.5274464 0.5987392 -0.22141138 1.141505 0.36961317 0.16616756 0.0024719029 -0.9204886 -0.08981777
1126 -0.2845224 -0.85036385 0.9464623 -0.08098638 0.40252295 -0.79871416 -0.6526556 1.3099071 -0.14438564 -0.121262036 0.2687263 1.499592 -0.5201717 -2.4481947 0.72478634 1.6438049 -0.11206927 0.8799749 -1.7752542 -0.16415752 -0.59212273 1.092824 -1.8336462 0.45904046 0.4120454 -0.5070071 1.7147995 0.48009324 0.1999708 0.2094354 -1.0745977 0.12920244
823 -0.22781962 -0.8771511 0.83657765 -0.039792128 0.4956188 -0.8113884 -0.5984534 1.1887206 -0.10453093 -0.16281012 0.12987281 1.4604982 -0.56041116 -2.4832654 0.82427967 1.7782243 -0.026711011 1.030075 -1.8141512 -0.23354481 -0.6348228 1.2670051 -1.6740533 0.45666456 0.62462306 -0.45535925 1.7629459 0.6695409 0.3305573 0.19114627 -1.1487039 0.02789017
51 -0.019929422 0.2911383 -0.5744479 -0.5325996 0.33281356 -1.0678401 -0.65865165 -0.4021804 -1.6021999 -0.6061406 0.7699016 0.9714552 -2.1854987 0.95685256 0.3056765 0.9554967 -0.11945408 -0.5303815 0.077613704 -0.0741399 -0.3527333 -1.0149286 -2.065343 2.3526402 0.3075649 0.44799358 0.69175243 -0.61699057 -0.6644911 1.6013814 1.117899 -0.41448393
986 0.008583925 0.062570065 -0.6667586 -0.59348524 0.41840902 -0.9901258 -0.43471566 -0.38164365 -1.647855 -0.7722116 0.73478293 0.7218678 -2.1216347 0.9104472 0.27775705 0.95297295 -0.22821356 -0.45935926 0.024354132 0.03187257 -0.48772016 -1.1814243 -2.1446695 2.3924801 0.4228211 0.49364105 0.7728602 -0.48532563 -0.6746714 1.4243796 1.1878954 -0.45174283
1092 0.005162911 0.13037963 -0.70803785 -0.6869669 0.41645807 -1.0076976 -0.44932392 -0.39827278 -1.6903788 -0.8401146 0.73308724 0.72506756 -2.0890489 0.9446517 0.25117075 0.93572253 -0.112089776 -0.45364854 0.105196 -0.02841378 -0.44233236 -1.0359677 -2.1131985 2.4430645 0.40715292 0.47829825 0.7454873 -0.54372334 -0.5917497 1.4846305 1.1712217 -0.46711
2165 -0.004101102 0.07955685 -0.68621624 -0.6436572 0.4793604 -1.128465 -0.5257126 -0.4316896 -1.6646023 -0.7089189 0.6786989 0.72084904 -2.095862 0.9167978 0.2354486 0.9403588 -0.1995429 -0.49159405 0.052763138 0.026170049 -0.43461993 -0.9982048 -2.1289074 2.3834999 0.3559472 0.40106192 0.6817567 -0.66700876 -0.7126635 1.3633815 1.1880842 -0.43306127
52 -0.64465344 0.2767147 -1.5343536 0.61192834 -1.431884 -2.6148746 0.05732985 0.47503504 -2.044688 -0.14737143 0.88912004 2.4583714 -0.999769 -0.03983149 0.9302414 0.66286296 -0.62660676 0.6940972 -0.14891827 1.1101667 -1.0219941 -0.6528082 -0.7841754 0.639942 -0.6657518 0.56240076 0.22148463 -1.3920125 1.4680494 0.52049804 0.64293116 -1.2713219
537 -0.65558577 0.058079123 -1.6353625 0.53449404 -1.3827858 -2.6240404 0.3264852 0.37186065 -2.005283 -0.39153686 0.92645234 2.319413 -1.0577439 -0.077911645 0.9112037 0.6581722 -0.6383477 0.84637207 -0.06621981 1.0859448 -1.1572771 -0.59732324 -0.8623923 0.70841557 -0.56942296 0.34990215 0.14922689 -1.4484792 1.4075533 0.34519944 0.6658239 -1.2961648
53 0.79157704 -0.89896846 -1.4423859 -0.028646542 -0.31411505 -1.5017949 -0.11577044 -0.09360746 -0.88107187 -0.83798885 1.5884732 -0.40578738 0.22855945 -0.7715877 -0.14679968 -1.4869883 0.37707028 -0.14358132 -1.1249776 0.3998167 0.38954383 -1.5114743 -2.5334482 2.3607156 2.029418 -1.3991419 -0.2875261 -0.6808202 1.0320659 -0.6589526 0.5601166 0.27229518
1112 0.71068025 -0.95516187 -1.4595681 -0.08282544 -0.33590198 -1.4876896 -0.08835238 -0.10026489 -0.86359835 -0.7947505 1.6107644 -0.31993634 0.1583862 -0.7325376 -0.13198055 -1.4514136 0.29803658 -0.03225912 -1.1647514 0.37488222 0.37943363 -1.3995717 -2.5483093 2.452116 1.9629992 -1.4633988 -0.30279553 -0.76489997 0.9573874 -0.69017655 0.54688084 0.31422126
56 -0.7218909 -2.281198 -1.0378685 0.3275771 0.8194401 0.058578804 -1.231364 1.4978325 -0.25643113 -0.07025437 0.12677656 0.15612213 0.68094754 -0.18573959 1.4478207 0.72049546 1.2540078 0.5272434 -0.83924484 -0.30450806 -0.44813013 0.64092106 -2.0321162 0.2536237 0.43218336 0.03724157 0.17297591 0.30026603 0.9189636 1.0437254 -0.89335924 0.55657387
1510 -0.6417679 -2.0991793 -1.0415049 0.26479083 0.80577016 -0.057097998 -1.2475609 1.4802787 -0.17977935 -0.10321052 0.20701538 0.11935367 0.7163735 -0.11520363 1.5192645 0.85021865 1.2185564 0.55462706 -0.7152474 -0.4293575 -0.5150082 0.68021476 -2.094965 0.28986713 0.3955997 -0.04240362 0.33589935 0.27902296 0.9482247 1.1502197 -1.0169924 0.43432775
1319 -0.702425 -2.2813275 -1.0642762 0.3603469 0.9095378 -0.06976818 -1.2305276 1.2815869 -0.12603252 0.117862344 0.18064235 0.10812414 0.7530149 -0.19902892 1.7046279 0.82944864 1.3615597 0.4820914 -0.63360125 -0.22306633 -0.41208148 0.6723529 -1.9806033 0.19863705 0.5065986 -0.10414202 0.12919426 0.31671706 1.0639765 0.99441534 -0.9808341 0.46388218
527 -0.7887348 -2.127505 -0.8073786 0.22799101 0.8832107 0.034448367 -1.225445 1.4976798 -0.22670008 0.09090673 -0.09217138 0.6061207 0.41770455 -0.26295954 1.570327 0.5586586 1.2578889 0.72433835 -0.8989728 -0.36860296 -0.2000267 0.8703872 -1.9593449 -0.28298277 0.5329071 0.05518961 0.19901294 0.05821596 1.2722623 1.0519869 -1.1587887 0.55466396
1490 -0.6646022 -2.1951487 -1.1686448 0.25988877 0.85658234 -0.018056551 -1.1058383 1.0718492 0.07351096 0.15910707 0.3652637 0.14779173 0.873232 -0.06330661 1.7709156 1.0333112 1.4476132 0.21620052 -0.67967606 -0.17113973 -0.5269479 0.64287186 -2.0473292 0.57186973 0.1712182 0.06170051 0.049800597 0.24114215 0.69607323 1.1705083 -0.65934867 0.5693433
1522 -0.88448596 -2.2896624 -0.98580366 0.35601965 0.77140605 -0.1072547 -1.156401 1.1668154 -0.16801488 0.16843113 0.009058838 0.14527467 0.87366277 -0.034921 1.4973717 1.0294412 1.1959155 0.35448864 -0.6418781 -0.102342 -0.39517906 0.77330923 -2.0941482 0.44328493 0.33697605 0.16267662 0.22999136 0.16360945 0.7140671 1.207581 -0.8874567 0.65745246
1492 -0.77612895 -2.3751802 -1.078249 0.29350194 0.9058847 0.0015373722 -1.1565421 1.4458895 -0.20613869 0.09080872 0.16628091 0.2565755 0.524784 -0.35466626 1.605227 0.8390233 1.2553076 0.5275178 -0.8577875 -0.14473912 -0.32582268 0.7121752 -2.0621989 0.22160098 0.40094543 0.056512706 0.22542801 0.21368502 0.8731429 1.0111988 -0.96799475 0.6373448
2198 -0.7838615 -2.1635077 -1.1321034 0.23082644 1.019314 -0.016111294 -1.0506724 1.0515977 0.0006141909 0.118950866 0.26913992 0.070487 0.7992172 -0.10316242 1.6528299 1.088887 1.4553694 0.096877016 -0.53130794 -0.09441838 -0.5414861 0.69236207 -2.098731 0.6276286 0.1677293 0.07008064 0.051326018 0.392787 0.7136207 1.175052 -0.5960114 0.43112245
890 -0.7925981 -2.1925695 -0.8918958 0.17646363 0.8253624 0.0003428234 -1.2761298 1.5919232 -0.2773193 -0.1284656 -0.27481678 0.398442 0.5553698 -0.126161 1.4558651 0.5888068 1.2108176 0.64741623 -1.021609 -0.429246 -0.35617766 0.59171546 -2.1594577 -0.07153259 0.49799806 0.1622875 0.24441232 0.07773572 1.0416561 1.1560129 -1.0871544 0.5379129
1531 -0.8995698 -2.2316985 -0.9539045 0.39042324 0.88970727 -0.01962942 -1.2602825 1.431875 -0.4020942 0.18716708 0.1744458 0.29484704 0.7159705 -0.213729 1.5442827 0.780951 1.1692978 0.43112385 -0.93928146 -0.34189582 -0.31940657 0.6590188 -2.039782 0.07836613 0.37930137 0.038340524 0.1926041 0.22940584 0.9934039 1.2146202 -1.0317298 0.5841481
57 -0.5751864 -0.21420336 -0.14157675 0.3198687 -0.6557858 -1.9241506 0.84394395 0.4400232 -1.7943314 0.099250965 1.7939222 -0.0028339697 -0.36886242 -0.4433457 0.15252683 -0.09078744 0.15015697 0.105563186 -0.34974334 -0.3914101 0.89662415 -1.8483338 -3.2027407 1.0285971 1.6503255 -0.42507288 -0.89257324 -0.8869566 0.3899703 -1.3289734 0.22184445 -2.114918
960 -0.6047978 -0.23900357 -0.110890724 0.29726455 -0.7529882 -1.9376234 0.84294236 0.44997525 -1.7211416 0.07484769 1.7090607 0.068007186 -0.43392777 -0.43910435 0.100017175 -0.14431676 0.13332663 0.0908008 -0.37777892 -0.45958728 0.8728353 -1.7145156 -3.2926824 1.0114896 1.6190733 -0.4597613 -0.95831543 -0.86455005 0.4124912 -1.2987586 0.21205246 -2.1154304
60 1.1001887 -1.0671265 -0.12769696 0.41889444 0.5382155 -1.7500868 -1.2451924 0.18982221 -0.35079628 -1.4844934 0.801301 0.752813 -0.7389687 -0.13806288 0.31378868 1.609389 -1.4074522 1.1780664 -1.7274154 -0.1389267 1.1639179 0.12068925 -0.7797145 1.1288035 0.6444671 -1.463449 -0.34229746 0.38459894 0.6619992 -0.078071006 0.5379221 1.2715418
1482 0.9832999 -0.7325876 0.29949102 0.25479698 0.6605467 -1.9149152 -1.1614677 0.5384915 -0.2415604 -1.740612 0.79638815 1.1044909 -0.84774435 0.09555868 0.12218185 1.438434 -1.1500494 0.98541903 -1.9577258 0.09103568 1.1972865 -0.1440271 -0.7918719 1.2048851 0.6038061 -1.694551 -0.18907988 0.62489164 0.7323523 0.20394386 0.46464 1.3061969
1484 1.0822381 -0.7322893 0.38023704 0.23870349 0.6647247 -1.9520673 -1.1494544 0.569423 -0.31984633 -1.6429361 0.89423347 1.0764327 -0.9144342 0.16955411 0.07390744 1.4157374 -1.1968408 1.1166308 -2.1163788 0.15899843 1.1615407 -0.022698462 -0.74217653 1.3844692 0.43097878 -1.7481928 -0.14484958 0.67390954 0.7561989 0.12536386 0.4043283 1.333907
2086 1.0902945 -0.74844867 0.35339072 0.2366481 0.59138095 -1.9589982 -1.2065996 0.577282 -0.2550454 -1.6183416 0.8873012 1.0304288 -0.8983937 0.14191319 0.15933366 1.4664885 -1.1015534 1.1421238 -1.8989035 0.07783617 1.2563162 -0.052952908 -0.79840827 1.3505384 0.55042416 -1.7630962 -0.17912307 0.6100813 0.7457946 0.23781274 0.32917902 1.3796576
1255 1.012497 -1.3244256 -0.2609013 0.35707054 0.32585564 -1.3707012 -1.2236494 0.024547305 -0.4686065 -0.52131206 0.82695377 1.1703582 -0.29637602 0.054929115 0.6255221 2.0352614 -1.3750331 0.8061801 -1.5954776 -0.8708412 1.207378 0.5811591 -0.79160666 0.8747688 0.41794595 -0.77892613 -0.629094 -0.21381377 0.8790375 0.19604637 0.47306338 1.2121621
62 -1.6984802 -0.61178213 -0.8571858 1.7881399 -0.5683127 -1.9578274 -0.11738877 0.51723224 0.70576334 -0.40263084 0.12637386 0.5250974 1.4835982 -0.51548773 1.3523258 -0.4987364 -1.0314994 -0.06847844 -0.22081167 -0.46970755 -0.7232969 0.5955351 -0.82029074 2.2388332 0.5049607 -1.075441 0.6610053 -0.21749097 1.8212874 0.72323763 1.2441256 -1.9018247
656 -1.7087157 -0.38570526 -0.7410372 1.718515 -0.5538123 -1.9011477 -0.110746995 0.4355989 0.7783831 -0.23222417 0.08764132 0.66592026 1.5666099 -0.29925284 1.3576423 -0.2356125 -1.0966394 -0.2885289 -0.36850035 -0.62208045 -0.71476823 0.6270022 -0.8849208 2.03605 0.46143416 -0.9987089 0.6799362 -0.21435933 2.017088 0.755903 1.1505877 -1.808663
2014 -1.767267 -0.47539225 -0.794614 1.7624241 -0.66959095 -1.8986708 -0.25522393 0.42763945 0.7413094 -0.3333126 0.08081564 0.8284068 1.5013645 -0.38383156 1.2694498 -0.3831529 -1.1274165 -0.04844256 -0.32822776 -0.39332125 -0.6609282 0.64713657 -0.6523406 2.1697063 0.43841937 -0.8624012 0.7799339 -0.1161619 1.9156018 0.89350694 1.2223554 -1.8283304
63 0.6328032 -0.9462056 -0.24026783 0.45333207 0.7626516 -1.4217188 -0.5295428 0.66096723 -1.1073285 -1.0880392 -0.63487214 0.8815263 0.7197516 0.9180649 1.9926865 0.064883806 -0.19599819 -0.736232 -0.8755249 -0.4952643 0.5929469 1.2765038 -1.5403174 1.0806795 0.9552221 -0.48927313 1.1844821 0.88601816 0.26038742 0.24412528 0.6710917 0.6920778
417 0.6490086 -1.1146433 -0.21483673 0.5986698 0.8858455 -1.2083353 -0.30256683 0.4758174 -1.4360808 -1.1084476 -0.97892517 0.7686598 0.6521968 0.7767922 1.9388477 0.19492175 -0.3131117 -0.5142683 -0.72101134 -0.7083976 0.70827115 1.1445594 -1.5106312 1.2467885 1.1927509 -0.48138216 0.97705203 0.8083571 0.16621839 0.19058397 0.76668847 0.64558256
414 0.6593702 -1.1777537 -0.20928548 0.49320593 0.94090986 -1.1238985 -0.30040064 0.43118894 -1.3431681 -1.0298455 -0.85024625 0.81374264 0.7381309 0.86230177 1.8964825 0.11168795 -0.16880049 -0.51357204 -0.72819555 -0.70456296 0.93614167 1.1466029 -1.6012952 1.3146424 1.0982962 -0.5117919 0.8709739 0.8588943 0.21058969 0.20992856 0.7631573 0.54630136
1925 0.6368569 -0.8233587 0.13286416 0.16475645 0.57221633 -1.5415127 -0.30577388 0.6914642 -1.0224319 -0.98589873 -0.30281055 1.0055833 1.0780933 1.0641447 1.7617311 0.176554 -0.36456782 -0.5572412 -1.0956982 -0.51540214 0.2913461 1.3250992 -1.3191867 1.1918449 0.82733077 -0.37860706 1.2691174 0.89418685 0.142628 0.2779067 0.7561561 0.75170165
839 0.6559193 -0.99394757 -0.2546719 0.5712 0.9012055 -1.2155813 -0.16492093 0.46321988 -1.2962848 -1.1566793 -0.8638606 0.7443856 0.7440392 0.90597564 1.9392829 0.41511565 -0.23368281 -0.60551715 -0.70285624 -0.726979 0.7199415 1.1057616 -1.5164642 1.1165701 1.1950845 -0.47106287 0.97052723 0.82174224 0.18256348 0.20495912 0.6006665 0.583636
1835 0.6294729 -1.0009027 -0.19741848 0.40343994 0.8358852 -1.3849288 -0.4569493 0.46603334 -1.1028517 -1.1052321 -0.6162122 0.9422616 0.6740853 0.86289704 1.9891587 0.069646806 -0.32124463 -0.67505586 -0.9020437 -0.5211712 0.5757598 1.180086 -1.4068484 1.2246658 0.94377023 -0.46403652 1.1457407 0.90391946 0.17720258 0.25216404 0.62017304 0.7372995
2221 0.66952884 -1.0712732 -0.14373639 0.5540534 0.9737201 -1.2686808 -0.24761629 0.50554025 -1.2872132 -1.1154119 -1.0627328 0.7472358 0.78389895 0.7005818 2.0488975 0.13230532 -0.11802661 -0.5456235 -0.7089453 -0.52933663 0.65182567 1.1180912 -1.5051954 1.2192588 1.2004473 -0.47081506 0.9356321 0.76228154 0.12015813 0.18124689 0.7647958 0.5632178
436 0.51671153 -0.89967775 0.21553917 0.30038336 0.50656635 -1.4394387 -0.21909678 0.60129666 -0.9749909 -1.0739588 -0.44010168 0.9682286 0.9718709 0.99922055 1.9724581 0.22978036 -0.34857285 -0.66441274 -1.1368896 -0.49000385 0.30404785 1.2911513 -1.3481292 1.1729947 0.9264028 -0.23009901 1.0998555 0.81262064 -0.023601282 0.3979803 0.66706073 0.7891798
1083 0.6631117 -0.94519454 -0.18706645 0.42449394 0.9600577 -1.3313198 -0.40131533 0.37323853 -1.2311037 -1.1718202 -0.78602433 0.74136305 0.7900222 0.8550471 2.0166314 0.14652348 -0.29089674 -0.34377703 -0.8765243 -0.56843144 0.5308717 1.3065078 -1.4328084 1.1713214 1.0241907 -0.52750885 1.1594505 0.8989399 0.27604687 0.18367542 0.68871266 0.5764682
1084 0.6244895 -0.97625 -0.21777505 0.3228782 0.89147764 -1.234279 -0.3846558 0.48610923 -1.3042971 -1.1147672 -0.7714001 0.72354263 0.6983664 0.8357117 2.0927591 0.12992911 -0.34211814 -0.54067934 -0.8673911 -0.5847757 0.53367245 1.3085638 -1.5325466 1.1646028 0.97961575 -0.53033304 0.9752984 0.91145647 0.26141417 0.25407064 0.64816236 0.6827265
1085 0.65895265 -0.94036376 -0.2623283 0.472575 0.89950335 -1.3756447 -0.33185902 0.5519857 -1.1450186 -1.1864495 -0.6751552 0.82589835 0.68568546 0.93868554 1.8849856 0.1600527 -0.42899665 -0.60211086 -0.85230494 -0.6884959 0.46443915 1.2677515 -1.4778128 1.1496526 1.0852023 -0.41959274 1.1229372 0.8849279 0.20538479 0.16289665 0.6045071 0.6607822
2110 0.683959 -1.0246289 -0.28368944 0.5297384 0.9982999 -1.352409 -0.34656996 0.4803923 -1.3959256 -1.0477027 -0.74498546 0.7627341 0.7042631 0.911408 1.896846 0.017891722 -0.36741218 -0.4276599 -0.76064444 -0.5999974 0.78008837 1.2044213 -1.5429903 1.19591 1.0868406 -0.5657244 1.0652434 0.8534363 0.35479406 0.16255462 0.7600204 0.6945569
64 0.5673623 -1.3798448 -0.8977311 0.22505036 0.01534487 -1.2755704 -1.5104021 -0.13301535 -0.8686534 -0.20539835 0.4914072 1.1745228 0.09480577 -0.21671234 1.1311831 2.2592065 -1.3024822 0.3305096 -1.5414938 -0.9339696 1.3349434 0.5801841 -0.658626 0.6138011 0.14463533 -0.006320025 -0.3359974 -0.3036281 1.1789511 0.241888 0.46261153 1.1984273
485 0.8479608 -1.4005716 -0.91638124 0.2618493 0.22965285 -1.3634272 -1.4315853 -0.20037864 -0.7850699 -0.3207203 0.7829268 1.1174592 -0.059585866 -0.28478947 1.0120196 2.3139145 -1.2050234 0.47073066 -1.3738792 -1.009542 1.2483747 0.6907129 -0.8279841 0.4155531 0.50762004 -0.32648474 -0.36797085 -0.11244695 1.1679667 0.14640714 0.32032603 1.2143936
72 0.5559879 -1.2681657 -0.95561206 0.14485839 -0.22034787 -1.2945734 -1.5395275 -0.037405983 -0.90574855 -0.22350596 0.6996374 1.1784439 0.017352024 0.013401862 1.0759473 2.3830502 -1.2375622 0.07681885 -1.598543 -1.0972376 1.2317626 0.72125274 -0.6500837 0.5491423 0.19335763 0.13015394 -0.24531722 -0.1857316 1.1952182 0.24388906 0.27653414 1.3432908
1481 0.5307033 -1.3613945 -0.8717048 0.21811394 -0.003420123 -1.3686948 -1.555876 -0.16509563 -0.9336912 -0.21777846 0.58260816 1.0943366 0.126608 -0.053668775 0.9553428 2.261251 -1.1763743 0.27370197 -1.6348628 -1.0908859 1.312379 0.6836311 -0.6416373 0.6563061 0.15838808 0.004418326 -0.41753158 -0.35066658 1.0573403 0.32001737 0.40273285 1.2486782
493 0.9962932 -1.2648815 -0.8518646 0.07766899 0.20561613 -1.3839929 -1.6387773 -0.1882262 -0.8921614 -0.3443873 0.7828971 0.99159604 -0.075084254 -0.19108194 0.9342243 2.3371856 -1.1265475 0.35145968 -1.4004203 -1.1210952 1.0880767 0.6335095 -0.84268665 0.5087102 0.4769105 -0.31082508 -0.27904484 -0.36877 1.1063826 0.06336238 0.4018986 1.3634074
84 0.9284631 -1.3917387 -0.8068256 0.09679978 0.24638775 -1.3165072 -1.5846622 -0.123131566 -0.7915116 -0.41505533 0.6893611 1.0239809 -0.16902 -0.18913116 0.9653372 2.3968966 -1.1767999 0.41112313 -1.4627545 -1.0502629 1.064194 0.7424602 -0.84517264 0.5195219 0.5043801 -0.34553027 -0.43565854 -0.30025664 1.1925508 0.09282956 0.44172463 1.295351
2264 0.09705519 -1.0493468 -0.9692594 0.18598074 -0.14153291 -1.0441251 -1.612371 -0.11872753 -0.89217824 0.03508156 0.1390066 1.3561218 0.28031906 -0.09645984 1.048512 2.1534595 -1.1411108 -0.16697578 -1.7078885 -1.0762669 1.5296761 0.43548387 -0.6482464 0.96536136 -0.16426373 0.07286443 -0.5100682 -0.071999475 1.0866376 0.6492852 0.13480744 1.4857101
893 0.9670672 -1.3114601 -0.8245974 0.20773618 0.2621116 -1.3527608 -1.5155396 -0.1335355 -0.81541985 -0.4922907 0.7564238 1.1222336 -0.030493889 -0.10523337 0.97674435 2.3510556 -1.2158005 0.44679973 -1.4296014 -1.0676223 1.1214477 0.70338434 -0.82672477 0.40956604 0.58792686 -0.23502247 -0.4578365 -0.30234155 1.2240257 0.08050073 0.43352094 1.2235695
519 -1.1079642 -0.036555745 -0.29144153 0.75708306 1.0567288 0.2556083 -1.3997129 0.9070443 -1.3015642 0.19150615 0.14491208 0.70028716 -0.27844605 1.3140157 0.59128714 2.3275108 0.2055846 0.18483378 -0.29814938 -0.923996 0.26185843 -0.6309818 -0.4959579 1.992824 1.4539596 0.64980435 0.44709203 0.27995616 -0.29207307 0.8389102 1.7205099 -0.75678205
522 -1.1527927 -0.0010925865 -0.3065053 0.7321898 0.9759352 0.18950287 -1.4107561 0.7235428 -1.2865131 0.21389183 0.14776812 0.61487144 -0.40376493 1.334422 0.6098564 2.3359385 0.19564869 0.27894136 -0.23549488 -0.9615632 0.305675 -0.51566404 -0.46912813 2.0457025 1.4914476 0.6706422 0.54276097 0.2908732 -0.3491075 0.74781716 1.7224758 -0.6473418
1899 -1.1943171 -0.006970368 -0.36030048 0.7372464 0.97574383 0.25389677 -1.4968016 0.8913526 -1.2066294 0.21125561 0.11513618 0.6823716 -0.4219765 1.4226792 0.5800823 2.4168844 0.22987904 0.24528441 -0.25975132 -0.97137225 0.35688373 -0.48771974 -0.5837728 2.008198 1.4970646 0.693924 0.5291721 0.30797997 -0.32153308 0.7587513 1.6961396 -0.6882938
492 -1.1011707 -0.07972317 -0.30937544 0.6811343 0.96061194 0.18497567 -1.4266617 0.8286176 -1.3926667 0.21567439 0.10460322 0.7151346 -0.32815576 1.3543364 0.58152497 2.366801 0.1983923 0.20459859 -0.29313275 -0.8939664 0.19152981 -0.50296783 -0.49117702 1.9353313 1.4325366 0.7521226 0.61200565 0.3252662 -0.32960626 0.77456963 1.7321173 -0.7266196
1240 -1.3152132 -0.041326616 -0.38124582 0.49318984 0.98999393 0.25014946 -1.2519855 0.8145239 -1.442555 0.15882172 0.15177633 0.4048811 -0.20894776 1.2648885 0.5711141 2.4316 0.19733131 0.14140895 -0.3168787 -0.75002766 0.22929144 -0.5327345 -0.5384696 2.0127544 1.353633 0.7790662 0.46020234 0.27800983 -0.4160327 0.7365363 1.664556 -0.72704244
507 -1.0740474 -0.07869053 -0.28275838 0.69610643 1.061206 0.24462599 -1.3462439 0.9004753 -1.2665243 0.0778128 0.0018015441 0.623811 -0.37179664 1.4311891 0.67481935 2.327097 0.20980904 0.15119207 -0.23731646 -1.0006388 0.21393782 -0.6145734 -0.42849907 2.0199072 1.5537047 0.74914455 0.6070072 0.17243244 -0.23551826 0.79590005 1.6192079 -0.7530198
67 -0.039653994 0.58587706 1.0497761 -0.906759 1.3367721 -1.5951465 -0.8932115 0.5789101 -0.47884262 -1.1293174 0.92862004 -0.11732895 -0.42312798 -0.4457553 0.6129648 0.4559425 0.69556373 0.27146575 -1.0699192 0.89865446 0.839333 0.76371443 -1.9087585 2.1364002 1.1223142 0.73718596 -0.7097346 0.5146161 0.6780864 -0.58737993 0.6545593 0.77743834
773 -0.09292622 0.34775782 1.0051662 -0.89690465 1.2950298 -1.5403379 -0.6836672 0.6710533 -0.5842512 -1.222599 1.0099115 -0.030346438 -0.47475615 -0.59066206 0.56228876 0.33314824 0.6884854 0.42485234 -1.0106157 0.8972038 0.88377625 0.786341 -1.8887829 2.2767344 1.0581318 0.68820965 -0.66899484 0.379468 0.6382362 -0.6504163 0.6992655 0.85977805
71 -0.059563395 0.5392298 1.0568492 -1.0017267 1.3881446 -1.4846258 -0.8394996 0.48754638 -0.52389145 -1.172425 0.98388827 -0.053810228 -0.4570028 -0.5227005 0.7229043 0.27223518 0.7942648 0.18553174 -0.95091206 0.88962173 0.8907646 0.70110905 -1.8581406 2.2260118 1.1235493 0.6656885 -0.6651402 0.44279084 0.69275844 -0.5449873 0.6347582 0.8622047
765 -0.109993495 0.42977604 1.0870923 -0.9653873 1.3750198 -1.5491681 -0.8664771 0.4965217 -0.55616593 -1.0303748 1.0027441 -0.22749473 -0.5143778 -0.52357316 0.4709752 0.4414327 0.6212423 0.24805157 -1.0934179 0.95066524 0.8212773 0.79943717 -1.8466424 2.2173789 1.2366883 0.7068127 -0.7114262 0.3497619 0.77369744 -0.6837137 0.70803607 0.80101335
778 -0.05987976 0.44910148 1.1439303 -1.0306312 1.3129488 -1.5223407 -0.79245454 0.5238147 -0.5480978 -1.1966566 0.9881975 -0.025145823 -0.4787319 -0.53458863 0.7201918 0.3489679 0.8395995 0.10552594 -1.0302299 0.7121225 0.8286002 0.7030046 -1.8554962 2.2269988 1.0763898 0.76880205 -0.6097423 0.57192725 0.7159624 -0.62391806 0.644579 0.8676807
751 -0.19351937 0.4787888 1.232473 -0.9224496 1.2315621 -1.4605279 -0.6048991 0.6379744 -0.53745764 -1.108634 0.8631457 -0.013981754 -0.45178404 -0.5837807 0.5489591 0.4290495 0.7222875 0.09827052 -1.0137429 0.75789785 0.89793134 0.7194942 -1.9700304 2.336568 1.1478951 0.7588605 -0.74399495 0.37932757 0.62162733 -0.5951314 0.755369 0.8479597
755 -0.26193532 0.44766036 1.195002 -1.0149258 1.2539531 -1.4723175 -0.8024209 0.48858133 -0.59122914 -1.1614755 0.97264755 0.081824616 -0.49286097 -0.5615599 0.563256 0.22905973 0.8099993 0.16876696 -1.0667472 0.8611713 0.9159149 0.72215 -1.8395655 2.3195696 1.0338655 0.6379403 -0.5956203 0.30750078 0.7014733 -0.48461848 0.8480719 0.82319504
1238 -0.09770835 0.5566127 1.3048104 -1.0157237 1.2776842 -1.4622949 -0.89002764 0.5128552 -0.46896654 -0.99913526 0.8423854 0.14018545 -0.42020276 -0.45468673 0.83186287 0.35468665 0.898542 0.013995717 -1.111085 0.73409504 0.8756473 0.7789642 -1.8393476 2.3432293 0.9229629 0.7647856 -0.59609944 0.462702 0.56252295 -0.50807494 0.6445009 0.8237432
760 -0.21478632 0.4648286 1.2134618 -0.89393646 1.296232 -1.4479585 -0.8003738 0.593358 -0.5498017 -1.1632038 1.0096688 0.13466711 -0.4289328 -0.5239447 0.5348529 0.2734861 0.7809978 0.2725012 -1.1415254 0.777882 0.8499689 0.65816534 -1.8294376 2.3138065 0.9921632 0.6600666 -0.7117623 0.3111952 0.65621644 -0.51597357 0.90412897 0.8385943
477 -0.12819543 0.35059884 1.1966468 -0.89737284 1.3692645 -1.5072199 -1.0194169 0.5513363 -0.5711861 -0.9479245 0.84422296 -0.07359538 -0.46736792 -0.59076667 0.66220033 0.21254987 0.66945446 0.38425726 -1.1021817 0.8550287 0.78127956 0.8867765 -1.7131522 2.2999127 0.9571989 0.6994221 -0.5379604 0.4298651 0.6164717 -0.61511093 0.6557199 0.8563517
70 0.9453749 -0.012301814 -0.10548203 1.6014456 -1.833486 0.18598507 -0.27715382 -0.6394131 -3.035936 -0.83046395 -1.4000375 0.3252602 -0.37443745 0.39354774 2.1012006 0.8367585 0.12025758 -0.5917902 -0.81854177 1.6414086 0.25446713 0.34437913 -2.5818145 0.27300733 0.8432385 0.6035137 0.22138505 0.706843 0.285481 0.3947353 -0.6616223 -0.40537488
87 0.95968133 0.21045354 0.0037403277 1.6163375 -1.8927933 0.18805428 -0.25919533 -0.7072111 -2.849866 -0.73246694 -1.4328288 0.6706281 -0.4225647 0.50689095 2.2208033 0.90157545 0.16104233 -0.55341154 -0.84566724 1.5509984 0.40488842 0.3253177 -2.6008415 0.25815794 0.73968595 0.7572701 0.20716162 0.6769901 0.35506636 0.5277245 -0.6313233 -0.36484846
75 0.20299402 0.5018147 0.76577777 0.36794013 0.45598343 -1.3782537 -1.1147125 -1.3455971 0.24899888 0.054694314 -0.469875 0.08775775 -0.103686996 0.5011586 0.72454715 0.12304462 0.37143433 -0.062660016 -1.0651257 0.7710534 0.50405973 0.3458278 -3.3799274 0.5108645 1.8782828 -0.33639315 0.5285866 -1.445189 0.5626985 -0.031283796 0.0145755755 0.9249396
480 0.0981116 0.37551415 0.6765706 0.22091264 0.3931117 -1.3651183 -1.2017118 -1.3564566 0.31428683 -0.05465816 -0.49223447 0.092866234 -0.08108639 0.46261925 0.7200285 0.14869604 0.36391276 0.09385496 -1.1333815 0.7563517 0.4053079 0.29702628 -3.43221 0.45096162 1.9468052 -0.21293364 0.40094134 -1.5124834 0.52313435 -0.014387448 -0.009365938 0.8925763
1926 0.06497665 0.46756145 0.69339633 0.27360773 0.46737075 -1.3579274 -1.1729192 -1.3393502 0.34044755 0.04415223 -0.527122 0.064761624 -0.17995335 0.43539196 0.7610989 0.16071475 0.45635146 0.041352794 -1.168728 0.76747364 0.40981773 0.31001478 -3.3492496 0.4445698 1.9095235 -0.23694606 0.46924397 -1.5608209 0.43898854 0.07456127 -0.063453056 0.8121908
76 0.09490086 0.46229166 0.66337985 0.20665275 0.48011616 -1.331132 -1.2021999 -1.3581823 0.3663619 -0.09907021 -0.45493442 0.091880105 -0.076883696 0.41193664 0.67682475 0.18000679 0.38176894 0.06779281 -1.1055019 0.8159765 0.33264202 0.33816078 -3.4778657 0.568378 1.9602327 -0.24780203 0.42430726 -1.6080873 0.452388 0.040263183 -0.02909097 0.93826544
1243 0.020194022 0.26658002 0.53180516 0.20930992 0.50718343 -1.316687 -1.2778544 -1.4363627 0.37085205 -0.08226395 -0.56350327 0.060430184 -0.050972123 0.44452018 0.7345491 0.13312227 0.33813745 0.15868987 -1.1455204 0.90550804 0.3446977 0.2553897 -3.4500015 0.4734814 1.8841413 -0.20785156 0.3975026 -1.4913332 0.47731298 -0.027640931 -0.010229163 0.7922281
1244 -0.0019514615 0.2909273 0.58276975 0.21412273 0.45569542 -1.301135 -1.1909019 -1.307984 0.36216533 -0.0060967756 -0.5797122 0.0042249234 -0.10367318 0.37792784 0.67847013 0.20933168 0.44775283 0.1314291 -1.1077201 0.8598176 0.42900315 0.283575 -3.4344356 0.53326285 1.9254366 -0.31969628 0.4346763 -1.4503318 0.5890789 -0.017393015 -0.052067682 0.86295
1245 0.15302098 0.39908442 0.6916744 0.34663242 0.3990641 -1.3193234 -1.2577605 -1.3343623 0.36514407 -0.029143458 -0.48795816 0.122245334 -0.10518241 0.4648726 0.8243462 0.20173599 0.46118957 -0.00082606974 -1.1399002 0.76193416 0.4475189 0.4080224 -3.3933477 0.44917655 1.8833604 -0.33185917 0.42750642 -1.428869 0.52167654 0.059911706 -0.04864693 0.84178656
77 0.87135506 -0.8044911 0.31534475 0.54917645 -0.52030927 -0.5081759 -2.4388425 0.245905 -1.0424148 1.0231754 0.028493833 0.8241019 0.28709653 0.33882082 0.18350218 1.2926979 1.6456739 -0.38755643 -0.26112914 0.1550975 -1.8928239 0.41748238 -2.4263167 1.7951536 1.1916196 0.65603006 -0.17327897 -0.12225185 -0.08270649 -0.27130842 -1.6937659 -1.2771623
490 0.8385646 -0.7440344 0.31236306 0.50077355 -0.49960852 -0.52166337 -2.3405862 0.23946644 -0.9965081 1.1328229 0.120827 0.82618594 0.26780432 0.28291702 0.17696387 1.3292552 1.5427631 -0.41861564 -0.35262758 0.06870925 -1.9584572 0.48036242 -2.361361 1.824422 1.133629 0.6893581 -0.17960913 -0.079616524 0.008312456 -0.24363582 -1.5953863 -1.2942141
514 0.8283072 -0.86136734 0.15150736 0.5158643 -0.583422 -0.47831047 -2.3127825 0.23930003 -1.0830029 0.94581264 0.10136609 0.70669806 0.25790158 0.19804415 0.10822459 1.2315644 1.5082228 -0.3224187 -0.22624168 0.16717766 -1.9345738 0.52737343 -2.42118 1.7482806 1.2703835 0.66379195 -0.18272445 -0.12559144 -0.11387818 -0.33613256 -1.5004431 -1.2693799
78 -1.6972365 0.11384557 -1.5343254 -0.16528626 0.7093969 0.49652025 0.16753055 0.42775726 -1.3191861 0.53707254 1.171732 1.961683 -0.48149902 -0.57505065 -0.87412435 2.337648 0.33525115 0.6224584 -1.0567042 -0.23202063 -1.2361778 1.7051226 -1.4525859 2.0508893 0.08868626 0.07123327 0.18229823 -1.1811486 0.8705703 -0.0164415 0.55920285 -0.022868946
520 -1.60026 -0.014209108 -1.5983298 -0.19035806 0.59789264 0.5512997 0.21230969 0.49117753 -1.3339868 0.47762677 1.1682693 1.7521404 -0.52540284 -0.73268175 -0.95802504 2.2329888 0.34848076 0.61828846 -1.0420091 -0.19054802 -1.305425 1.658179 -1.572698 1.9028606 0.16091959 0.10539456 0.2438172 -1.1251318 0.8412671 -0.16878629 0.5011412 -0.059433803
775 -1.6969794 0.047012035 -1.4729872 -0.13746081 0.6537373 0.6252843 0.005158383 0.51439947 -1.282753 0.5815722 1.1348226 1.8592019 -0.5655559 -0.57598215 -0.88031054 2.299774 0.41963142 0.6575534 -1.1219262 -0.20759791 -1.2957258 1.7059637 -1.4901325 1.9165947 0.16633463 0.08089671 0.2332804 -1.1451123 0.90756994 0.03251953 0.4842413 -0.036688566
80 -1.0729063 -0.63701576 -0.4899047 0.6333313 -1.4207655 0.71074635 0.32424426 -0.5967656 -0.95603424 1.0824883 1.0833654 1.2604394 -1.1729391 -0.09608349 0.8984741 0.9599106 0.08623392 -0.23130828 -1.4940765 -0.27287492 -0.2658983 2.2816305 -1.946558 2.124958 -0.018162806 -0.09527628 0.6265741 0.41581354 0.14741954 0.031148974 0.5818135 0.2663017
1560 -1.1020796 -0.65244126 -0.5601067 0.64345807 -1.4454668 0.6252728 0.3918517 -0.61638135 -1.0256236 0.95433 1.0581257 1.289805 -1.213061 -0.047456525 0.94029385 0.9606107 0.015617573 -0.2659391 -1.3312492 -0.23752424 -0.19728418 2.247175 -1.9446784 2.2374961 -0.09754373 -0.081082 0.6658517 0.3748594 0.24073789 -0.046561405 0.64039016 0.41183582
83 -1.0721805 -0.77042025 -0.5070724 0.5560691 -1.548061 0.7025494 0.44607866 -0.5363536 -1.0803814 0.81635374 1.049974 1.2024647 -1.1272533 -0.14960793 0.89351106 1.0064886 -0.08127066 -0.26755384 -1.2930018 -0.23068692 -0.30838966 2.171487 -2.0004826 2.3107204 0.054621387 -0.09243626 0.78900754 0.4497336 0.1025934 -0.08389286 0.45636034 0.22789425
311 -1.0456296 -0.7126674 -0.4314711 0.5615939 -1.4062641 0.71891344 0.3174586 -0.60903805 -1.1402131 0.9519026 1.0349491 1.2318201 -1.1998973 -0.13526598 0.8534023 0.9974553 -0.026482314 -0.17528541 -1.3137331 -0.25618628 -0.28194943 2.25141 -2.1086485 2.1792858 -0.03282509 -0.10549097 0.56991535 0.40371314 0.19514209 -0.17286828 0.5074998 0.30199257
871 1.0957674 -1.55957 -0.60492516 0.22862013 0.09409253 -1.4218738 -1.1753272 -0.013685355 -0.89020693 -0.38011798 0.7224306 1.0569509 0.031329177 -0.117276676 0.81249976 2.3505077 -1.3076949 0.63289356 -1.4063163 -1.0819817 1.0649093 0.81274885 -0.8704352 0.61323875 0.7222943 -0.2707842 -0.34737736 -0.33266392 0.9385014 -0.1450492 0.58128905 1.194358
2331 -0.42677248 -1.8902956 -0.97360283 0.5966119 1.1199472 -0.16768205 -0.9675454 0.5997449 -0.13007808 0.5019329 0.6007464 0.09044878 0.8513543 -0.010319174 2.048614 1.2587602 1.4781544 -0.58452857 -0.06256186 -0.08517503 -0.18581572 0.6225659 -2.177836 1.2175018 -0.35182002 0.23609996 0.27179098 0.42713937 0.34060603 1.1460905 -0.39577425 0.5601966
2333 -0.38883483 -2.0070653 -0.8404277 0.56219476 0.8661669 -0.28560224 -0.80607355 0.6055909 -0.14390105 0.40645337 0.6389858 0.1480346 0.99861795 0.17252661 2.0228245 1.3852367 1.5087494 -0.44624725 -0.06783462 -0.11970657 -0.2217402 0.5876622 -2.1885216 1.2427571 -0.4243362 0.08289853 0.20738268 0.3130122 0.2835141 1.2946057 -0.26503542 0.46088716
90 -0.21311612 0.36375746 0.2878454 0.9501485 1.6234694 -1.8986496 0.48490086 0.0064373445 -1.1485751 -0.886173 0.79609567 0.18611342 -0.39529195 -0.9293947 1.1254789 1.5432276 0.98596597 0.3488186 -2.1106253 -1.1931595 0.5064172 -0.10648488 -1.518317 -0.11155551 0.345268 -0.2524067 1.4248216 -0.907706 0.41394025 0.033490904 -0.100476965 -0.68177545
160 -0.12815332 0.34875786 0.1705285 0.88481265 1.670037 -1.8366572 0.4805772 -0.07130645 -1.1578209 -0.99597466 0.8744114 0.29611546 -0.32664713 -0.8545437 1.1539197 1.5702866 0.86237955 0.27885798 -1.999381 -1.2400763 0.537278 0.07771643 -1.3996471 -0.11877884 0.5157364 -0.14485219 1.4267002 -0.89006674 0.47340742 0.06608669 -0.28320068 -0.801011
1538 -0.20701715 0.43798894 0.053413548 0.82479537 1.5549924 -1.83162 0.65302956 -0.08312303 -1.3063337 -0.81120086 0.973874 0.5687245 -0.46640298 -1.0892591 1.3208852 1.6315808 0.90903234 0.17858751 -2.014062 -1.3405416 0.59521544 0.09859061 -1.4264693 0.073048346 0.27663338 -0.29624644 1.3331585 -0.82904136 0.44628155 0.15854669 -0.40960974 -0.6735801
1410 -0.23836507 0.3172464 0.1561686 0.9705373 1.6055279 -1.9441354 0.53657085 0.0074840677 -1.0868185 -0.9859669 0.98944837 0.2932046 -0.30829063 -0.94557744 0.9925301 1.5915604 0.8916743 0.2340955 -2.0034173 -1.298009 0.5762195 0.015321454 -1.46509 -0.10118491 0.47381473 -0.17025304 1.398767 -0.757139 0.47045097 0.108841844 -0.2609901 -0.8231676
165 -0.21076828 0.27007797 0.28643638 0.9823892 1.6269841 -1.8480853 0.53753465 0.028219575 -1.1151353 -0.95877355 0.85554284 0.13637134 -0.27711985 -0.8896164 1.2165977 1.4376025 1.0187433 0.20653555 -2.2000585 -1.1486824 0.50498533 0.003391452 -1.4860224 -0.018073874 0.33910358 -0.18106747 1.413307 -0.83711916 0.44537365 0.0185882 -0.14328426 -0.6829873
869 -0.24817312 0.38619697 0.121706314 0.81782025 1.4402713 -1.830071 0.586494 -0.015735395 -1.1921389 -0.873442 0.7777235 0.51257133 -0.4577224 -0.97335446 1.2133963 1.5586858 0.95543635 0.29740813 -2.1338778 -1.390123 0.5726096 0.041182335 -1.5523769 -0.050515223 0.2037206 -0.15346102 1.3211848 -0.9313557 0.31100634 0.18490313 -0.3928201 -0.61673814
2223 -0.3251799 0.5521247 0.05244937 0.8722895 1.5514235 -1.944366 0.61727154 0.010771762 -1.0915413 -0.92890036 0.7098743 0.43342817 -0.5256108 -0.91776866 1.2793874 1.5911645 0.97615653 0.17934419 -1.9011159 -1.3712337 0.66857994 0.06780725 -1.491595 -0.020825636 0.30176052 -0.3006925 1.3315305 -1.0010525 0.41011977 0.16491069 -0.371184 -0.8130262
528 0.3527712 0.6949616 0.33269924 0.9671972 1.9567086 -2.0874252 0.37652674 0.28276303 -0.82897687 -1.0776074 1.1287507 -0.04174392 -0.08131901 -0.40503693 0.74810183 1.3319001 0.8066992 0.012692659 -1.7467197 -0.7461334 0.29145384 0.057130013 -1.441607 -0.32312408 0.8908697 -0.34833458 1.6049389 -0.5864702 0.66320515 0.04450104 0.21684045 -0.62420654
91 -1.1895546 0.9995157 -1.8715712 0.50128603 -0.17187047 -1.0977242 0.29558563 -1.3932136 -0.14954218 -1.4166812 1.2258943 1.4407704 0.07038435 1.0372186 1.3644693 2.2889318 0.8130922 -0.74264014 -1.380656 1.4098306 0.6835948 0.071341336 -0.84093106 0.8467659 -0.2596855 -0.3476642 1.5249928 0.5340366 0.6515821 2.2717338 -0.096972734 -0.3342647
1573 -1.1266764 0.984148 -1.9039158 0.46663663 -0.13264114 -1.0797739 0.33166388 -1.391288 -0.20435508 -1.3981613 1.1491928 1.4112725 0.10089096 1.1028647 1.3607876 2.2619715 0.74125326 -0.8170649 -1.3865708 1.413475 0.67722684 0.10667153 -0.8215148 0.8977853 -0.28709668 -0.25723022 1.5343068 0.46920016 0.7310065 2.2927976 -0.09898827 -0.32627118
94 0.29565763 0.5604747 -1.6026248 1.4371115 -0.66736895 -0.5184367 -1.4672973 -0.39044386 -1.425324 -0.7059641 -1.3360629 -0.18647811 -1.0017203 0.52360594 2.479576 -0.6916151 0.43175256 0.38895836 -1.5731698 0.34341165 0.35951063 -0.78574896 -1.1547905 0.24300109 2.3509402 -0.90051436 -0.35772932 1.1477106 1.4318473 1.2265396 -0.82952434 0.32731482
2272 0.2925293 0.36746672 -1.5988605 1.4077448 -0.70544016 -0.44595405 -1.3262353 -0.4075921 -1.538536 -0.82702017 -1.2776722 -0.36722052 -0.77883494 0.33952218 2.351772 -0.8535757 0.4402065 0.460542 -1.5876408 0.42633688 0.28231728 -0.7414026 -1.4112989 0.20453201 2.503667 -0.944192 -0.38771585 1.1876444 1.3564223 1.1420152 -0.824039 0.39363718
97 0.58113956 -0.7139707 -2.1002204 1.4359331 0.31710288 -0.22845502 1.434155 -0.41051406 -1.8066537 0.40382937 -0.27036965 0.114603646 0.63529694 -0.62003577 0.68806106 1.1724939 0.80418015 1.7014254 -0.47981158 0.40640587 -0.89906645 0.8001958 -2.9304857 2.0598345 0.6858194 -0.12530054 -0.80259305 -0.6380055 -0.9375517 -1.0281268 0.6886913 -0.89854467
2248 0.5862119 -0.719492 -2.1121426 1.5225321 0.28650388 -0.19419575 1.3369651 -0.43474948 -1.775439 0.45850626 -0.32158756 0.11114518 0.53452384 -0.6919108 0.7407873 1.204749 0.6847248 1.6461779 -0.48236564 0.4156226 -0.9276195 0.7142841 -2.8771677 2.1101432 0.642587 -0.0148469275 -0.75936586 -0.7476017 -0.89725024 -1.066584 0.7039945 -0.9239585
99 0.40069494 -0.25936675 -1.6743138 1.1492007 -0.03590169 -2.2868288 0.63095164 -0.6851821 -0.14577493 -0.17959516 1.4655497 0.08415094 1.1212386 -1.3516954 0.37280586 1.4460942 1.2598312 -0.17070363 0.12122362 -0.18249828 -1.702832 1.7570693 -2.2094543 0.7658845 2.4416773 -0.8511032 -0.9428093 -0.32296878 -0.44958562 0.4949974 0.07939184 -0.62901175
450 0.46708813 -0.25572664 -1.5627532 0.994439 0.06216003 -2.341237 0.67888415 -0.74157405 -0.0968009 -0.24138601 1.5018665 0.10101166 1.1356958 -1.3582577 0.28058106 1.402605 1.251878 -0.23014016 0.14746572 -0.19261895 -1.6621395 1.6647278 -2.2193968 0.7070642 2.5103092 -0.7485361 -0.86537033 -0.4629815 -0.37067866 0.46303654 0.1085537 -0.6372346
103 0.14101677 -1.4433793 -2.0054638 0.255745 -0.24439816 -0.05273469 0.31670976 1.0248785 -1.3956592 0.49840805 0.0003491821 -1.3677953 -0.40596905 -1.0794934 2.4907587 0.42493975 -0.48668173 0.22364658 -0.5712769 0.07489427 -0.8048815 -1.4840554 -1.9028118 1.3748511 2.6345072 0.65833837 -0.14813878 -0.117349006 1.097753 -0.2513648 -0.06200208 -1.1675017
2178 0.049515802 -1.3742591 -1.9759697 0.32018834 -0.2132548 -0.005035445 0.2637697 0.99012333 -1.4376097 0.44411728 -0.08560999 -1.384563 -0.41254854 -1.2184576 2.5522807 0.40104157 -0.59916884 0.13199478 -0.6549785 0.0655217 -0.80533105 -1.5239286 -1.8844343 1.2971464 2.6588438 0.6525289 -0.101765186 -0.12072964 1.0513247 -0.22187933 -0.0316226 -1.1520375
106 -0.43949425 -0.46876395 -0.65794826 -0.2219174 1.5375191 -2.3504941 -0.5753105 -0.058263436 -0.8591571 -0.23226696 -0.7402347 1.0798445 0.33707798 -0.5791425 -0.117023826 0.27801117 0.114554994 -0.47843733 -1.3733304 -0.3815015 1.9749182 0.09880697 -2.252392 1.7409668 -0.07258879 0.57204336 -0.6823694 -0.46375483 0.30353752 -0.05133266 0.35490802 -0.66067034
2275 -0.4554939 -0.43031994 -0.6164304 -0.13594863 1.5714405 -2.4575627 -0.7250089 0.05885746 -0.982309 -0.24067903 -0.71238935 1.1395155 0.40082157 -0.64523625 0.04027868 0.13224447 -0.046365518 -0.6020572 -1.3202827 -0.342113 2.0377302 0.085375726 -2.1445086 1.7663194 0.014962137 0.605547 -0.7629079 -0.44267735 0.2357861 -0.09851262 0.17565426 -0.5533229
324 -0.5166374 -0.5388474 -0.5056946 -0.13671207 1.4905483 -2.434547 -0.5972245 0.012625081 -0.86919135 -0.30141583 -0.78076965 1.0871823 0.31393468 -0.62797225 -0.00899274 0.13716264 0.01174763 -0.40739793 -1.3529999 -0.2729717 2.0084836 -0.059351746 -2.226028 1.7847685 -0.07195939 0.60717213 -0.8055235 -0.45756647 0.20817025 -0.11928148 0.44187924 -0.65416944
357 -0.43095124 -0.38802898 -0.5361591 -0.0963472 1.573448 -2.4079795 -0.55814683 -0.011761731 -0.911018 -0.20352516 -0.7799368 1.0913571 0.29775503 -0.52027655 0.020268066 0.13723421 -0.04408156 -0.564573 -1.2897607 -0.2924871 1.9947331 0.07005814 -2.2483869 1.7734674 -0.027664097 0.6014804 -0.7280158 -0.4990685 0.2519205 -0.099274725 0.329539 -0.54263234
140 -0.53911114 -0.33929753 -0.4203011 -0.103791036 1.5864646 -2.554798 -0.589126 0.009373906 -0.8542661 -0.30935884 -0.62838876 1.280583 0.38380146 -0.57472503 -0.00030882287 0.0056819534 -0.10442969 -0.45395634 -1.343339 -0.49556488 2.034288 0.01384199 -2.1530774 1.6619235 -0.038225874 0.55907416 -0.7905822 -0.3900003 0.28619626 -0.001097782 0.4125148 -0.6948528
209 -0.4914657 -0.5938458 -0.713668 -0.14642416 1.5732043 -2.4260356 -0.61823946 -0.0114510525 -0.940155 -0.20132516 -1.0076802 0.971448 0.19499555 -0.55845624 -0.016426625 0.2392008 0.08100871 -0.37627932 -1.4619501 -0.15870659 2.034025 0.042497102 -2.0008817 1.8436035 0.08736346 0.7790605 -0.7347897 -0.55082834 0.21317782 -0.15682188 0.35619235 -0.58882093
1943 -0.5952433 -0.4033066 -0.5052949 -0.14223318 1.5178976 -2.5248325 -0.55291754 0.020441746 -0.859009 -0.3181281 -0.64181006 1.3450487 0.36816335 -0.5740948 -0.06377978 0.03349652 -0.06343174 -0.48462936 -1.26517 -0.34109622 2.1144183 0.03148761 -2.1400113 1.6581627 0.089523494 0.5877878 -0.61852735 -0.50942487 0.27098632 0.035968482 0.4373308 -0.77774525
109 -1.0364258 0.46272781 -1.9193242 3.130246 -0.15638459 -0.11843748 -0.9192102 0.13361502 -1.0220006 0.20582938 -0.33232152 0.082111776 -0.7791539 -0.7735597 0.25149515 0.22217044 -0.1272297 0.2077196 -1.8833406 1.0995704 -1.2573647 -0.07570832 -0.4786597 0.44825032 1.523743 -0.6426806 -0.6960389 0.8589438 0.1995644 2.3640487 1.2423236 -1.2062366
1399 -1.0360034 0.54837334 -1.8012264 3.1536574 -0.072424576 -0.23410523 -0.9659459 0.15508074 -0.8893409 0.33050433 -0.32795283 0.28964046 -0.7676103 -0.59925276 0.3358053 0.2613332 0.07726349 0.11471004 -1.8499833 1.1901209 -1.1680148 -0.11099055 -0.36789852 0.40327236 1.505057 -0.4782884 -0.5704825 0.86662674 0.20258962 2.5002942 1.1996175 -1.3702985
111 1.1058635 -1.2855463 -0.6216937 0.8366871 0.8395838 -2.2685695 -2.1513517 0.75666976 -0.33682072 -1.3201374 0.66146684 0.879608 0.19757023 -0.06405401 0.8014846 0.86825174 0.65627384 0.47653472 -0.59943634 -0.29397807 1.8550613 -0.38439682 -0.8407887 0.44806787 0.6329953 1.633676 1.2584437 -0.42985064 0.58091724 1.8802156 1.1152608 0.6067975
1912 1.186917 -0.87178576 -1.0195756 0.7019952 0.96129507 -2.1524343 -2.16895 0.67715347 -0.22043785 -1.5111685 0.5253667 1.0368824 0.14379989 -0.25616574 1.0349853 0.6853535 0.62011373 0.36713243 -0.57674396 -0.31311825 1.5051982 -0.3297967 -1.0918713 0.116932705 0.49131158 1.6222482 1.0180935 -0.48502314 0.44325796 1.8592677 0.9378864 0.49126646
593 1.1045307 -1.369805 -0.70020384 0.8542183 0.9265252 -2.2920477 -2.0557806 0.8516904 -0.27765745 -1.3913393 0.55967045 0.7307448 0.41153252 -0.30153957 0.66297925 0.84448814 0.6047947 0.4994118 -0.5662767 -0.37002623 1.8281655 -0.46513674 -1.1540053 0.23005351 0.77876276 1.5766556 1.2707672 -0.31186315 0.46461537 1.9364315 1.0180141 0.5866379
112 0.16638705 0.36835122 -0.69239235 2.5645258 -0.17854373 -1.1160125 -0.81113553 0.56368554 -0.8691019 0.19869965 -0.31877747 1.4108568 -2.7876832 -1.1986464 1.6959157 -0.37312776 0.67619324 0.77900213 -0.7544739 0.55895036 -0.25313696 -0.44928318 -0.8108597 0.87087625 1.25601 0.4328521 -0.23611738 2.3228712 1.4313546 -0.0402111 -0.26783597 -1.2889854
673 0.2506105 0.23263074 -0.79832095 2.4619005 -0.15720433 -1.1465262 -0.6849283 0.42238685 -0.85818905 -0.011221017 -0.2721399 1.2202692 -2.7428725 -1.4204658 1.638994 -0.41129443 0.63654864 0.7162299 -0.6978304 0.54561675 -0.41488945 -0.4262401 -0.8487823 0.9076828 1.4401578 0.44538823 -0.28480592 2.3854713 1.3647729 -0.1744774 -0.23179218 -1.2854846
115 -0.5161055 -0.026769212 -0.19212651 0.54112357 1.0899106 -0.79947793 -2.138408 0.43629807 0.98577267 0.5271612 -0.33419648 1.8393106 -0.012469076 -1.5460051 1.4382161 1.8818631 0.75717425 0.21071711 -0.5357633 -0.44320095 1.2715538 -0.53992933 -0.44253916 1.6284326 0.5677439 1.0572649 0.4295848 0.20764872 0.24739425 0.35512292 0.4000842 -0.72014487
1405 -0.5077916 0.0041864966 -0.18922816 0.71150064 1.252885 -0.9213323 -2.2073283 0.40037456 0.97196454 0.44493264 -0.47626182 2.0603561 -0.18443201 -1.9221141 1.5677971 1.9932578 0.9905202 -0.03459907 -0.45563447 -0.28811482 1.3782756 -0.49007735 -0.7490986 1.46048 0.39033335 0.91213375 0.3912933 0.012242425 0.45676526 0.16627282 0.18966492 -0.75944585
120 -0.55220395 1.311774 -1.0804121 1.2241399 0.20793228 -0.6669915 -1.5490407 -0.5424234 -1.589839 -0.24940796 0.3975896 1.4427462 -0.66697603 0.6409386 0.91293734 0.3944048 -0.8154155 0.47690856 -1.9343032 2.1629808 0.04921355 -0.40779045 -0.27554515 1.338557 -0.454853 -0.040123582 0.50500524 -0.6755387 1.5489035 3.2245646 0.37671655 -0.056020044
131 -0.5139728 1.3463082 -1.0392443 1.1280906 0.30783296 -0.8122173 -1.5450512 -0.6157525 -1.5614785 -0.3292329 0.32960317 1.3308644 -0.5764368 0.5589431 1.1131449 0.4472171 -0.65046287 0.5427876 -1.9155407 2.2304807 0.035219397 -0.5085471 -0.36470705 1.3276805 -0.52184486 -0.03396417 0.6098688 -0.5572921 1.3271278 3.3836777 0.2758174 -0.05775743
123 -0.30524537 0.23605824 -0.24248447 -0.5966131 -0.6562789 -0.24031158 -2.122638 0.48585105 -0.71383655 0.3918039 -0.6065758 -0.2562838 0.91792065 0.6206581 1.8243302 0.4494694 -0.2791263 -0.23064873 -0.8112176 0.0053441864 -1.0576464 -0.059901208 -3.1802576 0.496131 0.8977927 -0.3548652 -0.63489753 -1.4868258 1.5874852 0.47630212 -0.00073523854 -0.19574471
592 -0.16029437 0.21678579 -0.33461794 -0.4480522 -0.5855391 -0.3180503 -2.2198598 0.4692981 -0.7789476 0.5544429 -0.6620243 -0.29386503 0.90180165 0.7468484 1.7422751 0.29274192 -0.25983763 -0.26280752 -0.73963106 0.047910262 -1.1177536 -0.030840933 -3.0682948 0.47081688 0.8660572 -0.41320106 -0.6185354 -1.5356364 1.5857848 0.4690973 0.12134163 -0.21061559
674 -0.31361708 0.2687201 -0.22254118 -0.5138374 -0.58391947 -0.20459086 -2.1971455 0.42674136 -0.67003715 0.5655513 -0.6925497 -0.16719897 0.9458996 0.66264325 1.8110594 0.3818331 -0.1880317 -0.14503932 -0.7782414 0.0075800894 -1.0568396 -0.020878674 -3.0643163 0.4676751 0.8455042 -0.34022528 -0.62268615 -1.5544422 1.5819305 0.50309706 0.010788066 -0.23626317
468 -0.18053247 0.2990395 -0.2697753 -0.51180774 -0.644802 -0.370736 -2.2018847 0.40673053 -0.7074664 0.4902423 -0.7608999 -0.23327668 0.9110877 0.7767329 1.7938222 0.4206816 -0.23439747 -0.273554 -0.77588 -0.011931887 -1.0076092 -0.08045892 -3.066651 0.49388736 0.8564655 -0.40495643 -0.60278916 -1.55925 1.5285188 0.5368527 0.05499877 -0.18004084
1274 -0.2051483 0.34193143 -0.19222689 -0.500811 -0.5695631 -0.26548487 -2.2086513 0.4360482 -0.78052104 0.548307 -0.5932379 -0.21405235 1.0195972 0.7442607 1.838536 0.3690332 -0.27024466 -0.25933018 -0.7837455 0.066979416 -1.0651087 -0.07889561 -3.0940652 0.5063893 0.8919066 -0.4161856 -0.53787804 -1.4663731 1.5917832 0.4717292 0.05388325 -0.18277878
124 -0.66774285 -0.39064497 -1.0191765 -0.41522998 -0.63051486 -0.32955876 -0.5402095 -1.4327372 -0.702487 -0.32560945 -0.5014601 2.9845479 -0.15384762 1.0524307 1.1954025 1.5106183 1.2249873 -0.51444954 -1.3821355 0.8906409 -0.5955207 0.4533553 -0.37391165 0.35500172 2.1591656 -0.08307592 1.1622703 0.6133734 1.0093746 2.692286 0.24711545 0.35631314
126 -0.95892113 -0.024253398 -1.0667986 -0.3926407 -0.96301955 -0.6222242 -0.7363477 -1.2790886 -0.5557922 -0.25778973 -0.78528464 2.8261988 0.4247836 0.8015617 1.2800361 1.6764382 1.4341536 -0.44114482 -1.1880236 1.129084 -0.56361747 0.44643766 -0.14141989 0.62444323 2.1405747 -0.03401148 0.99709743 0.35511816 0.88204 2.5725842 -0.09131812 0.38936716
127 -0.51973826 0.060560025 0.7300372 0.3835078 -0.4857524 -0.719342 0.17909683 0.24433467 -1.1577653 1.8279673 0.9142411 0.6246968 1.608626 -0.2844408 -0.49140444 0.13664147 1.0060691 0.12259386 -0.9422956 0.15346637 0.54421866 0.9097319 -2.9442866 1.6915245 1.7160294 -0.36906636 0.57293594 -0.6199162 0.9539463 1.1194149 0.04474347 0.78273356
1353 -0.56860244 0.0737221 0.6874432 0.47198865 -0.55464554 -0.61007506 0.20229515 0.21379022 -1.1785482 1.6709855 0.8722507 0.55098194 1.5669587 -0.14718644 -0.4866857 -0.061061192 1.1012262 0.1106364 -0.8077268 0.13223356 0.43188706 0.90422255 -2.8853638 1.7666224 1.8419713 -0.37788498 0.6459153 -0.58074015 1.0354394 1.1637988 0.049697183 0.8053925
1362 -0.5102587 0.035782367 0.6820209 0.4047961 -0.57168937 -0.59806067 0.10483255 0.35246566 -1.0822538 1.8366076 0.95785505 0.6726134 1.5848147 -0.13974531 -0.3763497 9.944389e-05 1.0870637 0.13420625 -0.99983567 0.14161071 0.59000593 0.96716386 -2.8652203 1.6685965 1.6029557 -0.3984318 0.5307782 -0.62481475 0.99020445 1.2561195 -0.0033823245 0.79819244
1980 -0.59813875 0.19515152 0.7712743 0.40168378 -0.57293594 -0.83090425 0.15829074 0.23991789 -1.1849068 1.7847356 0.95332915 0.67114896 1.611417 -0.09437479 -0.5015478 0.010790642 1.0495802 0.046335723 -0.7948901 0.118992046 0.64819205 0.9565692 -2.8073611 1.7297319 1.62005 -0.47785106 0.5288132 -0.6229116 1.0538294 1.1849558 0.10864366 0.8156406
1429 -0.6013563 0.04458614 0.72516525 0.39106342 -0.5863759 -0.6405048 0.18090864 0.28338686 -1.1676309 1.5930061 0.9724648 0.59276676 1.5866637 -0.28737807 -0.4969063 -0.033789642 1.046729 0.0650779 -0.956233 0.10837034 0.58402616 0.8937963 -2.933009 1.7349026 1.8033624 -0.42079243 0.61084104 -0.55738467 1.067996 1.1893498 0.009785325 0.7920027
137 0.0732221 -0.63101625 -1.2721211 1.5396236 -0.9054987 0.5849272 0.102082334 1.3327396 -2.222421 -1.175657 -0.50192374 -0.08143761 -0.5001255 -2.172245 1.4043905 1.1560042 0.018719278 -0.25507918 -1.3301802 -0.04802718 -1.4301509 1.1363382 -2.0233529 1.0265405 0.9560547 -0.5156174 -1.2405554 1.3751211 -0.6572424 -0.3849866 0.22907202 -1.2915401
1214 -0.064255625 -0.5806782 -1.195283 1.5483603 -0.9763888 0.5651025 0.071319394 1.3811003 -2.1963582 -1.1073159 -0.5221934 -0.047044393 -0.451775 -2.2167816 1.4413751 1.0813351 -0.006357869 -0.28286803 -1.3076823 -0.028344087 -1.4951979 1.1047399 -2.0159874 1.0066155 0.9723877 -0.61675215 -1.320589 1.382395 -0.6857714 -0.3545285 0.22801918 -1.2971834
138 -0.76364607 0.36149833 -1.0196601 0.5107118 -2.1257806 -2.2822883 0.36894655 -0.5217697 -1.1359619 -1.2604218 0.42516387 0.6558222 -0.5426992 0.34474492 0.40737036 1.7127119 -0.57906467 -0.9427519 -0.98775274 1.6543144 0.7376902 1.107068 -1.2179078 -0.68298167 1.2161145 -0.81174284 -0.14500886 -0.8966475 1.7908809 0.7822264 0.06195764 -0.45091835
315 -0.768569 0.44141406 -0.89191496 0.53905433 -2.1293306 -2.277334 0.280197 -0.505916 -0.9715067 -1.1242682 0.38366506 0.86711216 -0.5637862 0.44148776 0.49197415 1.761559 -0.50868183 -0.9633308 -0.9023772 1.6038687 0.78120583 1.1044583 -1.1497599 -0.6494386 1.087744 -0.7390242 -0.0449446 -0.9151372 1.9064661 0.9943483 -0.03913586 -0.43784383
141 -0.56071943 -0.75262344 -1.2320082 -0.14596668 -0.13917872 -2.8827014 0.48473933 -0.19986112 -0.26348522 -0.040968124 2.3345292 0.2674476 -0.19858123 -1.2924181 -0.682245 -0.36858204 0.730835 -0.047070194 -0.84067285 -0.34421283 0.36891133 0.6015406 -2.4160078 1.489643 2.6205087 -1.5984339 -0.8441711 -0.7985626 -0.3740845 0.05487563 -0.6055172 -0.28868112
447 -0.517593 -0.8424864 -1.1346288 -0.18377939 -0.0996499 -2.91152 0.5904672 -0.13438338 -0.26487598 0.0056743147 2.3302336 0.24021953 -0.25336036 -1.3256524 -0.76571846 -0.28794217 0.8316752 -0.04632376 -0.8844006 -0.34319785 0.31243333 0.5136415 -2.415933 1.5200979 2.6340268 -1.5919739 -0.7527126 -0.73831594 -0.42668197 0.038906425 -0.60712993 -0.29489648
142 -0.65507513 2.074894 -1.5187554 1.3620937 -0.20145111 -2.5482712 -0.8013533 -1.088322 -0.9815878 -0.35447246 0.5683081 0.98956114 -0.8008402 0.08444991 0.29077795 -1.10023 0.2225924 0.9159713 -1.930116 1.3934098 -1.4060876 -0.69807816 -0.98274875 0.690791 1.6994497 0.1660163 0.48187006 -0.95094514 -0.18591759 1.394301 -0.1940163 0.16109794
1030 -0.59957176 1.8930175 -1.754882 1.2979232 -0.14968398 -2.5583212 -0.6747828 -1.21019 -1.0767975 -0.5087724 0.5713116 0.90455544 -0.80097497 -0.030795204 0.1878831 -1.1603173 0.19851741 0.94464856 -1.7956756 1.3587357 -1.3862395 -0.71439284 -1.1664994 0.75689137 1.7380434 0.06197607 0.36976427 -1.0794064 -0.20582828 1.2582123 -0.049090836 0.17593521
143 -0.7690992 0.5925809 0.7904561 0.2508813 0.6336186 -0.18362877 -1.3693936 0.8706059 0.31225964 -1.6553205 0.37170783 0.5431292 1.3953583 0.7001757 0.8563526 2.3904777 0.3480931 -0.24728452 -1.378005 1.0050058 0.680473 -0.33339012 -0.8172153 1.1684334 1.6614406 -2.337457 0.8637902 0.23223817 0.14370374 0.37487432 1.1189611 -0.31531072
2200 -0.38873404 0.39954656 0.5651015 -0.077459484 0.59370774 -0.17155896 -1.2588677 1.0064622 0.27545634 -2.0605145 0.62783676 0.34413096 1.144006 0.5271301 0.74652267 2.0605333 0.14924 -0.15145737 -1.3766685 1.003912 0.38516468 -0.51120865 -0.9035853 1.0935326 1.787517 -2.3803332 0.817587 0.20353031 0.11293014 0.33258322 1.374366 -0.16292332
1115 -0.8666611 0.55679977 0.81435263 0.27811214 0.691476 -0.08603661 -1.3872427 0.77123207 0.38945666 -1.6479313 0.364539 0.5493059 1.3250158 0.75064224 0.7864025 2.4551828 0.352556 -0.16181716 -1.3557987 0.9946831 0.65060574 -0.34010658 -0.73745656 1.2398278 1.756851 -2.3700116 0.78634596 0.2621306 0.14223604 0.5126418 1.0588584 -0.26210818
1020 -0.7772554 0.5523011 0.8390949 0.20409018 0.60111487 -0.15908241 -1.4873465 0.84592545 0.27722326 -1.6579485 0.38698322 0.5037039 1.4685589 0.7312704 0.78633446 2.4811544 0.26090306 -0.21441391 -1.3698251 1.1050105 0.61915725 -0.33801973 -0.8537082 1.2673323 1.6173986 -2.3919077 0.7836478 0.20683442 0.20642084 0.44615465 1.0562711 -0.23005739
144 -1.943111 -0.8402464 -0.08326188 0.7598692 1.2793285 -1.2522513 -2.888154 0.3189793 0.13856725 0.5936145 0.8180411 -0.6318266 0.99717534 -0.0742707 2.4348292 0.5820547 -0.46365112 -0.26969612 -1.0452963 -0.2584641 0.3681708 1.9137999 -0.25016364 0.90786827 0.34158027 -1.3084264 0.38751227 -1.3644814 1.0441747 -0.12768851 1.1349446 -1.5755639
234 -1.8969775 -0.90225524 -0.21045013 0.72401935 1.526969 -1.2484372 -2.745764 0.36831802 0.105874546 0.5721335 0.7681554 -0.56646675 0.8426694 -0.12467803 2.3936005 0.61280215 -0.4869574 -0.42528662 -0.96500975 -0.18321776 0.35398814 1.982059 -0.31580895 0.70458573 0.31620595 -1.2040304 0.34508547 -1.4660925 1.0435361 -0.047735352 1.2810148 -1.4442643
145 -0.83671314 -0.43283382 0.62787527 -0.36967954 0.38873821 -0.7205015 -1.6392198 0.9150515 -0.9683716 -1.34755 0.5366285 1.2013601 -0.11824824 -0.59184456 0.16033086 1.4519465 1.2495018 -0.33762935 -1.226972 -0.32778573 0.6506514 1.3267176 -1.0053984 0.31240496 1.6471635 0.031259544 -1.1828802 0.48619512 -0.1580846 1.576163 -0.50273037 -0.625926
321 -0.82227933 -0.44239295 0.6785997 -0.29986596 0.21737185 -0.82142514 -1.6514469 0.8896436 -0.9203093 -1.1504307 0.5304371 1.2611043 -0.030519225 -0.5061789 0.33098382 1.5670317 1.1165768 -0.43907768 -1.0774528 -0.27571598 0.6435717 1.2956924 -0.9024575 0.47730613 1.4864475 0.1684779 -1.262979 0.41362074 -0.13594486 1.7140986 -0.4224673 -0.6438771
226 -0.91855365 -0.4223001 0.66396195 -0.3895435 0.15193814 -0.87545127 -1.5539457 0.96030104 -0.9882847 -1.230077 0.65702915 1.1659493 -0.10887484 -0.4635915 0.25708523 1.6445154 1.1195284 -0.44146368 -1.11142 -0.28255826 0.56418705 1.4224007 -1.0623423 0.34889305 1.5493246 0.19549738 -1.2429335 0.45748833 -0.18114062 1.6182096 -0.41428646 -0.6270957
1924 -0.8998945 -0.5507073 0.6935524 -0.3928194 0.2749261 -0.7459564 -1.6726952 0.7720416 -0.88289255 -1.3211523 0.68205565 1.1420285 -0.005204906 -0.62983704 0.18163383 1.5635505 1.2116945 -0.47940826 -1.0708935 -0.15120088 0.59298587 1.3429993 -1.1356183 0.27929148 1.6326588 0.025412032 -1.0793769 0.5039412 -0.15369484 1.6173282 -0.68582255 -0.5699123
325 -0.7322935 -0.26878852 0.6122985 -0.13851121 0.3414775 -0.9267128 -1.8078657 0.78222924 -0.7176077 -1.2519518 0.5307651 1.0540962 -0.10370389 -0.7575533 0.30041516 1.5943053 1.1753687 -0.15298297 -1.3671044 -0.122014716 0.58890116 1.1194144 -0.8761922 0.08181487 1.7039385 6.13663e-05 -1.3245225 0.4944638 -0.17329916 1.414381 -0.52877885 -0.7170861
1898 -0.8001606 -0.28591704 0.74353063 -0.1721394 0.3900359 -1.0702955 -1.7889755 0.74891645 -0.57123464 -1.1862837 0.5296726 1.1213967 -0.04740519 -0.6078206 0.3937107 1.5547632 1.2559521 -0.24313489 -1.4368141 -0.100099 0.64935386 0.998511 -0.8079173 0.2562073 1.5838909 -0.10600108 -1.3578247 0.60996175 -0.21627615 1.5599962 -0.5887036 -0.5413253
844 -1.0092894 -0.35666245 0.59825563 -0.34844932 0.26065227 -0.82231236 -1.7034003 0.9187748 -1.0162742 -1.1478996 0.46231392 1.4011639 0.103914626 -0.4677464 0.24566348 1.368771 1.0626942 -0.40077117 -1.1139946 -0.44540948 0.5165605 1.4748278 -0.89846677 0.45528206 1.5818543 0.5362687 -1.2161566 0.58816403 -0.052637957 1.6061699 -0.108723186 -0.6544802
845 -1.0270522 -0.35059437 0.5369072 -0.12399679 0.30892506 -0.8062929 -1.6378859 0.98396057 -1.3577279 -1.0537603 0.5714866 1.1668336 -0.06076673 -0.38214454 0.2510231 1.5721267 1.1266032 -0.56020564 -1.1362915 -0.38320392 0.74488 1.3502581 -0.61961764 0.434411 1.4891226 0.34437403 -1.4922715 0.47294116 0.013109178 1.6567584 -0.14565036 -0.6906785
364 -0.82369214 -0.23642795 0.52835256 -0.29592198 0.21383038 -0.92109376 -1.7710644 0.9585041 -0.7364311 -1.3232753 0.5431597 0.92623883 -0.15714607 -0.74153596 0.19762364 1.6256968 1.2615777 -0.20891817 -1.2936207 -0.11468244 0.55508584 1.1955639 -0.93080735 0.23049608 1.5650746 -0.051854238 -1.3146513 0.44550607 -0.20607676 1.5249577 -0.3877341 -0.71801305
367 -0.8224989 -0.26257154 0.51386225 -0.14925963 0.3101955 -0.94510126 -1.7056739 0.9067436 -0.7601557 -1.3266674 0.49009556 1.062844 -0.07164087 -0.77679676 0.2837 1.5631365 1.2281672 -0.274058 -1.3897866 -0.12926312 0.64671844 1.1291292 -0.80425304 0.17434216 1.6104761 -0.046872105 -1.2784815 0.5388406 -0.2839596 1.3729379 -0.523984 -0.564905
1944 -0.8177939 -0.3232284 0.5858472 -0.23728193 0.27403793 -0.89503765 -1.7284019 0.83359367 -0.8007756 -1.314011 0.47122917 1.1486946 -0.011059539 -0.79247576 0.29068363 1.509252 1.2540939 -0.24862944 -1.3778546 -0.20507781 0.58987814 1.052402 -0.8087361 0.22237217 1.7050264 -0.18699542 -1.3604444 0.5897 -0.27152526 1.4004526 -0.5366954 -0.6066531
957 -0.76808715 -0.2227022 0.7210315 -0.17037234 0.14258732 -1.0518351 -1.6060753 0.78765684 -0.77747935 -1.2611572 0.467657 1.0204734 -0.113274224 -0.75027436 0.3370532 1.6893262 1.1828486 -0.22637694 -1.3407253 -0.14911386 0.585698 1.0144907 -0.89991647 0.18983579 1.6075796 -0.071658686 -1.4147676 0.44869688 -0.36694157 1.4459853 -0.50480914 -0.6449924
146 -1.0888209 -1.2433797 0.5151418 1.7180712 -0.19933848 -0.34623486 -1.2711489 1.9460337 -0.56738317 -0.17540373 0.2530133 1.2320697 -1.1254762 0.3705293 0.59733933 1.92068 0.83602417 -0.7419374 -1.4865063 -0.2181253 -0.2782233 -0.3209793 -0.3198601 0.45023125 2.0096889 -0.5534361 0.61847407 -0.6561499 -1.8844721 0.34791213 0.57806563 -1.637345
363 -1.1977088 -1.0600123 0.3648438 1.6189407 -0.25620636 -0.40594807 -1.1007614 1.970376 -0.463136 -0.31387094 0.2433397 1.1640875 -0.9162113 0.39442468 0.4436853 1.8571551 0.75987816 -0.8905007 -1.5912249 -0.43301 -0.1737459 -0.39787775 -0.4421575 0.45015588 2.1506438 -0.5549384 0.63151336 -0.6215042 -1.8413738 0.30327585 0.40648586 -1.6823093
1558 -1.0770599 -1.3458278 0.29856348 1.5749431 -0.32514915 -0.30882117 -1.1332859 2.06324 -0.63745296 -0.3153133 0.321775 0.9457693 -1.0352834 0.18465076 0.48488632 1.8394705 0.8453071 -0.66386205 -1.4139882 -0.36743394 -0.21578272 -0.34169284 -0.38495544 0.532432 2.1513233 -0.5728305 0.5366684 -0.7002476 -1.9138105 0.22969478 0.5144412 -1.7721288
148 0.2446502 1.1400771 -0.54955673 0.16347252 1.4431068 -1.3569165 -0.042502582 0.84294426 -0.7918324 0.77231884 0.5973107 -0.3740453 0.08012937 0.74961317 0.46843922 1.0099386 -0.055875707 0.28929222 -0.024703136 1.486763 1.0830058 -1.5618274 -2.4714065 1.7455218 1.274476 -0.026672566 1.216327 -1.4420607 1.4554032 0.5923385 -0.122692876 -0.9582181
706 0.27973086 1.0310785 -0.5976601 0.19410788 1.5173597 -1.3512356 -0.11413573 0.7191126 -0.7758046 0.933761 0.47788352 -0.39193365 0.083597735 0.7326574 0.47900647 1.0720683 0.031105306 0.16153675 0.023155395 1.3933128 0.976131 -1.5689192 -2.4331734 1.6459851 1.3394424 -0.03897195 1.0486704 -1.4276047 1.2891195 0.63941836 -0.12470772 -0.79548514
149 0.2856184 1.0754668 -0.583652 0.21865298 1.532457 -1.2862784 -0.057692423 0.73221076 -0.7639366 0.8242593 0.52708226 -0.31239608 0.016434811 0.6973384 0.42926478 0.94828 0.094915465 0.2330015 0.10242446 1.4476608 0.9388158 -1.5576581 -2.3941784 1.7565155 1.2573342 0.08305361 1.2188091 -1.4529631 1.3683401 0.6058802 -0.034924276 -0.91261
711 0.33932006 1.2471873 -0.5069333 0.2575715 1.5446833 -1.4426595 -0.10470245 0.7544185 -0.73685354 0.9671412 0.54610497 -0.15826258 0.10463568 0.7824102 0.53338903 0.97564745 0.1631042 0.199568 -0.031414848 1.3729894 1.0723138 -1.5379945 -2.2940493 1.6260401 1.288609 0.030911045 1.0920675 -1.3602118 1.3323222 0.75788313 -0.086245365 -0.82668775
151 -0.22499551 -0.8057905 0.6259621 0.24459755 0.6323597 -1.1272452 -1.0154282 1.6206468 -0.025095584 -0.19435766 0.19169655 1.3641232 -0.4912844 -2.147182 0.9705673 1.6920413 0.116795376 0.59213203 -1.408536 -0.113134235 -0.18473586 0.9030716 -1.1930562 0.22565584 0.4966523 -0.83584815 2.1624784 0.7099873 0.37082508 0.36127388 -1.0373726 0.2781572
1417 -0.2674552 -0.81880784 0.7243106 0.30789468 0.63395494 -1.2252651 -0.9330689 1.7616861 0.06657645 -0.084016986 0.42404485 1.2759436 -0.5645336 -2.0118546 0.888132 1.9854385 -0.06340347 0.5897594 -1.3411763 -0.14987093 -0.104571566 0.92098445 -1.271491 0.2590907 0.5200607 -0.82772803 2.0508716 1.0215104 0.31613606 0.43096343 -1.340521 0.1368329
163 -0.10812563 -0.7489262 0.7301165 0.20424087 0.55148387 -1.2251134 -1.2278268 1.6628644 -0.10973236 -0.21447411 -0.037981138 1.2793862 -0.6659159 -2.3456967 1.0363189 1.444708 0.023769433 0.53188324 -1.4625121 -0.029763756 -0.09507355 0.7636099 -1.3229884 0.2813556 0.33117622 -1.0657257 2.2744834 0.6556287 0.2969196 0.386718 -0.9229626 0.07110516
708 -0.08323565 -0.6770058 0.74499065 0.075606555 0.5896889 -1.120225 -0.9891147 1.5034617 -0.006015948 -0.053043764 0.2663552 1.5247346 -0.60198414 -2.2621782 0.92480165 1.6330192 -0.06836006 0.67203844 -1.6787666 -0.011759193 -0.4405551 0.9624178 -1.4980102 0.27338454 0.43608913 -0.84928834 1.9719565 0.7014896 0.32887515 0.29337233 -1.1557914 0.37423927
863 -0.13643037 -0.6847837 0.7323216 0.021260524 0.6627066 -1.1581726 -0.9814334 1.5047692 -0.09919435 -0.15425012 0.2775798 1.5134051 -0.5514613 -2.209045 0.84476763 1.5573529 -0.09744917 0.70114 -1.7860096 -0.08579055 -0.42586896 1.0573515 -1.5778775 0.17057085 0.44408634 -0.6780665 2.0329251 0.59317243 0.3112829 0.43728897 -1.1439399 0.37816563
152 -0.6751963 -0.9790661 0.88668656 0.32082298 1.7257845 -1.8637604 -1.2491472 0.9422071 -1.5039477 -0.8569126 -0.18390295 1.3405238 -0.14957611 0.16097644 0.49881235 1.601654 -0.96771777 0.07091578 0.64587915 0.34732112 0.17240928 -0.49208537 -2.5254653 0.21442865 0.23209904 0.12312226 -0.85677725 0.5721583 0.11641345 -0.5114029 0.42250374 0.37775916
293 -0.58074033 -0.9142863 0.9180577 0.5305348 1.4982 -1.9084322 -1.0495756 1.0332978 -1.3534027 -0.87007415 -0.17142335 1.3808434 -0.11300108 0.010914811 0.5512506 1.6202197 -0.8870342 0.025077017 0.5944973 0.42113534 0.3443171 -0.50146323 -2.7605228 0.008427407 0.21807647 0.020343566 -0.82513463 0.66480273 0.14972028 -0.4178635 0.29641977 0.39975694
199 -0.59450984 -0.9366964 0.94049776 0.3871044 1.5766934 -1.9058189 -1.1149532 0.8359628 -1.549307 -0.85280985 -0.26735935 1.3575351 -0.112438634 -0.018386757 0.53646886 1.7571858 -0.97382295 0.09573568 0.6537971 0.30783546 0.30735397 -0.4509637 -2.8141565 0.056981526 0.25201938 0.050642557 -0.65058255 0.5807409 0.11045167 -0.34776923 0.24124613 0.55808806
1196 -0.62055165 -0.9372552 1.0084602 0.42639542 1.2733846 -1.9876959 -0.9468825 0.93142873 -1.3297218 -0.6077753 -0.2449802 1.454467 -0.11765675 -0.039397996 0.5877484 1.9311066 -0.9416366 -0.019126168 0.6911571 0.11979278 0.33232692 -0.27885562 -2.8273418 0.07275712 0.093748815 0.026806384 -0.5390534 0.5693483 0.0957965 -0.32550937 0.27881187 0.42617175
1593 -0.6930659 -0.8787714 0.98014665 0.5350305 1.5244342 -1.9035082 -0.91776377 1.0385176 -1.4299934 -0.6131446 -0.15920432 1.484093 -0.18552175 0.11194073 0.5604697 1.7949188 -1.014859 0.027922492 0.66918826 0.15932874 0.49366218 -0.2602023 -2.930069 -0.07441367 0.11398285 0.012881623 -0.6706607 0.3794903 0.023649003 -0.33297232 0.26179472 0.40865466
189 -0.6074756 -0.98044074 0.95804465 0.32965943 1.5721855 -1.7822862 -1.1724864 0.79274994 -1.4012946 -0.98926777 -0.2531008 1.2735447 -0.2507867 0.07623197 0.53411806 1.6806074 -0.94720405 0.06917068 0.67522216 0.21989891 0.2104855 -0.6360498 -2.797736 0.1418648 0.15267967 0.11804473 -0.62582916 0.57628375 0.22383447 -0.45716414 0.30673966 0.44298825
1599 -0.58333623 -1.1238617 0.61355853 0.034300044 1.5286071 -1.5643631 -0.9660403 1.0050944 -1.7048799 -0.9312773 -0.22645205 1.0898312 -0.1911419 -0.013113162 0.374615 1.6608886 -1.0342474 0.21140678 0.4894774 0.49676797 -0.056888487 -0.3850039 -2.4934528 0.1453731 0.63973534 0.27275214 -1.1316069 0.6005405 -0.11229996 -0.64928967 0.41641787 0.43473077
154 -1.1107854 -1.6097481 -0.5815676 1.0536258 0.11484446 -1.2531837 -2.4210134 0.6769721 -0.58143467 -0.01327152 0.84244204 0.059668686 0.5829882 -0.8829279 0.95282555 1.9285727 -0.5319242 -1.3119951 -0.20098059 -1.4209979 -0.17358567 1.5876518 -1.2430445 1.2842681 -0.5193715 1.3144383 0.42102385 0.48347035 -0.50187445 0.52283794 2.2308419 -0.7159375
1873 -1.3696307 -1.5873204 -0.698217 0.9372585 0.005693611 -1.3574195 -2.422888 0.67927134 -0.471369 0.050106816 0.7363832 -0.08567514 0.66733205 -0.9598638 0.88314646 1.874081 -0.47799188 -1.1461676 -0.38712877 -1.6152276 -0.16378392 1.5262593 -1.0478597 1.3894576 -0.5234789 1.1413924 0.2618355 0.4624152 -0.26946795 0.4755814 2.280336 -0.6928795
157 -0.49675637 -0.4344095 -0.5317911 0.8601452 0.081944376 -1.1974475 -0.44339636 1.1745151 -1.5878862 0.24925588 1.4618407 0.12856914 0.47922805 1.3269063 0.91687936 -0.24678019 -0.43758106 0.6669962 0.035856575 -0.46675256 1.7132449 -0.24182537 -1.448215 0.91374487 2.1209617 0.85573834 1.5062197 0.52704674 0.44726247 1.109722 1.6080832 -1.1748036
2269 -0.56927365 -0.22344197 -0.8691587 0.6750988 0.42542118 -1.1204758 -0.4276027 1.3165785 -1.6374681 0.10965061 1.4472607 -0.033500575 0.4212599 1.2903397 0.81914985 -0.19973986 -0.4744949 0.7112673 -0.0011609773 -0.46276173 1.6575751 -0.18788183 -1.6017228 0.73713666 2.122143 0.6432122 1.5276086 0.6710863 0.47862637 0.9909956 1.4477034 -1.117822
1349 -0.5017275 -0.26150474 -0.79260796 0.66893387 0.32822955 -1.1819324 -0.40612644 1.2886907 -1.5881368 0.1447573 1.5293168 -0.035119917 0.5063162 1.3954157 1.0082778 -0.23595566 -0.47562927 0.70462304 -0.09325634 -0.46570435 1.6106136 -0.29087025 -1.5672541 0.68203425 2.1656907 0.64636636 1.4908692 0.64111674 0.46276778 0.9386934 1.4609697 -1.0416285
158 -0.5856663 -0.5493915 -0.6745406 0.8253025 0.21391337 -1.000491 -0.34539285 1.1795236 -1.6944067 0.06850418 1.4856791 -0.1439875 0.54045206 1.2167964 0.8321045 -0.24270317 -0.53439814 0.77860194 0.0886758 -0.4311147 1.6643012 -0.2001548 -1.574256 1.001535 2.39051 0.78158045 1.5864726 0.3936585 0.5131441 0.83349544 1.6372796 -1.2592473
161 -0.37519994 0.6824661 -0.64639163 1.1749841 0.15898265 -1.1310388 -0.93054956 0.049596924 -1.0246911 -1.7411498 0.23164897 0.3597032 -1.8117223 0.8056637 -0.052266873 1.4024512 1.7450544 0.11597721 -1.5773033 -0.2732877 -0.5016155 1.1653646 -2.1206772 1.0555367 0.2749487 -0.53244156 -0.823345 -0.21678638 -0.83009803 -0.6168512 -1.5903757 -0.32712904
2208 -0.26181588 0.8774576 -0.574263 1.231089 0.26344708 -1.153576 -0.9040505 0.10212354 -0.95680153 -1.6361898 0.2264234 0.51320225 -1.8798974 0.8506528 -0.021042624 1.4776602 1.8057674 0.18630627 -1.5530254 -0.2819347 -0.45607227 1.2606754 -2.0343113 1.1183145 0.1852131 -0.5333034 -0.7860135 -0.26566127 -0.84769166 -0.40286142 -1.5401503 -0.31769115
2157 -0.2676153 0.9190547 -0.52891904 1.2940296 0.28809762 -1.1703566 -0.96906805 0.099038504 -0.9925655 -1.6950024 0.13984825 0.4545501 -1.9387953 0.83721787 0.0017503846 1.4449949 1.8768315 0.088467695 -1.5738008 -0.27032378 -0.4274573 1.1689987 -1.9975401 1.0560882 0.17253323 -0.45712435 -0.8698931 -0.25856364 -0.83558184 -0.4458666 -1.5315976 -0.3346979
