6347 32
0 -0.035735153 -0.05487847 0.25869015 2.103177 -0.018960366 0.6739796 0.5765814 -0.38289067 0.26684862 -0.672469 0.320912 -1.2988751 -1.4873627 0.123083115 -0.77819127 0.90604496 -1.3073369 -0.33123296 0.059196614 1.1032736 -0.6311589 0.68546 1.9884104 0.50456977 0.7001655 -1.3819368 -1.1646615 -0.31605446 -0.72904706 -0.5163014 -0.053288218 0.53646123
2181 0.19006075 0.020450504 0.24202491 2.074623 -0.0356902 0.7026638 0.58615494 -0.45502904 0.1318217 -0.5729745 0.41402414 -1.3798959 -1.4375557 0.12400183 -0.79574364 0.80312103 -1.5543553 -0.293289 0.025971707 1.076807 -0.5878512 0.66217333 2.0155785 0.4155685 0.7366412 -1.4039358 -1.1620625 -0.3430938 -0.5991366 -0.41763952 -0.040931825 0.297248
10 0.079339385 -0.042484913 0.2311419 2.1444802 -0.12613387 0.6442834 0.62210727 -0.56112605 0.20297582 -0.47884575 0.28356004 -1.2742034 -1.4148557 0.20204961 -0.81688845 0.8394992 -1.4800029 -0.29346505 0.054221038 1.1663284 -0.62307376 0.6725747 2.091427 0.44850048 0.7322233 -1.3947277 -1.2148613 -0.44184855 -0.66704434 -0.41142416 0.045224547 0.39677116
655 0.04599267 -0.115726314 0.17982765 2.0983806 -0.036277894 0.6584691 0.4664534 -0.4737697 0.17633596 -0.4722983 0.39649338 -1.3427774 -1.4286559 0.090192445 -0.79091746 0.85516644 -1.5021472 -0.26871148 0.083231054 1.1029896 -0.5577181 0.5996715 2.117447 0.42037782 0.6027506 -1.4388007 -1.2982937 -0.34014708 -0.5795761 -0.4553326 0.000998336 0.3771412
1810 -0.0073248316 -0.037708465 0.2144518 2.0819283 -0.083707266 0.7279925 0.6272357 -0.30183437 0.17970192 -0.6805378 0.34751073 -1.3074596 -1.5474384 0.11452612 -0.67330307 0.91700304 -1.3182813 -0.33930716 0.12777144 1.1315604 -0.6053791 0.7678811 1.9444273 0.41774338 0.5395463 -1.4939605 -1.1159086 -0.2708138 -0.6514519 -0.4614019 0.0063463533 0.4524869
276 0.10760688 -0.032268547 0.2904597 2.1309898 -0.15622415 0.691958 0.61796707 -0.40178314 0.14113985 -0.6797002 0.3947036 -1.2417408 -1.5657194 0.21156326 -0.87245345 0.97364944 -1.430473 -0.2457798 0.21809459 1.1784775 -0.6194028 0.74765223 1.9530038 0.47301432 0.7240438 -1.5505853 -1.2599411 -0.29075065 -0.74563134 -0.5956715 -0.046563625 0.42645228
21 0.14287531 0.004576627 0.33456746 2.0938098 -0.008423961 0.761637 0.5922143 -0.49271017 0.23914927 -0.47968206 0.4438794 -1.4104981 -1.3412914 0.20420288 -0.8306626 0.89678746 -1.4963114 -0.29203096 0.02984317 1.2047293 -0.5579514 0.71298265 2.0519972 0.39042377 0.67602086 -1.5174468 -1.2151521 -0.2652013 -0.60132664 -0.5799305 -0.055732097 0.41341314
533 0.10048851 -0.046476208 0.21088278 2.047443 -0.008761069 0.64719456 0.62089735 -0.37907925 0.2274589 -0.5986709 0.3366647 -1.2579885 -1.4489669 0.20231082 -0.8838983 0.8680112 -1.3211648 -0.23211989 0.1506943 1.1044133 -0.6206082 0.643396 1.9066414 0.42347634 0.6591661 -1.4721992 -1.1963958 -0.31123406 -0.6578783 -0.48490426 -0.03485374 0.4554194
1303 0.07840828 -0.11748275 0.14438723 1.9929905 -0.031693216 0.63953716 0.47955793 -0.3304648 0.3007406 -0.68562514 0.31511256 -1.229507 -1.4936247 0.24162112 -0.83499545 0.99662024 -1.3613669 -0.2944401 0.04209979 1.1401999 -0.59500307 0.710384 1.9325548 0.44659948 0.7058913 -1.386826 -1.1219355 -0.3296776 -0.62125725 -0.44447213 -0.034295797 0.48085594
930 0.013871606 -0.13650009 0.2783954 1.9801719 -0.12975799 0.57889616 0.4995626 -0.273753 0.2869202 -0.519611 0.33375952 -1.3137552 -1.5125514 0.16319951 -0.8533126 0.8459219 -1.3381748 -0.1797222 0.013395009 1.2505817 -0.5812687 0.72166026 2.0606148 0.4547276 0.61118865 -1.4896202 -1.1632963 -0.27073646 -0.69926697 -0.58719933 -0.043160375 0.5155433
1831 0.059731416 -0.11542429 0.2757718 2.0475059 0.016394012 0.58621264 0.5423116 -0.38630855 0.27304485 -0.52626914 0.38404605 -1.2424906 -1.4343684 0.26021883 -0.915048 0.9165128 -1.442736 -0.2810196 0.12810321 1.131004 -0.6550054 0.62273866 2.0100765 0.3878521 0.66042423 -1.4871091 -1.1569664 -0.21651573 -0.5723135 -0.48368758 -0.10233061 0.48282358
302 0.08985771 0.037693337 0.24841726 2.1135852 0.020635754 0.79936063 0.5461836 -0.42140627 0.29669917 -0.6501521 0.3460332 -1.2998902 -1.3543422 0.14179851 -0.8865433 0.8201904 -1.4269844 -0.23413065 0.09278913 1.1434655 -0.56293964 0.6738698 1.9738678 0.42156115 0.60206485 -1.4081175 -1.1654463 -0.29811844 -0.6279144 -0.49116188 -0.09085305 0.3588476
559 0.026895074 -0.09607323 0.2304041 2.176379 -0.042260915 0.749523 0.4473519 -0.28466278 0.30559704 -0.6737268 0.36076406 -1.23732 -1.492112 0.1908978 -0.8495339 0.8919995 -1.496917 -0.33509505 0.079251155 1.1480069 -0.61867803 0.55938 1.9244375 0.5450314 0.6509959 -1.4621104 -1.2573856 -0.28147003 -0.60000026 -0.48337892 -0.040426616 0.47188807
1843 0.059392404 -0.032855056 0.16751093 2.0713735 -0.1556816 0.7779258 0.4880919 -0.45434755 0.20571044 -0.4573709 0.2902771 -1.3059407 -1.4581736 0.18273553 -0.754488 0.84672654 -1.4106462 -0.25819212 0.107995406 1.1605811 -0.58679396 0.70925516 2.0588138 0.41246027 0.69056773 -1.4987055 -1.2317812 -0.3191876 -0.58092093 -0.46154505 -0.0176141 0.42529875
310 0.08118409 -0.114614666 0.11863033 2.0332632 -0.028347695 0.74372935 0.5973456 -0.37277266 0.24280521 -0.61650604 0.356776 -1.3484037 -1.5412349 0.08642136 -0.8777247 0.86495876 -1.3970486 -0.32259357 0.08694866 1.0842297 -0.6258699 0.68333125 1.9948452 0.4455908 0.6176152 -1.4857244 -1.1753412 -0.3515484 -0.60760707 -0.44333786 -0.097973146 0.3838135
2103 0.054065097 -0.16481125 0.2906166 2.0992403 -0.017493289 0.71225256 0.63124806 -0.36187616 0.35308492 -0.577506 0.34159225 -1.3040725 -1.3940578 0.23424914 -0.92288953 0.86160034 -1.3561571 -0.3237275 0.02681599 1.1754565 -0.6333623 0.6015728 1.9667946 0.4249487 0.696962 -1.4880282 -1.1645788 -0.37631014 -0.5398061 -0.4649099 -0.09825065 0.53318644
1337 0.091724105 -0.0004426132 0.21162148 2.0888238 0.061312668 0.73796254 0.54400396 -0.56780684 0.21190201 -0.5247538 0.3043787 -1.3505938 -1.4108928 0.16010974 -0.81883 0.8777555 -1.4486871 -0.2511726 -0.02958466 1.095578 -0.65078557 0.68225366 2.037618 0.44582936 0.6980463 -1.4178469 -1.1209668 -0.38588625 -0.58133394 -0.50893736 -0.07302441 0.3942909
186 0.076770976 0.017780306 0.18267015 2.1205032 -0.00686178 0.7246746 0.5341296 -0.37077945 0.25160167 -0.7058136 0.43431264 -1.2517499 -1.4648274 0.08691982 -0.8597538 0.9294009 -1.443089 -0.37435663 0.15641229 1.0883963 -0.6437976 0.6013282 1.9310127 0.5587513 0.7027962 -1.4928391 -1.1539974 -0.23357691 -0.65013325 -0.4827689 -0.10581269 0.44256243
2108 0.114340074 -0.11043743 0.21013732 2.036937 0.00405108 0.5861231 0.6084883 -0.34755942 0.30251414 -0.7005077 0.33657035 -1.2926824 -1.3933513 0.22102052 -0.8114334 0.8566369 -1.4129004 -0.33101565 0.04679371 1.07734 -0.663219 0.58375156 1.9199218 0.4628714 0.7416004 -1.3620529 -1.2118139 -0.2653607 -0.59085965 -0.41620272 -0.06121487 0.47950956
1088 0.0580427 -0.10702876 0.15037385 2.0843544 -0.050267465 0.6882566 0.5771426 -0.39937022 0.1600714 -0.6465156 0.28292707 -1.2497281 -1.4942634 0.14278848 -0.77004516 0.85566837 -1.4238088 -0.30948815 0.102737084 1.1749042 -0.6096344 0.7378443 1.966289 0.4744071 0.67047924 -1.4183931 -1.149116 -0.3395433 -0.51643527 -0.45040557 -0.12251321 0.36408666
1483 0.04791405 -0.038156863 0.24899253 2.0315542 -0.078602284 0.73641264 0.597918 -0.4252969 0.24309568 -0.48726448 0.30161735 -1.2727875 -1.421836 0.22181922 -0.8058973 0.92785096 -1.4267687 -0.31759974 0.102017984 1.1722139 -0.5561898 0.7104356 1.9916399 0.43516397 0.6227978 -1.4130194 -1.093959 -0.3028141 -0.6361214 -0.49337474 -0.063732855 0.34091458
1881 0.10273896 -0.055491023 0.12089007 2.0350876 0.05392547 0.631519 0.54148525 -0.43501765 0.14017384 -0.5727616 0.33180898 -1.260915 -1.4633125 0.1938258 -0.8018471 0.9357907 -1.5012089 -0.2142019 0.14282422 1.1111071 -0.56822157 0.7124719 2.0283084 0.5060052 0.6690518 -1.4078807 -1.2067784 -0.23958595 -0.70623475 -0.40131447 -0.019418655 0.2884417
860 0.087823875 -0.04303002 0.21603365 2.1007452 0.017800756 0.7836785 0.5327737 -0.36171788 0.19869778 -0.69510186 0.3484019 -1.2737837 -1.4613438 0.15156089 -0.7274695 0.81829154 -1.4635847 -0.27439037 0.120895505 1.1024574 -0.5901876 0.6234528 2.0387797 0.4162652 0.6643066 -1.3807082 -1.1734327 -0.43741086 -0.57177097 -0.3916429 -0.031840444 0.341164
101 0.09324779 -0.12897262 0.22222997 2.0337565 0.049501166 0.65398955 0.5665766 -0.41151023 0.1932341 -0.67507523 0.34051716 -1.1855571 -1.4186456 0.23712875 -0.8647372 1.009047 -1.3922836 -0.30869064 0.0400776 1.1129457 -0.5269058 0.6730737 1.9570382 0.29872972 0.65955514 -1.4273397 -1.2220294 -0.36250868 -0.61782753 -0.5350193 -0.041937716 0.4833882
102 0.08113693 0.0053178063 0.24511574 2.0845752 0.009263643 0.6969721 0.55471057 -0.33838823 0.2553336 -0.7061644 0.33637235 -1.2053099 -1.4255632 0.1780939 -0.85912067 0.95952696 -1.3832947 -0.3248456 0.045940958 1.1385713 -0.5951864 0.6256914 1.9947625 0.39173603 0.651986 -1.4245672 -1.1856025 -0.37885883 -0.6467828 -0.4560683 -0.017170575 0.5372591
104 -0.032170035 -0.060112584 0.1768843 2.1541798 -0.06352129 0.6544788 0.5664113 -0.5379459 0.1848472 -0.56284577 0.2449953 -1.2347865 -1.5063199 0.14786124 -0.78188676 0.87361705 -1.5096414 -0.2774525 0.11681503 1.1251147 -0.5543593 0.6711398 2.0730019 0.40631968 0.73571366 -1.4129148 -1.2104651 -0.37065086 -0.6305509 -0.48102334 -0.07327505 0.3559659
1917 0.14812577 -0.008527482 0.23999724 2.1704051 -0.029996121 0.71912247 0.55913866 -0.41172284 0.19433524 -0.64570487 0.33982036 -1.2950537 -1.497187 0.19482876 -0.8267855 0.8083364 -1.5158304 -0.24713562 0.17214438 1.1634847 -0.6084882 0.6572233 1.9613057 0.45955983 0.5783746 -1.4395795 -1.0957377 -0.26643524 -0.6820254 -0.4848527 -0.006476648 0.42228326
1 1.5636744 0.22205892 0.34510458 -0.26760286 0.2887856 0.30355144 -0.4689533 -0.47061184 0.8625826 0.10127385 -0.70716393 -0.7638544 -0.30743915 -0.20346816 0.17230332 1.043899 0.22836816 -0.3495742 0.38047794 0.38209954 0.2263891 0.4101872 1.0705961 -0.30706775 0.5719406 0.5845667 -0.82217866 0.91558784 0.17270017 0.30444902 0.38493013 0.23329516
6 1.483957 0.18889509 0.35417032 -0.24669008 0.27766627 0.35489675 -0.59205174 -0.52245134 0.91733545 0.08794548 -0.6911366 -0.7695332 -0.3777872 -0.19402915 0.18666646 1.0200278 0.28890482 -0.37480432 0.410704 0.33445653 0.2249252 0.3911663 0.97707665 -0.33101964 0.54670835 0.6352479 -0.8083704 0.91543007 0.24276562 0.3443724 0.31159198 0.27323544
519 1.5453966 0.23494653 0.39004293 -0.25635383 0.28411815 0.33205763 -0.58287156 -0.5136557 0.90484536 0.11755033 -0.689901 -0.76089704 -0.31268412 -0.23421124 0.2039624 0.9992798 0.28618902 -0.4121861 0.33721307 0.3842502 0.25469166 0.4291151 1.0625732 -0.31755766 0.5335124 0.5717919 -0.80728924 0.9813708 0.16562514 0.37136847 0.42649308 0.25391588
8 1.4660841 0.20419188 0.36238334 -0.26183417 0.21789964 0.38914064 -0.5146952 -0.47136393 0.92199 0.11185602 -0.6646731 -0.77887255 -0.32106963 -0.21211919 0.22555925 0.9984424 0.2872122 -0.35373577 0.3728148 0.3568649 0.21776517 0.46382648 0.98845047 -0.28239122 0.53744006 0.64776194 -0.767298 0.951924 0.24101393 0.3793885 0.33463052 0.23702137
522 1.4854891 0.24181716 0.30216703 -0.22946714 0.31052375 0.33042473 -0.54565746 -0.5019019 0.9366758 0.12700485 -0.69428563 -0.76586944 -0.3302857 -0.22388573 0.15375054 0.99434274 0.24945706 -0.42037904 0.47700176 0.3770944 0.20089538 0.463346 1.0487858 -0.33860546 0.5692456 0.58377695 -0.77091247 0.94885206 0.2569944 0.3641016 0.35655358 0.25478938
1548 1.5275007 0.19955285 0.31623077 -0.24866407 0.26204163 0.39088476 -0.60647935 -0.49114713 0.87853634 0.16914873 -0.67097414 -0.72243506 -0.36329335 -0.22502497 0.13823363 1.0325911 0.28031322 -0.41519836 0.34701163 0.38912895 0.25799626 0.400547 1.0581164 -0.30099723 0.53563017 0.61153084 -0.7742317 0.9606374 0.21578887 0.38463914 0.4201934 0.23467916
527 1.4555 0.22354938 0.3553893 -0.2895756 0.24645337 0.32890734 -0.5725516 -0.48136902 0.9197656 0.12880011 -0.69013923 -0.73841226 -0.3121543 -0.23176984 0.13305022 1.0113094 0.2622933 -0.369859 0.396959 0.40361795 0.24381311 0.4134671 1.0002811 -0.23053227 0.55895966 0.5735591 -0.76656026 0.94983494 0.24843836 0.33869126 0.36930054 0.22493888
18 1.5385602 0.18447569 0.30569685 -0.26991218 0.26210144 0.31349447 -0.5687303 -0.55689925 0.9656235 0.123399235 -0.6662629 -0.78675324 -0.36638415 -0.20900504 0.1765105 1.0073748 0.2879984 -0.37403777 0.41678137 0.37522423 0.24261615 0.4206833 1.0410856 -0.3085159 0.52324194 0.5839794 -0.7638587 0.8952462 0.24562368 0.35724187 0.35078976 0.27006325
539 1.5177629 0.19863614 0.33533663 -0.28496325 0.29446882 0.31597555 -0.52978486 -0.5044753 0.8510572 0.1079165 -0.6753901 -0.7293713 -0.3441765 -0.2313312 0.17713413 0.9985798 0.27825192 -0.39249623 0.29598433 0.3488506 0.24186036 0.41003397 1.0464247 -0.3135328 0.53983265 0.6009141 -0.8087288 0.92701167 0.1988994 0.31567487 0.31713724 0.20110987
1053 1.4761901 0.1991789 0.33945918 -0.22373629 0.22802708 0.33238563 -0.4777511 -0.53505003 0.919945 0.16721113 -0.63902634 -0.76802826 -0.3844426 -0.2376482 0.1753772 1.0225002 0.22369963 -0.3436432 0.29631695 0.33581513 0.2539408 0.38503972 1.0594838 -0.30316287 0.54656196 0.6134418 -0.7868476 0.9045903 0.22703248 0.3353914 0.35544172 0.2393467
1566 1.5550106 0.22373317 0.31248423 -0.22222725 0.29818228 0.30685103 -0.5315099 -0.5026751 0.83918613 0.20088978 -0.69614184 -0.7098359 -0.23594542 -0.2708367 0.18347369 1.0247957 0.24766356 -0.3469592 0.40337947 0.40419245 0.17319828 0.46775106 1.0804716 -0.26270714 0.51632184 0.64051807 -0.75747573 0.9417133 0.21821986 0.34188983 0.34631577 0.17137054
31 1.4811858 0.22095993 0.32913387 -0.2555704 0.2519956 0.3004505 -0.5527486 -0.49341312 0.9174055 0.15423003 -0.6888154 -0.8235831 -0.35771418 -0.26452693 0.09423435 0.9719618 0.25723448 -0.39493284 0.37422228 0.3918854 0.2064259 0.46143004 0.9997976 -0.30097812 0.5453886 0.57083595 -0.7842739 0.8966118 0.16398317 0.30360112 0.36365744 0.2640985
38 1.4833889 0.20080845 0.28608346 -0.23273976 0.2628179 0.31720263 -0.48169148 -0.53677267 0.8554896 0.1673877 -0.7151335 -0.78298837 -0.3318331 -0.22968902 0.13379386 1.0232886 0.23055264 -0.3730214 0.41541052 0.37715837 0.27976996 0.41596666 1.1165565 -0.3053461 0.5322388 0.58300453 -0.76394373 0.90473235 0.21698084 0.34965923 0.3919668 0.23432192
1068 1.4983273 0.22993824 0.30908248 -0.23279688 0.26778746 0.31039003 -0.47164577 -0.503014 0.9431357 0.1581582 -0.6520408 -0.7459814 -0.31415558 -0.21236482 0.097645655 1.0048019 0.2618234 -0.3900675 0.34523758 0.38790786 0.25099948 0.40021625 1.0824848 -0.30942002 0.5040316 0.60909486 -0.82499135 0.908089 0.24239674 0.32647133 0.35836014 0.19026709
46 1.5125391 0.11547088 0.36165223 -0.21879949 0.27667376 0.39761847 -0.5238498 -0.47531503 0.92490536 0.17568547 -0.70754206 -0.7060574 -0.31513768 -0.15705678 0.1492732 1.0106102 0.31579885 -0.3447556 0.3765092 0.35491356 0.25766712 0.41013202 1.119548 -0.29357177 0.47382468 0.58990824 -0.83587813 0.88261443 0.20783344 0.30228314 0.37471497 0.19724332
2095 1.4993931 0.20059176 0.35829756 -0.24054599 0.24592368 0.3617691 -0.56752634 -0.52460134 0.9376857 0.07206316 -0.6593052 -0.7446784 -0.3171265 -0.18533047 0.115909606 0.9965023 0.30188403 -0.35649613 0.42422608 0.36280057 0.21956441 0.43088952 1.0023706 -0.30764407 0.5296178 0.58070964 -0.765872 0.9364789 0.23431075 0.3474578 0.3803749 0.30040222
50 1.4829801 0.19823325 0.33596125 -0.22251211 0.25099954 0.33316624 -0.52084595 -0.5150634 0.90074927 0.15778287 -0.6244909 -0.7163361 -0.33303306 -0.25274456 0.11942451 1.0425261 0.26695228 -0.46074304 0.37581104 0.37724015 0.26726216 0.396857 1.0864145 -0.33054024 0.5342104 0.5815778 -0.7991485 0.85430443 0.23816475 0.38245937 0.3331631 0.25393918
2099 1.5197806 0.1560828 0.3598014 -0.21554507 0.2936373 0.33035585 -0.5868234 -0.42554814 0.95032185 0.14237766 -0.7009777 -0.7709385 -0.34829912 -0.22864926 0.19193675 1.0029676 0.2626985 -0.3816933 0.39173365 0.38071638 0.26127258 0.37901783 1.0558802 -0.2868183 0.57187337 0.59082824 -0.8369326 0.96016246 0.19563574 0.37386334 0.32538614 0.29318413
56 1.4708412 0.16194902 0.37923342 -0.22569375 0.2776375 0.34908873 -0.5704701 -0.49572402 0.88044316 0.16815248 -0.68207 -0.75083965 -0.29237092 -0.1998851 0.09965972 0.94756114 0.29753706 -0.3179369 0.3364479 0.33890313 0.21626414 0.47673303 1.1116946 -0.30263117 0.566596 0.6136758 -0.788257 0.9331588 0.2221714 0.33011794 0.33727774 0.21880129
57 1.5299675 0.20360006 0.30849865 -0.24059281 0.2963791 0.32602087 -0.57921743 -0.45317337 0.96005857 0.08129852 -0.66895163 -0.7112737 -0.35820395 -0.1960496 0.12433874 1.0293055 0.33529496 -0.34425473 0.423235 0.38889036 0.22833672 0.35759568 1.0159116 -0.30964673 0.5316191 0.6022793 -0.8279235 0.9393844 0.17632848 0.32228673 0.3580392 0.28589183
574 1.4870951 0.29053265 0.30081755 -0.21400829 0.27164775 0.35530183 -0.59081453 -0.48782575 0.8684352 0.09643991 -0.6078866 -0.6947003 -0.34225893 -0.23122607 0.1363854 1.0410353 0.31595367 -0.377773 0.36318427 0.35585675 0.25218445 0.38441697 1.0676802 -0.32128552 0.56584966 0.6440681 -0.8223824 0.9254609 0.25776276 0.35505542 0.3357363 0.22385432
1089 1.4850334 0.23158114 0.33684844 -0.21767253 0.28398588 0.32449064 -0.56973505 -0.50170964 0.9045811 0.1046267 -0.65035176 -0.7621695 -0.32700863 -0.21868469 0.13344842 1.0352092 0.2170682 -0.35064742 0.37620568 0.34528625 0.21931781 0.43823323 1.0440559 -0.30786252 0.5350618 0.5473703 -0.80466574 0.92147416 0.15726331 0.34363914 0.32621703 0.22903298
66 1.4817541 0.22197244 0.38893238 -0.21806371 0.2976001 0.33940685 -0.5743059 -0.48239762 0.93972236 0.11739118 -0.6464018 -0.7127768 -0.31383228 -0.22147298 0.14871195 1.0501351 0.25587714 -0.41976726 0.41944227 0.40040573 0.2580724 0.4016787 1.0257114 -0.31004733 0.5809722 0.5865634 -0.7771447 0.93780136 0.22350095 0.3366463 0.34317246 0.2608663
581 1.5219499 0.15009879 0.38229033 -0.23714 0.3292693 0.32028696 -0.51829094 -0.52896994 0.89019907 0.16899592 -0.6896312 -0.8196462 -0.28185448 -0.21912366 0.15724902 0.939971 0.2666478 -0.35839266 0.32428417 0.37921447 0.23191059 0.39936295 1.079318 -0.30434445 0.57981676 0.59510726 -0.79390913 0.8740726 0.274993 0.33959487 0.3638048 0.21183278
584 1.5801603 0.2139634 0.30586886 -0.24189785 0.2827376 0.29753986 -0.60097426 -0.5316904 0.8865767 0.106728695 -0.65437245 -0.74017125 -0.33031186 -0.23617703 0.17904931 0.98782456 0.26622304 -0.39354563 0.40432093 0.3332501 0.19603877 0.45294985 1.0804398 -0.27355954 0.58125734 0.55457956 -0.7250361 0.92877257 0.22523335 0.3694706 0.39438608 0.23420033
2123 1.51342 0.17436586 0.38816753 -0.20778106 0.28671247 0.309781 -0.597821 -0.4506107 0.9216138 0.15620677 -0.6402797 -0.778185 -0.32143456 -0.20837736 0.1406386 1.0001364 0.2783792 -0.38315076 0.36727187 0.35522065 0.237579 0.4051457 1.0546734 -0.30066958 0.50368255 0.61111224 -0.78623724 0.9264168 0.1680994 0.37707788 0.35789216 0.29944298
2124 1.5234303 0.18011385 0.289475 -0.21265277 0.30423507 0.3171197 -0.57167125 -0.4692149 0.9370008 0.085260056 -0.59519076 -0.7496468 -0.35489362 -0.21378635 0.08674316 1.026074 0.3337717 -0.3321873 0.3198415 0.33051386 0.20926769 0.4173125 1.0573478 -0.32775262 0.5237404 0.57283 -0.80751663 0.92141455 0.20564045 0.26710242 0.42993993 0.277718
2134 1.5021011 0.20613703 0.3858145 -0.25758678 0.23118562 0.32438707 -0.5305613 -0.49470678 0.85460275 0.14140472 -0.6490734 -0.75786513 -0.34194526 -0.2082824 0.120306894 0.95698494 0.27949107 -0.38948005 0.37717506 0.3508417 0.22323014 0.39139345 1.0256402 -0.3198275 0.54220176 0.6163985 -0.77710575 0.9148058 0.24666798 0.34620625 0.35772258 0.26711297
89 1.4908856 0.17518023 0.35291243 -0.2345341 0.28981647 0.3598685 -0.516973 -0.52123255 0.9382963 0.07665975 -0.6779043 -0.783429 -0.30740586 -0.22058092 0.16236104 1.035985 0.24444638 -0.3655728 0.38827872 0.34952825 0.25018662 0.4784743 1.074994 -0.30362502 0.5428939 0.61211807 -0.81675303 0.899304 0.22640423 0.37187546 0.36774468 0.21487913
96 1.4801883 0.17093201 0.35645348 -0.21428177 0.32060605 0.3299931 -0.5553785 -0.4692945 0.95407367 0.18697858 -0.70529735 -0.73440117 -0.34553382 -0.21616305 0.21660629 0.9754852 0.2930493 -0.39523727 0.3640368 0.3810217 0.21101975 0.40073666 1.0385468 -0.3181945 0.63057584 0.59201926 -0.8484312 0.9366081 0.23677526 0.3729311 0.36672038 0.3010855
1126 1.491151 0.18665361 0.37893248 -0.24660397 0.2583114 0.36245006 -0.5684035 -0.529284 0.89086443 0.1382738 -0.68939483 -0.7746188 -0.3305854 -0.20573218 0.13446769 1.014923 0.3192686 -0.32539654 0.38978982 0.34680083 0.24098049 0.3872543 1.0867401 -0.32642016 0.5393642 0.57937694 -0.8273152 0.931358 0.2210579 0.38275892 0.3691907 0.27988556
2152 1.5201951 0.15138325 0.3344596 -0.17847346 0.36374605 0.37533805 -0.5661686 -0.48355693 0.89027864 0.13173924 -0.7116229 -0.7832324 -0.29999042 -0.254734 0.11471351 1.012972 0.2913539 -0.3691267 0.38873854 0.34839255 0.26405936 0.39795458 1.1127368 -0.2819348 0.5484612 0.62698877 -0.81921846 0.90054536 0.22925593 0.3437107 0.37567696 0.2509568
105 1.4821651 0.21123803 0.39623177 -0.21033417 0.27941144 0.3823516 -0.5355798 -0.5365358 0.8789594 0.096540794 -0.6560057 -0.7701542 -0.3290366 -0.17911337 0.13358407 1.011333 0.2594762 -0.35652167 0.41847682 0.37888837 0.2835848 0.38789347 1.070736 -0.25050512 0.5545366 0.58357215 -0.81210995 0.95339257 0.23507077 0.33025777 0.3179596 0.2480497
106 1.5168707 0.208735 0.37928125 -0.18768682 0.2912965 0.32623482 -0.55642384 -0.50896 0.91355044 0.14539185 -0.6315232 -0.7560091 -0.33675602 -0.21306409 0.11471427 1.0701252 0.2921997 -0.3233936 0.34791788 0.33261845 0.25048542 0.36943856 1.0777812 -0.29156753 0.52108675 0.6188786 -0.8207672 0.95017153 0.21031575 0.34003752 0.35890332 0.28382438
2162 1.5209655 0.2230678 0.3477779 -0.23924308 0.24112417 0.32517323 -0.5685954 -0.54543555 0.89061284 0.13428608 -0.7034238 -0.7861922 -0.33640152 -0.20827258 0.15639748 1.0131027 0.31094703 -0.37485582 0.42393798 0.3557024 0.22848232 0.4153912 1.079401 -0.29665574 0.47528166 0.60119385 -0.8228515 0.9048626 0.23333992 0.3672087 0.33672795 0.26575884
2179 1.5445119 0.15658571 0.31899577 -0.27764833 0.30279735 0.31050676 -0.53267485 -0.45248622 0.9183832 0.08742115 -0.68577933 -0.77399236 -0.3579352 -0.19241479 0.121244565 1.0197077 0.30420637 -0.3613045 0.369108 0.39635435 0.22119777 0.36738262 1.0477628 -0.28824612 0.5161701 0.6117081 -0.8142097 0.8963067 0.2841467 0.3218873 0.36012185 0.26194763
140 1.5430503 0.20896676 0.32489908 -0.28043664 0.29033023 0.34316513 -0.557936 -0.5285051 0.95539635 0.15607364 -0.6940562 -0.7459476 -0.31217387 -0.24506016 0.1604158 1.0371084 0.2922102 -0.39733243 0.36740208 0.3578324 0.23468281 0.3685236 1.076747 -0.2857307 0.5504608 0.6065473 -0.8054064 0.9456671 0.1863837 0.35382316 0.31946123 0.27655426
2188 1.4658775 0.1877684 0.40145352 -0.2464283 0.27553758 0.3272851 -0.53414917 -0.5284452 0.91097075 0.14186068 -0.68909436 -0.71784085 -0.31300816 -0.20733535 0.13226028 0.9987471 0.27534264 -0.35532573 0.4035741 0.32288083 0.2162746 0.4041754 1.0111487 -0.27738106 0.46829018 0.5919352 -0.8309916 0.9330503 0.21259622 0.30683902 0.37456614 0.24246009
2198 1.5587145 0.23610455 0.34389597 -0.21453811 0.29079202 0.37547177 -0.54355747 -0.490397 0.9158095 0.15271915 -0.6892828 -0.77385557 -0.33011514 -0.26483002 0.1810339 1.0292691 0.2749176 -0.37638816 0.37841883 0.36064172 0.23055084 0.47082013 1.0654151 -0.3206159 0.53799933 0.6032579 -0.84364885 0.90590924 0.23509292 0.3456817 0.35918015 0.23572318
151 1.4739728 0.17075916 0.34862623 -0.22683825 0.2712047 0.30187985 -0.58898056 -0.4668861 0.89761245 0.1614138 -0.6641236 -0.74270815 -0.29803735 -0.2360713 0.16873749 0.99110866 0.31387922 -0.4154711 0.3367383 0.37312743 0.23922625 0.42691752 1.0902336 -0.28447908 0.5019888 0.58284867 -0.82103693 0.91463715 0.2176529 0.33681983 0.34913832 0.24667671
163 1.5028822 0.19399923 0.3508253 -0.20824288 0.21469411 0.3510175 -0.60440373 -0.55022824 0.93947464 0.15990919 -0.70197076 -0.79088956 -0.3350144 -0.24111415 0.16075635 1.0311325 0.33595797 -0.38181317 0.39083248 0.3649094 0.19493213 0.4333808 1.0476961 -0.3203454 0.5429836 0.60247123 -0.7750113 0.9237203 0.17890333 0.31802726 0.34932902 0.23793994
177 1.4688874 0.19392435 0.35560328 -0.25277233 0.22780831 0.36203095 -0.5367112 -0.52777773 0.8766749 0.12494652 -0.7071007 -0.7355161 -0.3435785 -0.2047047 0.14697845 0.9614155 0.302838 -0.39028865 0.36378592 0.30733317 0.26717913 0.45220414 1.0730157 -0.29707932 0.53361934 0.5256537 -0.8043914 0.94937986 0.14202283 0.34849223 0.38131085 0.2584076
1201 1.5308726 0.1869484 0.35348442 -0.23828308 0.2578927 0.39159426 -0.5585723 -0.4669065 0.8805418 0.119762175 -0.6703807 -0.77341735 -0.38690528 -0.25069633 0.1972247 1.0201141 0.2515419 -0.3943887 0.3839976 0.31745163 0.266886 0.4813293 1.0675273 -0.31290382 0.55539477 0.5702446 -0.83762294 0.92739666 0.20399702 0.36872882 0.36852285 0.24387908
2228 1.5074571 0.19835593 0.34594274 -0.2555276 0.27267694 0.3386593 -0.55210686 -0.4914561 0.9465147 0.1030882 -0.66735464 -0.76608527 -0.3159033 -0.16309007 0.08901349 0.9787897 0.2671952 -0.387622 0.36482129 0.33179364 0.2182126 0.4311248 1.0355941 -0.2552494 0.49654958 0.6253374 -0.8108709 0.92187333 0.1702132 0.33595082 0.4008912 0.2649686
2230 1.4583758 0.17395164 0.34173003 -0.21657571 0.25473228 0.328243 -0.53496534 -0.44967973 0.87987834 0.12571247 -0.6808736 -0.76802075 -0.32154432 -0.21193703 0.09917432 0.96003675 0.29767215 -0.33030188 0.39117622 0.3807811 0.23484196 0.40177858 1.0374136 -0.27263865 0.5401617 0.5581208 -0.81305337 0.9342997 0.1801154 0.3406127 0.3525542 0.25701845
187 1.5148801 0.18507497 0.32796064 -0.23076615 0.28178105 0.32187927 -0.566132 -0.45978993 0.9088978 0.1577219 -0.7189261 -0.78380704 -0.34836006 -0.22235973 0.13167296 1.014843 0.30813268 -0.34849787 0.39325234 0.3741603 0.20817417 0.4526558 1.1083479 -0.27481592 0.5708726 0.5824665 -0.8266005 0.965558 0.2030644 0.354056 0.35917798 0.24202858
2235 1.535492 0.19739853 0.32595968 -0.27753422 0.25421512 0.3344195 -0.56107056 -0.52050114 0.9453118 0.1268148 -0.6316512 -0.75380903 -0.32986593 -0.21783234 0.18460609 1.0233133 0.3067889 -0.3456509 0.35114276 0.37565434 0.2600519 0.47338375 1.0568125 -0.26630315 0.463421 0.58334714 -0.8286958 0.9478409 0.21078444 0.39685413 0.35062566 0.21662517
2236 1.491362 0.20508917 0.34922355 -0.25177705 0.20849279 0.33647537 -0.5427328 -0.52942383 0.8790971 0.14963193 -0.6529006 -0.7540251 -0.31327674 -0.20364396 0.16497071 0.989212 0.28660175 -0.3669206 0.41107818 0.34965226 0.25616962 0.41391683 1.1002711 -0.27300256 0.55069184 0.6253152 -0.83932847 0.9101849 0.23997894 0.37807244 0.33903307 0.23681433
2239 1.4809028 0.16344902 0.37513182 -0.20717798 0.27490968 0.34070957 -0.5886175 -0.4642034 0.90199095 0.07197634 -0.63808036 -0.7568694 -0.34166422 -0.17373516 0.121325605 0.99830246 0.22788617 -0.4066171 0.33163086 0.40934488 0.20106174 0.47235823 1.0556747 -0.2943808 0.6095343 0.5885492 -0.82435477 0.932908 0.20293692 0.33824456 0.402541 0.19967912
705 1.5052241 0.12615736 0.308268 -0.3030738 0.28960207 0.34090686 -0.5597475 -0.5363814 0.921427 0.15809788 -0.7017749 -0.77765226 -0.3499707 -0.22259168 0.1614704 1.0170705 0.25188994 -0.39228377 0.36058843 0.3495172 0.20591725 0.41428748 1.0515077 -0.3040062 0.5272447 0.5728402 -0.7445375 0.9153029 0.19922927 0.3335451 0.32670537 0.22007947
708 1.5540153 0.15129542 0.35713327 -0.25532487 0.28082547 0.3067083 -0.5223135 -0.5169806 0.8893607 0.12188157 -0.63824326 -0.7310021 -0.3401784 -0.17476931 0.12218452 0.9457926 0.33762395 -0.39827916 0.37879175 0.4135753 0.23336203 0.41819805 1.0377693 -0.3368454 0.53791535 0.58739465 -0.80283475 0.92170966 0.22724359 0.32277703 0.3219619 0.26816374
714 1.480675 0.22493264 0.33960637 -0.24129894 0.29988492 0.37966856 -0.5080788 -0.51694983 0.9047544 0.19335209 -0.69822186 -0.74854237 -0.30535665 -0.23346575 0.15991387 1.0451399 0.26304564 -0.33326614 0.3608414 0.37523332 0.263163 0.36944622 1.125871 -0.2530941 0.5046317 0.5809789 -0.8108937 0.8771085 0.25930333 0.32355088 0.33593053 0.21632898
206 1.5087008 0.21994272 0.374489 -0.23741838 0.2972291 0.35817605 -0.53412837 -0.45000643 0.8842813 0.13503796 -0.70409197 -0.7700193 -0.330558 -0.21705209 0.16419087 1.0141007 0.31497464 -0.36529225 0.33970094 0.41042167 0.27684027 0.4515934 1.0708306 -0.27714506 0.5674435 0.59264845 -0.8101906 0.94163585 0.23979065 0.30256414 0.33819997 0.23686902
2256 1.4705824 0.20835346 0.31428924 -0.26815915 0.22454849 0.3704759 -0.5709526 -0.47872522 0.87733245 0.11867997 -0.6419614 -0.7764655 -0.3270107 -0.24164559 0.17627369 1.014962 0.3019211 -0.34572697 0.37431464 0.3946539 0.21276878 0.41610745 1.0279981 -0.34765688 0.5397658 0.5980359 -0.7814571 0.8991753 0.21989563 0.32778242 0.3666882 0.24746004
209 1.4579856 0.24244021 0.35528913 -0.23069216 0.30350012 0.34252146 -0.49863666 -0.5348198 0.92725295 0.16064563 -0.67341214 -0.76409173 -0.28639054 -0.2284629 0.14807846 0.97248685 0.2611288 -0.36564094 0.33198714 0.35631618 0.25178516 0.46821406 1.1039339 -0.3003747 0.52977455 0.65736544 -0.8253082 0.91809607 0.18017355 0.32957906 0.32956696 0.23367065
1240 1.4732584 0.1991497 0.35998213 -0.25871465 0.287788 0.32239464 -0.51004755 -0.47773567 0.8852523 0.09911483 -0.65899014 -0.730276 -0.30771807 -0.18004644 0.118020855 1.0086946 0.2285489 -0.3356682 0.3850879 0.3588057 0.184041 0.45048532 1.0470347 -0.3013528 0.52719146 0.56377786 -0.81047696 0.9271181 0.20474501 0.34266156 0.37569106 0.25923663
2275 1.4794959 0.19294412 0.34631306 -0.24548429 0.3342517 0.30088615 -0.55644625 -0.45203993 0.9460673 0.14316598 -0.70676243 -0.7832147 -0.36493048 -0.21007712 0.1883009 1.0055356 0.26001742 -0.3583516 0.4052632 0.34573236 0.2051122 0.43168244 1.0562297 -0.26017824 0.5348254 0.5836832 -0.8099541 0.95130205 0.21536629 0.3074433 0.37691632 0.2474463
1256 1.5041487 0.12372528 0.3795737 -0.20133331 0.2945821 0.34432897 -0.5650796 -0.52590114 0.9576133 0.0980119 -0.6682856 -0.7553834 -0.345099 -0.21444203 0.22650999 1.0582722 0.30544013 -0.39414293 0.35594597 0.35892573 0.25425902 0.44347516 1.0404775 -0.30394885 0.4859822 0.5922892 -0.8607109 0.901682 0.18852013 0.33888942 0.38992667 0.2393297
1258 1.4995198 0.18083888 0.3596729 -0.25185934 0.24862133 0.3289964 -0.555021 -0.4972634 0.84832597 0.15238856 -0.6903805 -0.7723052 -0.30879453 -0.26801106 0.13243888 0.9840513 0.23735036 -0.35421723 0.3784581 0.35731253 0.24929054 0.46085852 1.0555125 -0.2969153 0.53732705 0.62917095 -0.7974476 0.85714406 0.21432336 0.35715583 0.31245023 0.26398516
1262 1.452083 0.2360493 0.35857052 -0.26141554 0.26589376 0.31665322 -0.5841621 -0.44752184 0.91770303 0.09748943 -0.68664896 -0.748 -0.33412966 -0.21375373 0.17997089 0.9857136 0.24982649 -0.41747242 0.38395736 0.41058677 0.22032247 0.42145863 1.0222044 -0.29322973 0.54677975 0.6500839 -0.7900464 0.8844863 0.26415053 0.3265002 0.40243706 0.27735847
242 1.4741554 0.1310828 0.3834031 -0.25297847 0.25287163 0.34948635 -0.48908868 -0.4934359 0.89121825 0.12869062 -0.6809818 -0.774695 -0.34238672 -0.22121742 0.17240322 0.9757918 0.27803338 -0.3594329 0.366332 0.33554885 0.27601376 0.3917498 1.114365 -0.27564785 0.5249792 0.580331 -0.81876755 0.9068991 0.21528545 0.36255062 0.38836956 0.19696629
261 1.4863138 0.18863611 0.3553285 -0.2055376 0.2706484 0.33197278 -0.5727487 -0.48373586 0.91390026 0.11528866 -0.637498 -0.7371939 -0.3491158 -0.1970347 0.18145251 1.0281332 0.28762034 -0.4189584 0.39647016 0.39848366 0.24398491 0.42565492 1.0911925 -0.32229584 0.515629 0.6156435 -0.8107186 0.92927694 0.23948514 0.33173183 0.33963174 0.25881207
1289 1.4608054 0.15560806 0.30228165 -0.26059565 0.2725806 0.3190575 -0.5470889 -0.55563766 0.9077309 0.08839951 -0.6631432 -0.7620302 -0.32612145 -0.24031398 0.1171652 0.9826099 0.26831916 -0.39755225 0.4163456 0.40327764 0.23482046 0.44862464 1.0330409 -0.2821219 0.55939454 0.60028136 -0.76864356 0.93377596 0.17605124 0.3445109 0.33599237 0.25518486
266 1.5193895 0.1620155 0.28968307 -0.26276982 0.2802668 0.31684744 -0.48732808 -0.46668756 0.8810127 0.09822393 -0.66805935 -0.8077452 -0.32953686 -0.24114989 0.16430613 0.9725488 0.30062103 -0.38355142 0.37917778 0.34840038 0.18862176 0.38086674 1.0841882 -0.2960137 0.56175905 0.5301886 -0.81529313 0.8923139 0.21018569 0.3758324 0.336471 0.25318196
1290 1.5466931 0.2165021 0.37362465 -0.23597455 0.28152058 0.35501352 -0.5150034 -0.4874964 0.88395774 0.09174965 -0.66247106 -0.79187673 -0.33979106 -0.2186111 0.13727924 1.0255395 0.27959517 -0.3857715 0.40334687 0.34237504 0.23336864 0.40956137 1.0465629 -0.30882996 0.53822553 0.6280267 -0.8477965 0.9771027 0.19207858 0.37628582 0.4167971 0.26183528
2317 1.442755 0.17355576 0.3288464 -0.25748318 0.28829053 0.3289317 -0.55405927 -0.5004475 0.91349375 0.14921243 -0.6331519 -0.76115614 -0.3198441 -0.20989189 0.17735745 1.0403981 0.28688052 -0.35074937 0.40937114 0.377732 0.23464738 0.4384087 1.0567093 -0.3282787 0.5052813 0.5617638 -0.8491107 0.96268624 0.122480646 0.30372244 0.3952805 0.2631015
1298 1.5259429 0.2306535 0.36696315 -0.24013807 0.28156424 0.36458373 -0.5642334 -0.44258377 0.8636479 0.11406143 -0.6575017 -0.7522963 -0.345539 -0.18140768 0.11184988 1.0246917 0.29964256 -0.40790543 0.3881153 0.33220008 0.24821748 0.4136257 1.080746 -0.28273842 0.5199857 0.6043545 -0.7680708 0.94916785 0.19685419 0.34064567 0.316933 0.1998971
1300 1.49313 0.17416029 0.3128466 -0.22548738 0.27309296 0.35199544 -0.53053594 -0.47141522 0.8764014 0.061569594 -0.6506208 -0.70985126 -0.3137229 -0.24584207 0.13895209 0.98142 0.24395245 -0.37399864 0.40389064 0.3659304 0.2524238 0.42901242 1.0759887 -0.3146412 0.52191985 0.6076869 -0.772996 0.91415966 0.1662273 0.36254692 0.40851966 0.2523209
278 1.4524983 0.16785434 0.3526767 -0.23999296 0.2667146 0.33772734 -0.5794665 -0.48403388 0.88755786 0.11747453 -0.66131794 -0.6727621 -0.33993304 -0.17971195 0.12704276 1.0580562 0.26912293 -0.36686814 0.36933252 0.37171125 0.2576626 0.4419284 1.0592304 -0.3038056 0.5497718 0.588256 -0.7740376 0.9612394 0.17722774 0.30344608 0.3658182 0.24132113
2328 1.455589 0.18660757 0.38068095 -0.21570353 0.25346953 0.32458833 -0.56519574 -0.5170166 0.8863765 0.1541032 -0.7021758 -0.76962197 -0.3353587 -0.19447988 0.15885979 1.001997 0.28725052 -0.35761404 0.39895862 0.37925455 0.2516494 0.42523476 1.0879878 -0.29410785 0.5768534 0.613364 -0.8332275 0.96125525 0.21961883 0.39975306 0.3629243 0.2351078
1307 1.5060115 0.22635195 0.35013402 -0.26001862 0.30619738 0.357534 -0.5533508 -0.50863934 0.9268456 0.082053065 -0.6714255 -0.762477 -0.34411448 -0.26831114 0.12150695 1.0229185 0.31163266 -0.36834133 0.32156086 0.32524845 0.2227534 0.42709962 1.0179476 -0.3446699 0.5475811 0.60574806 -0.79634845 0.8786788 0.25893664 0.34774992 0.40398538 0.22911438
2331 1.5176102 0.24618469 0.3051358 -0.20449543 0.26149118 0.3775487 -0.536323 -0.538206 0.87587553 0.18029958 -0.63087445 -0.7686459 -0.35447362 -0.21331544 0.20090699 0.9979685 0.2862543 -0.34159392 0.4029725 0.31170365 0.25816154 0.4283029 1.052195 -0.28735948 0.50907314 0.6038973 -0.79958457 0.94423544 0.26129264 0.315148 0.38443267 0.25398424
2333 1.5119255 0.24264778 0.38598993 -0.22950152 0.25265443 0.32995036 -0.52140313 -0.47134387 0.88589275 0.17923118 -0.6902949 -0.7482769 -0.29881987 -0.2471126 0.17084473 1.0096382 0.25040233 -0.38042223 0.41245311 0.4055633 0.25394067 0.39197376 1.0589311 -0.25522605 0.52375376 0.6290721 -0.7902812 0.9665417 0.19182882 0.30525994 0.34660688 0.27089983
286 1.5546615 0.18804567 0.3550211 -0.21743318 0.30794898 0.325504 -0.5210034 -0.43021867 0.9040972 0.1506067 -0.6956303 -0.7529563 -0.31111977 -0.23103885 0.10704148 0.9900211 0.30546153 -0.33070543 0.3780869 0.3872039 0.23669179 0.36185643 1.0645844 -0.29141343 0.5673392 0.5856022 -0.80399096 0.9200801 0.2082481 0.346426 0.38576114 0.24785784
1823 1.4614935 0.1586374 0.32298738 -0.27548188 0.26647115 0.3779826 -0.4833887 -0.4986313 0.8853441 0.16525264 -0.70017856 -0.73860085 -0.36755285 -0.20978542 0.22260979 1.0415955 0.2831455 -0.34149572 0.35861573 0.32943887 0.25262043 0.4544502 1.0394467 -0.27419925 0.5182647 0.60369515 -0.8079308 0.96451825 0.21842946 0.33115393 0.323113 0.23109272
288 1.5273623 0.24237004 0.37078217 -0.29104233 0.2625171 0.35413674 -0.50500715 -0.4923807 0.87078965 0.12682018 -0.6634489 -0.80722666 -0.32366928 -0.22698265 0.15972252 0.9613563 0.2719464 -0.36420593 0.42618233 0.39609802 0.22755386 0.47941256 1.0729065 -0.29155877 0.56721723 0.5595628 -0.7850962 0.944824 0.20181286 0.32848203 0.41116223 0.22239698
805 1.529378 0.21048851 0.3340667 -0.252144 0.21863775 0.30054313 -0.573996 -0.5371701 0.89217246 0.12697367 -0.68671197 -0.7843457 -0.2761401 -0.2368473 0.14199826 1.0054253 0.23351626 -0.34255302 0.3826413 0.3743672 0.18985772 0.4125199 1.1430026 -0.2950785 0.5726829 0.60012 -0.8415946 0.90749943 0.26488796 0.36018047 0.37039918 0.21876962
1317 1.5320181 0.19548206 0.34986672 -0.24704152 0.31485382 0.35782665 -0.52940565 -0.54431176 0.89828575 0.15467198 -0.69490814 -0.73107016 -0.3216037 -0.20181288 0.14821436 1.0230062 0.29950163 -0.43685353 0.4101844 0.3688441 0.2158522 0.43952698 1.0935836 -0.31403524 0.5321057 0.5815822 -0.83711016 1.0260311 0.23988597 0.3757434 0.4238382 0.23813196
1319 1.5112963 0.17945553 0.32198662 -0.17002568 0.30057427 0.33943403 -0.57814544 -0.52988577 0.9198627 0.10227609 -0.70044523 -0.7440541 -0.31770396 -0.23715407 0.20381646 1.0012869 0.24045396 -0.3089987 0.39769268 0.37268865 0.2596093 0.4078535 1.1227227 -0.26118085 0.57012516 0.56553805 -0.81085527 0.92593795 0.19452488 0.36184508 0.38789216 0.18231092
816 1.4813958 0.19366428 0.33087236 -0.27724752 0.2711898 0.3385522 -0.5266416 -0.49350244 0.93435913 0.11225716 -0.672227 -0.76116574 -0.35355014 -0.18306556 0.15900117 0.9339897 0.28381136 -0.39506418 0.38880453 0.36953965 0.25349513 0.426709 1.1282004 -0.28697452 0.5015798 0.62505907 -0.7511835 0.9260154 0.20273757 0.3198716 0.3785715 0.27161875
305 1.46844 0.20166846 0.3066075 -0.22335044 0.2819363 0.36711523 -0.53297585 -0.4575436 0.9137918 0.095167235 -0.7180579 -0.7428558 -0.37332138 -0.23491813 0.17420529 1.0127527 0.24785386 -0.37461466 0.35687461 0.34902 0.27865493 0.45310286 1.0158876 -0.2923098 0.5365681 0.63613397 -0.7843106 0.9456229 0.21825267 0.30574927 0.37165526 0.21639203
308 1.4570823 0.14872648 0.3250016 -0.256049 0.26465553 0.34833297 -0.53789663 -0.43768924 0.904361 0.10900368 -0.68112737 -0.78604287 -0.38085118 -0.22449549 0.12362984 1.0266001 0.33734483 -0.35660595 0.33803886 0.36017406 0.24749029 0.4028898 1.0324146 -0.27535105 0.51877457 0.598517 -0.8280952 0.91740906 0.27903673 0.34698585 0.362834 0.29085994
823 1.5059494 0.1656873 0.36528975 -0.21042657 0.30839878 0.3293022 -0.5022592 -0.460096 0.93893445 0.13018954 -0.67209935 -0.73386914 -0.31603378 -0.20757502 0.14316304 0.9686856 0.26713344 -0.38584805 0.3689221 0.348871 0.20513326 0.3722491 1.0419827 -0.33082566 0.54458284 0.60177565 -0.80983937 0.92392665 0.22093171 0.36243406 0.3755201 0.23812266
829 1.4571278 0.2050921 0.3681389 -0.2092737 0.23298167 0.3283723 -0.5103883 -0.51964134 0.890287 0.08283817 -0.6946376 -0.75110525 -0.34564188 -0.2290846 0.10699466 0.97463447 0.22422352 -0.34522375 0.4241815 0.3427289 0.25292444 0.45016387 1.0218273 -0.3060572 0.5570502 0.565188 -0.7681143 0.89351493 0.18375783 0.33802077 0.32351983 0.21435004
1341 1.4600825 0.18572539 0.32991824 -0.19484298 0.22144805 0.3081042 -0.6136184 -0.50745547 0.9373339 0.17166081 -0.6785538 -0.7354748 -0.35308203 -0.2321143 0.1356961 0.9530668 0.31475854 -0.33862087 0.36383867 0.36748996 0.17503208 0.38962212 1.1209989 -0.271901 0.548021 0.6406162 -0.7694551 0.91069293 0.18260169 0.38641986 0.38969395 0.20623401
323 1.5412729 0.1695122 0.3884791 -0.22397444 0.22864594 0.312247 -0.5017696 -0.5153152 0.880852 0.07580982 -0.6633376 -0.7243489 -0.32039034 -0.21467976 0.11730459 0.9650885 0.22188981 -0.2973351 0.3954414 0.2874761 0.21658337 0.44398543 1.068181 -0.2810166 0.542567 0.5851765 -0.84745276 0.96777314 0.22821678 0.3288179 0.32321507 0.28161836
324 1.4883894 0.20346235 0.3038527 -0.18863718 0.3162271 0.3936422 -0.54866314 -0.5083646 0.89190495 0.11436258 -0.6926312 -0.8032046 -0.30386928 -0.24940526 0.16068202 1.0498179 0.2687083 -0.3871344 0.33907995 0.38024515 0.29012972 0.37930492 1.1139954 -0.31046063 0.5197785 0.6022579 -0.8113249 0.9030085 0.22575289 0.363915 0.3930572 0.21549346
326 1.4767634 0.21195485 0.35177994 -0.26211995 0.29883945 0.35337487 -0.5931875 -0.53514946 0.927589 0.14659135 -0.7328595 -0.77174795 -0.2845872 -0.19419216 0.16989695 1.0408603 0.29446647 -0.37939197 0.3723023 0.39000022 0.22184958 0.409829 0.9991623 -0.33961892 0.5818394 0.5742233 -0.81646043 0.8855171 0.23872936 0.3770255 0.40201896 0.2566279
343 1.5326011 0.18834479 0.35073805 -0.26999393 0.29870576 0.3582543 -0.5287723 -0.54637593 0.88196063 0.15589039 -0.6785314 -0.71591955 -0.31189108 -0.26776138 0.1355787 1.0543202 0.29868993 -0.39259365 0.37191096 0.37983143 0.25570378 0.3994089 1.1318951 -0.26542792 0.56487757 0.61719066 -0.7912013 0.9475683 0.27645978 0.36745417 0.36935365 0.17203876
1880 1.5079057 0.16477075 0.41183636 -0.2116962 0.2610182 0.3127747 -0.5187063 -0.47418016 1.0022016 0.13600726 -0.6790384 -0.7701907 -0.32662523 -0.22809888 0.1201849 1.0240777 0.23013784 -0.3792014 0.3229361 0.33393294 0.25129366 0.4629547 1.0616294 -0.28832516 0.5431201 0.59330356 -0.8564019 0.95838803 0.24808894 0.35493183 0.36535963 0.23020636
350 1.5390186 0.1920357 0.33271375 -0.19929038 0.26698697 0.32563025 -0.54874045 -0.5166469 0.9090341 0.15944052 -0.6661284 -0.73848414 -0.3370656 -0.26726162 0.0694284 0.9742767 0.3119124 -0.36896646 0.39997476 0.35248694 0.25661322 0.4104703 1.0596793 -0.24453816 0.54025 0.58324325 -0.8092331 0.9165392 0.21310975 0.34316432 0.3635479 0.2620382
863 1.4871705 0.19428313 0.3848637 -0.21811737 0.2646492 0.31877217 -0.54851943 -0.48413393 0.8809154 0.14047334 -0.68239605 -0.79001 -0.318694 -0.2090754 0.16569054 0.9729751 0.2963919 -0.3678199 0.30871487 0.33269665 0.21884607 0.39314905 1.0091174 -0.3014701 0.5032038 0.6432469 -0.78514075 0.90324533 0.20900697 0.34751254 0.38756678 0.20339052
357 1.5039208 0.22635446 0.34381443 -0.25281656 0.26004687 0.3360968 -0.5653855 -0.5660653 0.8788146 0.10489013 -0.65180737 -0.7265592 -0.33888307 -0.214301 0.14080827 1.0146049 0.27260426 -0.36944613 0.41880146 0.38402063 0.27955213 0.4225491 1.0016228 -0.26571772 0.5271935 0.640153 -0.7999327 0.8859648 0.25544336 0.3172457 0.31970453 0.23643704
1893 1.4876032 0.19001669 0.3877135 -0.282764 0.2392854 0.29105392 -0.55686957 -0.5583379 0.87893283 0.18716504 -0.6690182 -0.78253245 -0.33316776 -0.18311942 0.14085512 1.0257552 0.30720553 -0.3908739 0.32361153 0.35865098 0.22001351 0.47074506 1.0844189 -0.2751553 0.53954935 0.61130947 -0.8596375 0.9360053 0.21576558 0.41283378 0.3057129 0.28474468
1895 1.4945683 0.18245327 0.358184 -0.19473933 0.29253352 0.36287215 -0.59429044 -0.5671182 0.90198004 0.10231081 -0.67549044 -0.75589824 -0.32584095 -0.26942578 0.20833021 1.0382203 0.2763056 -0.40866354 0.40814552 0.3472063 0.21877176 0.40078557 1.0925986 -0.31797305 0.53552306 0.5603084 -0.81056505 0.9129284 0.19737619 0.33572963 0.3564661 0.25527042
1899 1.4738472 0.17675081 0.30888999 -0.27081397 0.23473531 0.32808995 -0.5966302 -0.5743818 0.9111416 0.20262882 -0.68725747 -0.78267485 -0.3433358 -0.27969837 0.19963996 1.0009407 0.26840195 -0.35850993 0.3974635 0.37194648 0.20664312 0.465693 1.0688609 -0.27212396 0.4946122 0.60583544 -0.8103054 0.96854794 0.18012658 0.39422438 0.366501 0.25151235
1398 1.4679219 0.18112193 0.36294907 -0.25395775 0.2548071 0.36856288 -0.55866563 -0.5088515 0.8941473 0.12459922 -0.66725564 -0.7207957 -0.2973181 -0.20309336 0.13013633 0.9767532 0.33135295 -0.35903206 0.3740655 0.36706412 0.23764716 0.34375897 1.0603642 -0.30595896 0.5290352 0.6162659 -0.77787507 0.95380354 0.2484237 0.3800757 0.3429128 0.202718
377 1.5024422 0.16864222 0.3294238 -0.18175533 0.26481298 0.32077947 -0.5173496 -0.5503548 0.90263647 0.09169441 -0.6635671 -0.7374284 -0.34796712 -0.15440996 0.20271115 1.0761003 0.2930934 -0.36246848 0.39497712 0.42004532 0.24664328 0.4178245 1.0501847 -0.30676532 0.52148896 0.5956704 -0.7763882 0.92744917 0.20790394 0.33580437 0.3711269 0.24862939
890 1.512706 0.2193744 0.3637393 -0.23578982 0.23594339 0.37031496 -0.59025615 -0.48261064 0.9323612 0.15165941 -0.66357386 -0.7932941 -0.32615337 -0.2257437 0.15604056 1.0445476 0.27356103 -0.35145578 0.3833855 0.36739692 0.2763817 0.40289855 1.0959905 -0.26983196 0.548976 0.61804366 -0.81519973 0.9598729 0.20784095 0.34249243 0.3631921 0.23684968
380 1.5426606 0.23919791 0.35916632 -0.24650271 0.32277974 0.32120878 -0.51535 -0.50481164 0.92559224 0.13143142 -0.6497276 -0.7389936 -0.33312532 -0.21249448 0.19208176 0.98770636 0.2632479 -0.3460244 0.41278785 0.33222687 0.2349929 0.4113161 1.1226321 -0.2793292 0.54306406 0.5944509 -0.83824885 0.9307401 0.23848684 0.33767006 0.3322132 0.2964174
1920 1.489413 0.18308954 0.29995525 -0.23284772 0.2689291 0.37860957 -0.5423183 -0.52972853 0.9066947 0.1038956 -0.6380919 -0.73647654 -0.30692035 -0.20937413 0.18457527 1.0349646 0.24979578 -0.3566571 0.40089384 0.4043743 0.20651612 0.48416364 1.0451869 -0.36328572 0.5486536 0.59346145 -0.848112 0.9112627 0.24325287 0.32845795 0.34643912 0.28721488
385 1.5734742 0.225417 0.38144672 -0.23385899 0.2464739 0.35526964 -0.5528019 -0.5429641 0.93931603 0.1448756 -0.6789166 -0.7784656 -0.30162707 -0.23729521 0.19614336 1.0774071 0.24642105 -0.40633342 0.29810905 0.3531994 0.24026455 0.40214893 1.064046 -0.30360213 0.56036496 0.63580954 -0.846453 0.97485715 0.21733491 0.35156134 0.37565 0.2564105
1417 1.4700699 0.22557041 0.35280982 -0.21668567 0.29962075 0.35791212 -0.53985614 -0.47563407 0.8381353 0.116336055 -0.6850786 -0.76697314 -0.31458655 -0.2008508 0.14827527 1.0096426 0.2568865 -0.36829317 0.3425275 0.32865092 0.29655498 0.43402112 1.0697399 -0.3221745 0.4865662 0.5696029 -0.7998577 0.9733309 0.20226727 0.3249686 0.3719347 0.22390676
399 1.5179539 0.16076462 0.34598464 -0.26103422 0.2811789 0.35847092 -0.5692687 -0.49546602 0.8922163 0.14130583 -0.69483167 -0.7374586 -0.36883068 -0.25268456 0.11989946 1.0002427 0.27240404 -0.390893 0.397311 0.33753565 0.25439653 0.3789133 1.0043991 -0.30022448 0.5178997 0.5788423 -0.832542 0.9227336 0.25756913 0.3230736 0.35650647 0.21600981
1935 1.4641086 0.1871199 0.34742308 -0.17215623 0.24790004 0.30747366 -0.51201326 -0.531385 0.9245407 0.12585592 -0.682135 -0.7453138 -0.3261726 -0.20044945 0.12789042 1.045756 0.27159402 -0.35000843 0.34630388 0.35766414 0.30851713 0.38275126 1.056221 -0.26253366 0.528096 0.621544 -0.8327739 0.93899786 0.24355505 0.3838698 0.3801441 0.2043046
1936 1.5013304 0.20881832 0.38644588 -0.23181738 0.27057958 0.32303458 -0.5244602 -0.57030743 0.9017263 0.13916704 -0.7186633 -0.804699 -0.33215672 -0.1721049 0.16352494 1.0245738 0.2867879 -0.37078744 0.41374597 0.35368901 0.2289858 0.42934978 1.0143646 -0.27584392 0.5098062 0.55571085 -0.7783016 0.92176557 0.24333893 0.31170303 0.35869023 0.22635885
1938 1.4700103 0.18681164 0.35540447 -0.22245339 0.3108957 0.30752113 -0.49529287 -0.47125575 0.9623246 0.10078738 -0.68154526 -0.72546446 -0.30216536 -0.21996184 0.118055336 1.0571427 0.30473393 -0.37528387 0.37884265 0.36780104 0.23486535 0.42025688 1.0112878 -0.2791799 0.5149719 0.6258454 -0.7522058 0.8999549 0.20733249 0.3297657 0.30179447 0.29005533
1943 1.4794452 0.16433659 0.3204295 -0.2648103 0.2829884 0.3049848 -0.5636924 -0.48175976 0.9325232 0.15846072 -0.65715337 -0.7802447 -0.32698852 -0.14958507 0.19038282 1.0483421 0.25748926 -0.39471292 0.40684158 0.39586756 0.17828661 0.42014202 1.0369806 -0.3094986 0.6076605 0.5880817 -0.81887376 0.8956552 0.25565836 0.326213 0.31172422 0.24653912
1951 1.4871427 0.2173782 0.3584266 -0.28606617 0.26668108 0.29903218 -0.51783764 -0.50701714 0.94109994 0.06645274 -0.68139124 -0.7619303 -0.3446679 -0.20242466 0.12972085 0.9996522 0.2938808 -0.35621342 0.36086026 0.36171642 0.17034422 0.46597257 1.049139 -0.30338407 0.53026533 0.5841378 -0.7973571 0.895402 0.1815212 0.36019263 0.3203417 0.25121713
1957 1.4875854 0.18880528 0.400921 -0.25841206 0.29351148 0.35080916 -0.54407626 -0.48460034 1.0097798 0.08685222 -0.6820158 -0.77709603 -0.3181301 -0.17594726 0.19536734 1.0534407 0.26746193 -0.40142038 0.35170975 0.39618784 0.1838056 0.4182968 1.048367 -0.30592117 0.5575559 0.6027751 -0.8215526 0.925402 0.25389564 0.34221065 0.37463623 0.25498098
1958 1.5077477 0.23402527 0.37586313 -0.2218687 0.29388732 0.36729202 -0.5503538 -0.5107539 0.90594876 0.15446581 -0.6564238 -0.7475887 -0.3092308 -0.21001896 0.18860158 1.0242265 0.28969213 -0.3721717 0.4110074 0.36362252 0.22678371 0.43450725 1.1002756 -0.29456392 0.4889514 0.56525 -0.7673666 0.9199438 0.17232147 0.32618842 0.3945173 0.24208799
1447 1.5209098 0.13636447 0.35450175 -0.22917917 0.28556535 0.35064563 -0.56329936 -0.4702451 0.88965946 0.14303687 -0.6649063 -0.7560805 -0.30752444 -0.24031177 0.11982433 1.0101323 0.34246084 -0.37699017 0.360114 0.38270867 0.21310408 0.42877215 1.0923226 -0.31296378 0.4985242 0.61993676 -0.7845235 0.9154602 0.20364872 0.33158454 0.39412874 0.23057416
1465 1.4894518 0.18418856 0.3420974 -0.21556854 0.24208802 0.29888085 -0.5784882 -0.55952406 0.88098586 0.10050816 -0.66507775 -0.72010654 -0.37924656 -0.17501591 0.15020873 1.0102638 0.28870645 -0.39813673 0.37869903 0.34871396 0.23728845 0.4423875 1.1115395 -0.27517536 0.5293152 0.57257515 -0.80106795 0.90783614 0.19301532 0.359283 0.34936723 0.26024714
1978 1.503799 0.19125292 0.35060084 -0.26302826 0.31979856 0.3587444 -0.5942996 -0.51447254 0.8876191 0.15540296 -0.68887836 -0.7667412 -0.31798825 -0.2519893 0.13362318 0.99411684 0.28284755 -0.34696293 0.36732107 0.31864095 0.26639357 0.39993474 1.1071857 -0.30554673 0.5281774 0.53583425 -0.7989162 0.9091738 0.18299022 0.3070801 0.36573315 0.26536608
960 1.5424523 0.17581211 0.3939533 -0.27682957 0.2357341 0.3242378 -0.58651906 -0.49003467 0.977226 0.11575009 -0.6931082 -0.75296026 -0.34897047 -0.19372728 0.19277084 1.0145097 0.25194922 -0.3915318 0.39852563 0.3724627 0.29960522 0.41895616 1.0599074 -0.27409092 0.55998224 0.6087732 -0.7832384 0.9354008 0.26818505 0.3437095 0.38337868 0.21737017
1472 1.5410029 0.24990255 0.38112366 -0.21755522 0.31093073 0.28641573 -0.6169982 -0.5131796 0.9141796 0.13587354 -0.70518875 -0.7699319 -0.3124109 -0.26829207 0.15510885 0.99329144 0.27588862 -0.39549628 0.3572822 0.35694245 0.24551776 0.41954702 1.1298298 -0.3153733 0.54185337 0.63706046 -0.82721543 0.937942 0.31316438 0.3886927 0.32780668 0.23654789
465 1.5016701 0.22021419 0.37791988 -0.24979392 0.2618076 0.41563705 -0.51121527 -0.48281595 0.92731816 0.13355693 -0.68463975 -0.7406647 -0.28871194 -0.1930316 0.13998397 1.0615512 0.29544824 -0.3736134 0.36853147 0.40997455 0.1796373 0.44470498 1.0636967 -0.2763567 0.5851162 0.62686145 -0.80206555 0.93948835 0.2191726 0.3116673 0.3630166 0.2074785
1490 1.5342786 0.20472932 0.30193675 -0.23622982 0.20592014 0.3416786 -0.5400151 -0.5165317 0.90471 0.120765515 -0.7405169 -0.7785854 -0.35839796 -0.17094164 0.13959861 1.0200237 0.3161551 -0.3911671 0.40574133 0.4107501 0.20282423 0.42975402 1.0472956 -0.3130539 0.55582035 0.5735715 -0.8215117 0.9292129 0.23739569 0.30315953 0.3236435 0.24945834
1492 1.4939957 0.21965577 0.3621433 -0.23330632 0.23993097 0.31179374 -0.4934292 -0.4799047 0.9171622 0.07096905 -0.6416846 -0.7416031 -0.34845755 -0.17361057 0.1236112 0.9945509 0.38091293 -0.3600001 0.38427284 0.381044 0.20429681 0.40916133 1.0231581 -0.37592527 0.51972944 0.6324661 -0.7978127 0.9027902 0.21757203 0.31896034 0.31839743 0.32924733
469 1.5813744 0.1533375 0.3319929 -0.23455164 0.24205022 0.34885636 -0.55369073 -0.49974763 0.9179569 0.12457619 -0.665315 -0.7690659 -0.33971065 -0.19075316 0.17097656 0.98655385 0.2927456 -0.39700437 0.36826319 0.34112036 0.23089197 0.39480597 1.0569834 -0.3046005 0.57840735 0.5456686 -0.8197074 0.92767614 0.17967507 0.30011255 0.34973115 0.30919394
472 1.4759203 0.19587138 0.33612806 -0.20170265 0.21639387 0.3518864 -0.51639926 -0.41178963 0.93999255 0.120917 -0.68273944 -0.7305025 -0.31540903 -0.20363246 0.16110225 1.061198 0.24205606 -0.39782763 0.33198395 0.38365048 0.22669424 0.42780203 1.0567455 -0.33930188 0.59130937 0.6045295 -0.809514 0.8929871 0.2729171 0.32237232 0.38087672 0.24419259
475 1.5687132 0.21620522 0.35348448 -0.23780578 0.239569 0.3647319 -0.5259909 -0.4653523 0.94968826 0.1286023 -0.65636224 -0.7612761 -0.3595195 -0.2535609 0.17102917 0.9719307 0.30911756 -0.3311453 0.33574682 0.37230185 0.26265422 0.45776537 1.0590918 -0.3147678 0.5666088 0.5713321 -0.81071824 0.9658804 0.22520386 0.37118706 0.3684601 0.27327985
988 1.5256287 0.24839757 0.3838419 -0.22079782 0.3083499 0.3648723 -0.5760623 -0.5590619 0.9204519 0.119189225 -0.7198375 -0.69413126 -0.2917763 -0.22672485 0.15431896 1.0546654 0.28542784 -0.35282636 0.31365675 0.35429773 0.2517409 0.45081607 1.1339777 -0.31508696 0.60241324 0.59851134 -0.86023974 0.9659756 0.22949031 0.311933 0.36359975 0.2718067
989 1.5227234 0.21416986 0.33522704 -0.25772777 0.2531847 0.36878908 -0.5356825 -0.4851192 0.87617254 0.16006355 -0.6609802 -0.7522453 -0.31208926 -0.22717768 0.23918428 1.0333345 0.24564643 -0.3596038 0.3935178 0.35372746 0.2695841 0.49698624 1.0229309 -0.27164882 0.5695547 0.62386906 -0.81986105 0.91097337 0.24784115 0.31898567 0.37091663 0.19627745
998 1.4841218 0.2565379 0.29721314 -0.22911364 0.30363396 0.39253044 -0.59352744 -0.52479506 0.9133635 0.17347918 -0.64677304 -0.7254324 -0.31946957 -0.25386775 0.1609189 1.0359088 0.27607033 -0.32453877 0.39052746 0.36284417 0.18959704 0.3940944 1.0730301 -0.30930418 0.51581955 0.59243214 -0.8254874 0.94105285 0.24474566 0.35539448 0.35087743 0.22626401
1510 1.4998977 0.17666759 0.31224725 -0.24228847 0.3174378 0.3269702 -0.53860843 -0.48315313 0.8743207 0.0625977 -0.6845394 -0.7482453 -0.37334523 -0.22831132 0.1267688 0.9709591 0.30907625 -0.3526439 0.42837363 0.35608187 0.21869725 0.4242259 1.0594461 -0.2930049 0.5423775 0.591043 -0.7961887 0.91820335 0.25585157 0.37560615 0.3771067 0.24555434
2022 1.4784445 0.16850393 0.34075135 -0.23370416 0.20960096 0.3094752 -0.5422133 -0.5097989 0.9158518 0.09582221 -0.64815056 -0.7398507 -0.33201522 -0.16100621 0.15984976 1.0177473 0.296035 -0.34865117 0.37461007 0.34339425 0.22162709 0.38940525 1.0236908 -0.32071483 0.5118189 0.58528656 -0.79665035 0.93069744 0.26904815 0.3673555 0.3030816 0.20948109
492 1.5026137 0.1831242 0.33563823 -0.30018193 0.3081524 0.3430575 -0.548927 -0.48876473 0.9026577 0.10297269 -0.6681727 -0.7418002 -0.36446753 -0.16861886 0.12952372 1.0418934 0.28447723 -0.38957527 0.39056876 0.39267692 0.2557971 0.43200922 1.0599025 -0.26128802 0.49954593 0.6208334 -0.7856168 0.9547718 0.22637191 0.31847182 0.33292228 0.22069
1522 1.4806716 0.23015594 0.2870964 -0.25345516 0.2697318 0.35033965 -0.59871674 -0.50804216 0.898142 0.104193754 -0.6380908 -0.75283796 -0.34594768 -0.20985442 0.21089186 1.0269951 0.31652677 -0.39424548 0.36939508 0.35564518 0.25053126 0.45065787 1.0275606 -0.32850772 0.5220764 0.5970997 -0.7871231 0.9138728 0.22637065 0.33058947 0.36820802 0.23956287
507 1.5054848 0.25705656 0.37763035 -0.2455664 0.2502342 0.33555847 -0.50657374 -0.50399894 0.9213424 0.1456828 -0.6135162 -0.70672894 -0.3164905 -0.20928411 0.120491035 1.0359548 0.26026496 -0.35670897 0.3593059 0.3729897 0.22321199 0.45828998 1.0615917 -0.2692569 0.5200097 0.5995657 -0.79909724 0.97089577 0.16530389 0.2764779 0.37009612 0.23732366
1531 1.5398041 0.23471236 0.33459702 -0.24266756 0.23499 0.35299766 -0.5446551 -0.49490947 0.8796735 0.1413204 -0.6313072 -0.7583674 -0.32185918 -0.20898673 0.17845069 1.0548288 0.30152184 -0.32125244 0.33437103 0.37824053 0.29799926 0.42740956 1.0052092 -0.30286577 0.5703503 0.60239244 -0.7909891 0.97790384 0.1783202 0.34584376 0.36586842 0.2431343
2044 1.5008885 0.23096496 0.36239183 -0.25828755 0.28630486 0.3431352 -0.5111306 -0.4841686 0.930943 0.13773255 -0.6642642 -0.7455455 -0.34112743 -0.21527977 0.15397461 0.99356115 0.2653936 -0.35393 0.3608608 0.3725907 0.2446719 0.40250817 1.0995736 -0.25166816 0.5512103 0.56258124 -0.8425955 0.90041393 0.22161724 0.30523872 0.3687681 0.2545139
2 2.0170162 -0.4609783 1.0078173 1.5142437 1.0783892 -1.3337613 -0.5366611 -1.4001955 -0.3903101 -0.0007344852 2.6360557 -0.9018789 -2.8025143 -0.951819 -1.4970218 0.56958467 1.3307159 0.12970716 -0.50244385 0.9109768 -0.63974 1.4718434 -2.4052496 0.01709745 0.38155562 -0.5567593 -0.4447097 -0.3013851 0.7735258 0.4887076 0.8606446 1.5097142
572 2.0581188 -0.50898194 1.230634 1.5517886 1.1390698 -1.1754917 -0.54778785 -1.4495046 -0.3190914 0.1902521 2.6807995 -0.9948574 -2.8859334 -0.9291135 -1.4436369 0.50311315 1.2589538 0.12475272 -0.46793547 0.99652797 -0.56573725 1.4706714 -2.4359756 -0.101753466 0.26880127 -0.47853178 -0.3039855 -0.455726 0.82830924 0.46867618 0.61169475 1.535357
3 -0.21365212 0.46719715 1.7913629 -0.34046596 -0.816092 0.71306366 -0.1031159 -0.871222 -1.120169 0.21026364 0.22113179 0.31499904 -1.7202818 -1.5009925 1.4902136 0.005995869 1.9098845 0.060725827 0.664462 1.1750679 0.19251639 0.50441235 0.75841516 0.93712515 0.035393476 -0.3340478 -0.20067626 1.5922437 1.9351577 -0.28779596 0.56115246 -0.015418555
866 -0.2075825 0.37899008 1.8704638 -0.20844701 -0.86102945 0.76155126 -0.11463287 -0.60477763 -0.9372 0.119169496 0.1348726 0.36904457 -1.8575492 -1.4111149 1.462303 -0.14284338 2.1646938 -0.1720749 0.73536336 1.131965 0.21223672 0.64336 0.7720191 0.915623 0.00050732767 -0.2334035 -0.046002798 1.5414149 1.8641626 -0.24291877 0.33800656 0.0014804129
1506 -0.16833124 0.50043863 1.6868204 -0.26091656 -0.79722667 0.7169531 -0.20247072 -0.83358335 -1.1476349 0.18395174 0.097640604 0.3825074 -1.8454956 -1.4367045 1.5380578 -0.111064345 2.1040928 -0.055087667 0.68990475 1.1714076 0.2936254 0.61976784 0.7155114 0.97508574 -0.0040317317 -0.3565229 -0.20926605 1.5917171 1.9416152 -0.18604837 0.48783693 -0.23372467
1764 -0.27611485 0.43265915 1.6485643 -0.27200326 -0.83317816 0.7042006 -0.19963104 -0.89130276 -1.0947698 0.23754483 0.14590903 0.32931328 -1.8205146 -1.4885423 1.5526594 -0.093668595 2.0601292 0.03683315 0.68157196 1.1427784 0.13503297 0.46127173 0.77202713 0.97202456 -0.035904683 -0.30086 -0.21102805 1.5865238 1.9623209 -0.20986436 0.5166424 -0.13862443
1383 -0.26014382 0.48177823 1.7752782 -0.3190404 -0.8476447 0.6904401 -0.08147164 -0.7079699 -1.0246866 0.14026335 0.14672957 0.42926684 -1.7728883 -1.3789426 1.4535437 -0.05352348 2.183176 -0.01642784 0.73665863 1.0657392 0.159291 0.5450681 0.69440717 0.7911974 0.08048039 -0.26928046 -0.15349485 1.564411 1.9281291 -0.26922685 0.31677946 0.06924146
1544 -0.28173986 0.34642908 1.842732 -0.4330607 -0.8824264 0.6733122 -0.09021335 -0.73176706 -1.0452967 0.1132697 0.1631544 0.39790854 -1.966243 -1.452206 1.4447913 -0.1430019 2.1037161 -0.08235499 0.7555467 1.0990657 0.049289607 0.5860349 0.7045021 0.85903716 -0.105256684 -0.31342992 -0.09704285 1.5703189 1.9723889 -0.23648281 0.37889498 0.038298395
2024 -0.27203655 0.40841797 1.7940011 -0.28795424 -0.8376226 0.64734787 -0.081277855 -0.7091609 -1.0911456 0.04354976 0.2096382 0.3792011 -1.8319972 -1.4364815 1.3461449 -0.07059388 2.1653647 -0.057595946 0.7373979 1.0880378 0.07881989 0.65479094 0.7737229 0.86332214 0.04605105 -0.2961518 -0.080904186 1.5640272 1.870236 -0.2919055 0.47336507 -0.03451789
1070 -0.24587978 0.4847808 1.7991513 -0.34998658 -0.84574723 0.7333352 -0.15559156 -0.7608409 -1.2113519 0.09459803 0.19260806 0.38944575 -1.8095508 -1.4559274 1.5079082 -0.020708904 2.0216894 0.0149437105 0.83991253 1.1423985 0.1984377 0.5512946 0.7449816 0.96503705 0.045672987 -0.34505084 -0.10380747 1.5461985 1.8655059 -0.21391173 0.4378585 -0.13574149
2030 -0.16716698 0.5131906 1.849178 -0.33321813 -0.86518013 0.7603106 -0.19656323 -0.95283574 -1.2177579 0.1499419 0.21590444 0.2874527 -1.7782949 -1.4527303 1.4010617 -0.16580781 2.0261612 -0.040339127 0.67605513 0.9732129 0.21202034 0.5859852 0.7748667 0.91707456 0.08657753 -0.2983317 -0.20668112 1.6033052 2.0178373 -0.1711196 0.59011346 -0.16109294
48 -0.22708489 0.35129592 1.796205 -0.42021337 -0.88352615 0.6599424 -0.08719132 -0.65815395 -0.88996553 0.14611122 0.17540756 0.39864966 -1.8560495 -1.4438777 1.5003415 -0.15987958 2.1001942 -0.11081063 0.72110474 1.1827617 0.037125226 0.48682448 0.7443333 0.8490186 -0.06975284 -0.23791762 -0.08527388 1.4960002 1.95378 -0.30920845 0.3427477 0.010055218
1073 -0.24364391 0.5108685 1.8476331 -0.28917095 -0.8940155 0.81298226 -0.16499522 -0.8238792 -1.1240723 0.13585886 0.083542205 0.35178953 -1.7415907 -1.4488484 1.4647772 -0.05503911 2.0161235 -0.10788124 0.80365455 1.1065137 0.16097133 0.63323987 0.7990176 0.9952658 0.019601746 -0.28546974 -0.13111164 1.6400739 1.8606192 -0.2730881 0.5121511 -0.18971717
2032 -0.21578878 0.3871203 1.7203882 -0.22008578 -0.8544813 0.7969235 -0.18584639 -0.84742165 -1.148946 0.04873214 0.23745827 0.29813224 -1.8425539 -1.4652071 1.4631715 -0.07635845 2.0486186 0.010742686 0.8900357 1.1356112 0.2713854 0.5469892 0.7002812 0.9340131 0.00083199475 -0.38344225 -0.11311714 1.6643412 1.8416585 -0.2700716 0.55276394 -0.07936164
2163 -0.20558625 0.5537381 1.796192 -0.29765102 -0.87049216 0.7378896 -0.13141862 -0.82789433 -1.085335 0.19423103 0.085174665 0.42003557 -1.7860137 -1.4474944 1.4315938 -0.09373375 2.0907123 0.06323052 0.7796593 1.1194005 0.2143631 0.48429585 0.76120085 0.9211749 -0.006650131 -0.32693058 -0.15424754 1.6523218 1.9582483 -0.28467098 0.405953 -0.15711835
1076 -0.21670148 0.53184474 1.7436833 -0.29812485 -0.9300594 0.73720276 -0.17415054 -0.8133539 -1.0834898 0.13290444 0.2294541 0.39423144 -1.8819339 -1.4395496 1.5547314 0.0077562253 1.9977949 -0.12459783 0.8575452 1.1548369 0.12196732 0.5118837 0.7108593 0.9967157 0.007996627 -0.32459784 -0.17514381 1.6552699 1.8927796 -0.25190425 0.51016665 -0.097719595
2254 -0.27398404 0.33080232 1.928826 -0.3247523 -0.89616084 0.7359003 -0.01782594 -0.709774 -0.9675817 0.043292485 0.17464066 0.28315783 -1.871118 -1.3431513 1.3874562 -0.085279815 2.118572 -0.055526227 0.7427909 1.0425286 0.12968452 0.5942802 0.7457466 0.8417381 0.03977021 -0.34114656 -0.112266816 1.6420057 2.015897 -0.21076246 0.3499298 0.04119262
2299 -0.3164109 0.47355753 1.8754255 -0.2991481 -0.8275774 0.70424795 0.05267559 -0.70429844 -1.0290562 0.009504154 0.19979323 0.34115723 -1.9415944 -1.465116 1.4300702 -0.029745745 2.2130642 -0.015373119 0.73719275 1.1019219 0.14364365 0.6309307 0.6708074 0.90443915 -0.05161596 -0.37897155 -0.05272314 1.5699272 1.974664 -0.260514 0.30947623 0.02324399
636 -0.28348392 0.4170686 1.7579015 -0.35562 -0.83768255 0.7764715 -0.17169815 -0.7693597 -1.1321543 0.1091637 0.18461652 0.41608286 -1.8456626 -1.4238507 1.4823251 0.02888735 2.035584 -0.0016726613 0.87385654 1.1201458 0.28353018 0.49752516 0.5698145 0.973127 0.101932846 -0.36880097 -0.14170513 1.6566162 1.8370317 -0.3257909 0.5440142 -0.1345275
1755 -0.2907762 0.52901715 1.7663423 -0.3119717 -0.8066965 0.69524914 -0.11874009 -0.7397506 -1.1194993 0.27265373 0.17385373 0.34432048 -1.8157427 -1.4074987 1.4860873 0.0049824007 1.9619763 0.017168442 0.7784482 1.1628693 0.20169535 0.48078087 0.7778878 0.95123047 -0.0034954478 -0.35714054 -0.16891657 1.6168625 1.9484879 -0.2945313 0.41255677 -0.15281118
4 -0.38513 0.6772604 1.2889142 -0.52522856 -0.6257084 0.28372833 -0.38713515 -2.1632378 0.48306623 0.03728182 0.21599537 0.32662487 -2.104724 -1.3627917 -0.2682982 -0.9719051 -0.04145591 -0.9198108 1.048675 0.28193662 0.03394414 -2.0863445 0.8494732 0.27727512 0.5241055 -0.83889496 -1.8686266 0.26689464 0.40850425 0.45703924 0.62635773 -0.7267443
1090 -0.41440943 0.73720366 1.397362 -0.52204406 -0.6140369 0.22399928 -0.39188892 -1.9539182 0.6130018 -0.06399331 0.15680805 0.40191823 -2.1718102 -1.2566215 -0.26084948 -0.89336836 -0.053284995 -1.0061129 1.1753138 0.347473 0.040231016 -1.9386821 0.91716 0.27938065 0.46040854 -0.7879583 -1.7412574 0.21216741 0.32614088 0.4594329 0.6410855 -0.78138065
1827 -0.42146525 0.6166655 1.3332552 -0.574944 -0.639433 0.19833475 -0.40690032 -2.0069933 0.59919155 -0.0985529 0.13830236 0.30903614 -2.1801417 -1.2365453 -0.32356086 -0.80823696 -0.039578293 -1.039136 1.1256461 0.22112313 0.11077423 -1.9840411 0.8447926 0.32418352 0.46144012 -0.74160093 -1.8907135 0.16210303 0.3318719 0.55490375 0.56365836 -0.7626235
1096 -0.4677581 0.6804374 1.3465521 -0.47434196 -0.7061182 0.17612949 -0.40317932 -1.9718628 0.5253913 0.030653946 0.1684423 0.3483227 -2.2207272 -1.1799152 -0.33805847 -0.95750874 -0.10499057 -0.96814233 1.2229205 0.2607624 0.07273183 -2.0082605 0.87545633 0.32596296 0.48922995 -0.8089422 -1.8952061 0.24358658 0.3188344 0.603955 0.55099666 -0.7649825
1480 -0.42003974 0.6142139 1.3136083 -0.48517 -0.51913416 0.22250673 -0.3314383 -2.0032597 0.62971234 -0.08581174 0.16306715 0.31493685 -2.2065806 -1.2089014 -0.3279811 -0.9431337 -0.03290139 -0.978304 1.1902426 0.32148457 0.09268456 -1.9196619 0.9301826 0.3692054 0.5206391 -0.911152 -1.8271339 0.23088726 0.2470041 0.54486185 0.7087775 -0.84234434
1066 -0.49025807 0.5538668 1.4357903 -0.5373486 -0.65953434 0.21368164 -0.25125235 -1.9199693 0.70236623 -0.13034481 0.19377325 0.36145222 -2.308955 -1.1641533 -0.47397122 -0.8862652 0.0028397143 -1.1087314 1.121108 0.25633228 0.015545703 -1.9421476 0.8269499 0.4002711 0.50444317 -0.7682614 -1.8828337 0.16097566 0.22667858 0.50368834 0.6584323 -0.73012656
1513 -0.462636 0.63440514 1.3709846 -0.50411004 -0.59840995 0.24986865 -0.2873545 -1.8861612 0.8605905 -0.053101227 0.21894707 0.32394123 -2.2986472 -1.3206669 -0.41327485 -0.89026445 -0.040445887 -1.0328903 1.1444215 0.22396518 -0.104125455 -1.9834528 0.84068316 0.3180127 0.38900828 -0.7818632 -1.8267137 0.117246926 0.3478041 0.5824286 0.64265007 -0.61400145
1885 -0.4528901 0.5907388 1.3827467 -0.35097176 -0.763502 0.29827002 -0.36590266 -1.9278576 0.5930317 -0.11930316 0.20232439 0.3486743 -2.2900047 -1.1995099 -0.30709392 -0.83434474 0.07531605 -1.0247488 1.2967715 0.2602417 0.07975701 -1.9989455 0.8295952 0.41510743 0.45875564 -0.8235085 -1.8177882 0.21048646 0.22741956 0.4873997 0.69743115 -0.7962616
397 -0.46675992 0.5057765 1.4583198 -0.56250435 -0.5931322 0.12221 -0.22290745 -1.8803748 0.78692096 -0.023956193 0.18203743 0.38721555 -2.2288074 -1.1378261 -0.5199375 -0.880335 0.06121973 -1.0960348 1.1207066 0.32120088 -0.0075908685 -2.1813452 0.8503819 0.39314458 0.51013803 -0.8283115 -1.8266678 0.22721563 0.37374124 0.59970915 0.6043712 -0.6418704
1326 -0.47392172 0.58905715 1.4301564 -0.53367627 -0.5955227 0.17953882 -0.26894826 -1.7974699 0.71481353 -0.022218673 0.23493786 0.34414124 -2.291592 -1.1778036 -0.35332957 -0.89478546 0.08631474 -1.0737275 1.1712295 0.25615516 0.060699947 -2.0221527 0.83683467 0.19043711 0.44900864 -0.7906447 -1.7815306 0.17384605 0.3005167 0.59447247 0.5934576 -0.6643598
1039 -0.47627065 0.69679815 1.3303083 -0.5432763 -0.6239839 0.22484155 -0.44085246 -2.1565034 0.682174 0.09351025 0.2768279 0.2784054 -2.1375146 -1.2935071 -0.2397879 -0.81433433 -0.052072797 -0.94710493 1.0530324 0.1274069 -0.0625726 -1.9731518 0.936011 0.29841915 0.50658774 -0.7361046 -1.8198658 0.18712167 0.32113042 0.44030812 0.61141324 -0.72255063
236 -0.4989338 0.73374933 1.3514401 -0.49663633 -0.74238855 0.24549422 -0.2485794 -1.9956529 0.5978687 0.0030637213 0.21409671 0.288882 -2.1602843 -1.1818573 -0.40715802 -0.84675014 -0.033305936 -0.9803115 1.2187037 0.2843455 0.12137543 -1.9401693 1.0221605 0.38609058 0.46489945 -0.7063877 -1.7767762 0.19264156 0.24585485 0.5365657 0.66185635 -0.73366857
109 -0.48303503 0.60797745 1.4249692 -0.5316043 -0.55874014 0.12650827 -0.3028502 -1.7303917 0.91678107 -0.0054501635 0.17612246 0.36993533 -2.298113 -1.1677746 -0.43556 -1.0099392 0.05614353 -1.0200486 0.9733797 0.33683935 -0.14349587 -2.0610986 0.83483505 0.23109476 0.53709286 -0.81068456 -1.8827989 0.2682765 0.23771316 0.5366773 0.47568655 -0.6424257
1775 -0.5368136 0.7513703 1.3758479 -0.43549103 -0.63631546 0.23566706 -0.2599946 -1.9794395 0.6192655 -0.03025747 0.21853322 0.3608709 -2.2152946 -1.1902564 -0.3138407 -0.83878577 -0.08651946 -0.9214657 1.1896328 0.2656178 0.11674232 -2.097481 0.9503924 0.277305 0.42473242 -0.7804961 -1.9108951 0.28672454 0.31717697 0.58387816 0.63540506 -0.7369742
1015 -0.37920985 0.712612 1.2627423 -0.5457392 -0.5999038 0.23150702 -0.40524402 -2.0615358 0.619974 -0.011065585 0.18623316 0.3911518 -2.2557132 -1.2293208 -0.32343483 -0.8295673 -0.010895138 -1.0271322 1.2182624 0.24803695 0.10103895 -2.0914752 0.9043682 0.28526038 0.35438463 -0.77313465 -1.6588312 0.23342875 0.3923402 0.48332733 0.6087373 -0.6576184
1847 -0.4271245 0.59630346 1.400193 -0.53959966 -0.6317428 0.13640563 -0.22620474 -1.8389109 0.7316252 -0.07445386 0.15618241 0.41788438 -2.2641175 -1.1343838 -0.51722705 -0.8278171 0.07351307 -1.0713159 1.1849718 0.295321 0.111571655 -2.047325 0.90121734 0.31113175 0.5315374 -0.6716437 -1.8627967 0.17727225 0.29353976 0.5690224 0.62542367 -0.6783307
2205 -0.4467319 0.5578712 1.452191 -0.52451485 -0.6622004 0.34902683 -0.37717474 -2.0518718 0.5944538 -0.17837973 0.16824768 0.3301805 -2.294285 -1.1646992 -0.40017784 -0.8302699 0.039562553 -0.95148903 1.2543038 0.2503663 0.035924815 -1.9911832 0.7919316 0.2872091 0.40742323 -0.8944384 -1.8586259 0.14544465 0.31329632 0.4775247 0.7146643 -0.7339394
2175 -0.5217007 0.6515805 1.3527075 -0.5440656 -0.61897653 0.22652574 -0.33778086 -2.0652149 0.66837233 0.010944583 0.14500171 0.42515227 -2.2499716 -1.2067349 -0.4007445 -0.8495147 0.045539446 -1.0175829 1.1822901 0.23099391 0.05009293 -2.0135894 0.96286297 0.25223994 0.41695616 -0.6831637 -1.7659819 0.16597514 0.34166434 0.48239112 0.64100295 -0.75033325
1399 -0.396619 0.5607371 1.40277 -0.4978939 -0.5997076 0.13286872 -0.2748384 -1.8784237 0.885325 0.005455286 0.19483793 0.5054969 -2.2021306 -1.15644 -0.45002288 -0.91079843 0.015271919 -1.0416279 1.1750722 0.2889982 -0.020037742 -2.089766 0.8646643 0.2870368 0.5144165 -0.7554687 -1.7737554 0.22151934 0.3335599 0.59393466 0.5121304 -0.5911012
5 1.2524076 -1.4063003 2.303511 0.6171182 1.2643056 1.5824692 0.068090186 -0.114301465 0.8931013 0.41181 0.58065414 -0.3738342 -0.8586399 -1.057577 -0.77866095 1.5205673 -1.0044415 -1.7727315 -0.3823607 1.2378219 0.5936525 -0.38802293 1.0429074 -0.9071792 1.0647877 -1.5581356 0.25391755 -1.2086266 0.4088845 -0.03356284 2.146907 -0.8185214
1609 1.497752 -1.2347575 2.2741656 0.49702314 1.2202259 1.6263524 0.031996712 -0.48186922 0.7497577 0.64373755 0.69640386 -0.55288637 -0.73072094 -0.9561123 -0.58301985 1.5046912 -1.140596 -1.3465172 -0.5062851 1.2523899 0.7812618 -0.34786278 1.2208352 -0.8003415 1.1251183 -1.5787587 0.30144748 -1.3393908 0.46160465 -0.039849173 2.1363075 -0.66300267
1674 1.3474909 -1.3331748 2.2777855 0.56124467 1.2172899 1.616094 -0.023439543 -0.4725588 0.6953163 0.70651656 0.61550695 -0.46172753 -0.7175996 -0.95816064 -0.6126042 1.4901868 -1.1771 -1.385215 -0.50104964 1.259725 0.7906557 -0.46100506 1.1834005 -0.7771607 1.2449929 -1.6073912 0.3592859 -1.2505667 0.4549159 -0.10440429 2.0504093 -0.8500625
1613 1.4645708 -1.2274922 2.316582 0.51113296 1.1558567 1.7423378 0.015447566 -0.2620477 0.88604254 0.36005569 0.76015633 -0.40673038 -0.848135 -0.84468234 -0.75582457 1.698456 -1.1072766 -1.3902937 -0.33625504 1.3734901 0.7778935 -0.35587114 1.0084627 -0.84042567 1.1181293 -1.6405089 0.41027084 -1.3027583 0.4559701 -0.039977733 2.1326954 -0.7674321
1615 1.4195716 -1.3139993 2.2379344 0.5792467 1.3251143 1.6084753 -0.10724969 -0.2716377 0.6514162 0.59868455 0.6379097 -0.4774646 -0.7109074 -0.85224974 -0.60660625 1.5030907 -0.9991993 -1.4740459 -0.43131724 1.3836253 0.7249932 -0.40845144 1.2039472 -0.7553859 1.1794753 -1.6939574 0.2910106 -1.2387674 0.5611203 -0.030683503 2.106252 -0.86098015
1618 1.4497663 -1.2861978 2.3348422 0.48472285 1.1902572 1.6748167 -0.025294183 -0.32629797 0.78195655 0.41834065 0.5168991 -0.47589788 -0.8007605 -0.88619024 -0.56958306 1.5232472 -1.1238052 -1.5313996 -0.47225067 1.3402755 0.8723535 -0.30324486 1.191798 -0.78624535 1.0733784 -1.6931646 0.28916082 -1.3535957 0.58771515 -0.04648466 2.106666 -0.89771634
1717 1.2783517 -1.4407986 2.388718 0.45789182 1.0941805 1.4830426 0.06440503 -0.24105391 0.93386567 0.3877104 0.63961 -0.31853864 -0.7180325 -0.7906623 -0.8287814 1.3918369 -0.91270626 -1.7211758 -0.49967968 1.149402 0.66774017 -0.46501544 1.1127452 -0.700177 1.1912134 -1.5192335 0.28500053 -1.1710818 0.50676095 -0.024164345 1.8698087 -0.70796084
1206 1.4056631 -1.2870965 2.2435493 0.5053818 1.1953919 1.677451 0.014019221 -0.34406883 0.782326 0.58708835 0.47809547 -0.43695748 -0.74747264 -0.88369757 -0.7296331 1.6212174 -1.0456753 -1.4596105 -0.4344005 1.3231245 0.7872384 -0.43605503 1.1597427 -0.785126 1.1783882 -1.5900545 0.38080192 -1.2260214 0.496851 -0.031801123 2.0432138 -0.90283644
1628 1.443324 -1.3647238 2.2280114 0.45804802 1.1901206 1.6912084 -0.12035115 -0.36225793 0.7856356 0.43229666 0.6377356 -0.49260032 -0.818574 -0.8902022 -0.7555923 1.48737 -1.066872 -1.5796101 -0.29762387 1.3214943 0.7785935 -0.4906521 1.081947 -0.7206582 1.13066 -1.6180278 0.4077889 -1.1269697 0.39532378 -0.17785126 2.0432444 -0.71789134
1661 1.2812105 -1.4907309 2.3723278 0.4570338 1.139991 1.4867291 -0.06695442 -0.11466486 0.9550299 0.43634614 0.56942207 -0.45667395 -0.8487397 -0.7877431 -0.8793357 1.3079942 -0.89598024 -1.6581826 -0.5697296 1.3071668 0.5645764 -0.49646232 1.0790348 -0.8686173 1.2020161 -1.4370044 0.31607485 -1.2249337 0.4691361 -0.07507525 2.0141518 -0.75288707
1631 1.3826678 -1.2375904 2.3415158 0.5060615 1.2478794 1.7295275 0.08057789 -0.285201 0.81139076 0.5367627 0.5541661 -0.36678115 -0.7725107 -0.9438365 -0.73157847 1.6763142 -1.084949 -1.472871 -0.36503008 1.3038968 0.80819464 -0.45499882 1.2107458 -0.7849235 1.1215167 -1.629237 0.30093652 -1.1620032 0.50499547 -0.1698118 2.0020344 -0.8432558
7 1.0765378 -1.1596165 0.61658025 0.8525444 0.7233655 2.2291594 -0.7143836 -0.04730803 0.048918992 0.5309455 -1.2034802 0.40495715 -1.0837507 -1.0822418 -1.832388 0.22069827 -1.3871928 0.22895005 -1.5198551 1.4642757 -0.84248555 0.9955553 0.7679279 -1.3569826 0.10382597 -0.022908207 0.47504154 2.1419528 0.26893055 -0.813332 0.7457801 -0.21366148
896 1.0130649 -1.1328002 0.65761334 0.82112104 0.74408793 2.3099494 -0.7986948 -0.13079576 0.090686426 0.59705645 -0.9206732 0.31949443 -1.1035736 -1.1911143 -1.7551516 0.255974 -1.4972936 0.2909042 -1.5040876 1.3600361 -0.93902445 1.0381224 0.8751773 -1.3388777 0.15197861 -0.0064060334 0.4977892 2.2249656 0.21176538 -1.0035831 0.7305731 -0.16392279
353 0.8857263 -1.3279963 0.71372247 0.709289 0.6685529 2.2009914 -0.67977524 0.054448985 0.33958116 0.4084075 -1.0469908 0.37575942 -1.219041 -0.93832904 -1.8848056 0.2516717 -1.3327798 0.24589889 -1.6405486 1.2391584 -1.0030766 0.8656592 0.7703003 -1.3923694 0.09963411 -0.072391875 0.41751075 2.232959 0.088011004 -0.77496517 0.81279284 0.05977112
2053 0.96314627 -1.2708082 0.5618177 0.81033885 0.74194086 2.2817793 -0.591338 0.09420153 0.20360388 0.4675123 -1.0359323 0.30355293 -1.1164734 -1.0591938 -1.82594 0.33802122 -1.2991769 0.20594138 -1.4167181 1.2129856 -1.0461916 0.91579485 0.7695118 -1.4032828 0.033920836 0.048233528 0.44938064 2.117223 0.07013506 -0.8601136 0.8723282 -0.031665172
1381 1.0977155 -1.2917356 0.74084175 0.7330397 0.6872819 2.2413974 -0.65893596 0.16293317 0.2598806 0.41834283 -1.0100647 0.3422031 -1.1378311 -0.9290321 -1.9006215 0.193734 -1.2765263 0.16316438 -1.5845039 1.3383163 -0.9806725 0.8730508 0.7525168 -1.3406591 0.14029852 -0.11260964 0.43198475 2.2126992 0.11167565 -0.8001237 0.8376914 0.016333796
1896 1.1366214 -1.2218757 0.56690633 0.8967938 0.5952379 2.2327185 -0.84636736 -0.03979305 0.033061817 0.42247078 -0.93881524 0.38397554 -1.1946069 -1.0696847 -1.8277166 0.24922796 -1.4074191 0.35634705 -1.2708576 1.3801956 -0.9048239 0.9706797 0.72506285 -1.4390253 0.113018915 0.027561309 0.4951171 2.1814303 0.15779686 -1.0126014 0.82827544 -0.19194028
521 0.97873485 -1.1565102 0.59241414 0.9445038 0.67479193 2.254043 -0.8295695 -0.06672031 0.089731835 0.54823023 -0.97678006 0.253922 -1.1104255 -1.1465412 -1.8231043 0.12797211 -1.3805497 0.27581707 -1.6206539 1.3406346 -0.9331162 0.9051251 0.96343434 -1.34013 0.06689706 0.00049044465 0.4439569 2.1047046 0.21331403 -0.9112292 0.78552556 -0.13604964
330 0.9873917 -1.1440421 0.6360897 0.8794618 0.57639927 2.2138727 -0.7437435 -0.03426901 0.111721314 0.56137234 -0.9424084 0.3280923 -1.145132 -1.2204196 -1.7445341 0.17285576 -1.5198835 0.30649006 -1.5106715 1.3565999 -0.8629535 0.92026955 0.97206414 -1.355784 0.06684936 0.013687022 0.38869002 2.1875908 0.22773962 -0.83524513 0.8445658 -0.1639699
395 1.0397981 -1.1636317 0.6156489 0.79539436 0.6406892 2.2132688 -0.8007089 0.08902808 0.111659564 0.44174007 -1.104643 0.337521 -1.1354145 -1.1144036 -1.8876092 0.11392228 -1.4047154 0.37497163 -1.4849161 1.3580645 -0.8549005 0.93675655 0.9043183 -1.4482447 0.08971048 -0.004802017 0.4231779 2.1037126 0.12536953 -0.8834587 0.85920733 -0.1746896
716 0.98256314 -1.285621 0.6351875 0.73371315 0.60473156 2.208362 -0.56653005 0.041374203 0.26375997 0.41861537 -1.0450051 0.31660888 -1.08943 -0.9427672 -1.8239515 0.22410081 -1.2431672 0.25077334 -1.5845416 1.3124342 -1.0103471 0.83804744 0.65049076 -1.2745054 0.18002293 0.025551375 0.5133707 2.1852968 0.008012773 -0.73230314 0.8837864 -0.041821554
849 1.1125904 -1.1508293 0.5639223 0.83091736 0.61542726 2.2214165 -0.81546026 -0.037109464 0.106864795 0.4438217 -0.99577284 0.2342949 -1.3094618 -1.0941528 -1.865221 0.1356518 -1.4442885 0.33642358 -1.351888 1.3497908 -0.8271123 0.8314094 0.8676049 -1.3451169 0.06717485 -0.06386832 0.49014154 2.154454 0.1116853 -1.0578952 0.8416669 -0.040989064
563 0.9831438 -1.1358876 0.5331387 0.8882608 0.7289048 2.1838913 -0.810285 -0.033185616 0.06864319 0.6032213 -0.9749398 0.2954018 -1.1802646 -1.2010914 -1.7748375 0.11425936 -1.530651 0.39499646 -1.571327 1.3526039 -0.8690504 0.9549237 0.9136955 -1.3528794 0.08809837 0.005531021 0.44070745 2.1529076 0.20384724 -0.95073026 0.81455714 -0.15710816
1427 0.8795112 -1.1901467 0.7078385 0.70155203 0.7329787 2.206047 -0.578116 0.0799081 0.2832796 0.45263994 -1.0570834 0.36763644 -1.1715921 -1.0488667 -1.8617898 0.21555546 -1.3225664 0.3058641 -1.6153722 1.3743279 -0.96839905 0.9733273 0.71948254 -1.3843267 -0.0147121325 -0.049638003 0.41004616 2.139982 0.008085952 -0.8401451 0.9320547 -0.021150097
1983 0.9811551 -1.2113143 0.74249077 0.79550385 0.8032166 2.1027865 -0.7371787 0.2360695 0.115530744 0.39262614 -1.0115265 0.34614974 -1.1592313 -1.0358427 -1.862474 0.32137945 -1.2510855 0.16818002 -1.6550815 1.3002206 -0.9018435 0.8924685 0.78905296 -1.4660853 0.10480285 0.02225638 0.40980396 2.2296567 0.049839262 -0.8629884 0.7982997 -0.01745597
9 2.1121356 1.4700663 1.2228903 1.4889632 -1.2476145 -0.13157092 2.3881404 -0.11502038 1.0492895 0.9731606 -0.9274433 -0.08638033 -1.5857702 0.3709113 -0.2708431 0.9173264 0.7977526 -0.018667718 0.5282174 1.0013931 -1.1302159 1.0532147 -0.09578464 -0.3929042 -1.7349098 -0.8025554 0.5526906 1.1010576 -0.503184 0.6317108 0.56095266 -0.16414486
1153 2.2199476 1.3763455 1.3705776 1.415837 -1.2827362 -0.06743916 2.4305086 -0.028996278 1.0568086 0.99810576 -0.78738743 -0.11329046 -1.3999208 0.24919479 -0.30617702 0.9550635 0.9635347 0.10096313 0.17439336 0.9880934 -1.0960909 1.277621 0.16383451 -0.5479377 -1.6915629 -0.7614243 0.39866328 0.974322 -0.6196531 0.70546186 0.34440044 -0.21256281
354 2.2078555 1.3320035 1.2976264 1.5070363 -1.3417414 -0.17848821 2.4525547 -0.028831001 1.0574708 1.096543 -0.89894134 -0.14527997 -1.523974 0.18558337 -0.36603495 0.8655283 0.9880365 0.10121164 0.18565598 0.9938167 -1.0536331 1.1860894 0.21434538 -0.481865 -1.7545223 -0.77856946 0.4761519 0.9564362 -0.6071071 0.8631074 0.50614756 -0.22047944
611 2.060185 1.3011328 1.3932863 1.536998 -1.0978582 -0.10817948 2.358915 0.06735113 1.138664 0.84076744 -0.9032342 0.059655007 -1.6033548 0.26164496 -0.4256099 0.9966093 1.1224232 -0.18314625 0.22064604 0.9708134 -1.1881843 1.2823461 -0.031099206 -0.5989248 -1.698794 -0.7535022 0.38104984 0.8223905 -0.67369974 0.7796501 0.43763262 -0.21632554
554 2.2434225 1.4398671 1.3972839 1.4906583 -1.3100159 -0.17804833 2.411507 -0.06161206 0.9357355 1.0915796 -0.9124864 -0.1293518 -1.5237908 0.27140644 -0.31074956 0.98227257 0.9252877 0.028822081 0.15148652 0.87497807 -1.1301467 1.1912836 0.11499651 -0.43887827 -1.6916234 -0.7783819 0.44690508 0.9900208 -0.5132854 0.7636883 0.48096666 -0.3611578
842 2.143005 1.1696175 1.3112158 1.460715 -1.1738558 -0.2561391 2.4731128 0.10193852 1.1565939 0.75451666 -0.92461735 0.11712685 -1.4877541 0.47007382 -0.40149626 1.0367582 1.0232166 -0.19429125 0.1480472 0.9424099 -1.2940499 1.0736617 -0.07749383 -0.48567063 -1.485354 -0.773954 0.43487662 0.8182876 -0.5490769 0.8647816 0.3575198 -0.23830274
979 2.2943509 1.436263 1.2631931 1.5140623 -1.2916787 -0.13514702 2.4518461 -0.08861242 1.0625917 1.115522 -0.9683304 -0.058931727 -1.4900969 0.32879218 -0.31615105 0.8973674 1.0173157 0.117877975 0.24486372 0.96066463 -1.1550692 1.1715499 0.12065124 -0.5092468 -1.6910943 -0.79794085 0.27131638 0.9493772 -0.6333606 0.775449 0.37033576 -0.23109694
1107 2.1771362 1.3383465 1.3406428 1.4136881 -1.3685763 -0.14741395 2.403336 -0.10980564 1.0850422 1.0785209 -0.97826517 -0.13455875 -1.4880388 0.21802743 -0.19401534 0.86072 1.0081717 0.024351925 0.2648318 1.0571624 -1.1617516 1.2490103 0.121287316 -0.45639464 -1.6906523 -0.80024445 0.422454 0.95752794 -0.5047709 0.76145905 0.53739095 -0.26672408
702 2.1268327 1.4151365 1.3858417 1.4327879 -1.176359 -0.091365784 2.3807309 0.077798 1.0284045 0.85297704 -1.053344 0.082022585 -1.5065012 0.40953615 -0.3837474 1.0153213 0.949359 -0.03751345 0.40686408 1.0373483 -1.2327965 1.1975046 0.06476016 -0.4677427 -1.6673397 -0.8159107 0.4673647 0.9124173 -0.56649184 0.81715137 0.34789193 -0.4319769
255 2.056987 1.0363075 1.4606094 1.2797174 -1.2806481 -0.31394476 2.310379 0.2499219 1.2337607 0.8594091 -0.94952184 -0.0012171811 -1.5791992 0.31006747 -0.40231532 0.94714475 1.2708927 -0.21391585 0.11711108 1.178247 -1.3773144 1.1160992 -0.091140896 -0.5206753 -1.578264 -0.6794274 0.33961248 0.89330065 -0.6201164 0.781844 0.22789119 -0.27432323
11 -0.6647401 0.2509812 -0.00035807493 0.54414266 2.2695541 0.6832617 0.6480139 -1.4844385 0.22752452 -0.74981475 0.26097748 -0.4477998 -0.96581805 -0.98538864 -0.2585583 0.28026477 0.31512088 -0.57519025 0.43211892 1.4716395 -1.1196941 0.54231584 -0.1038695 1.2236067 0.4690258 0.95050657 -0.36893257 1.8049766 -0.024056183 -0.43116716 -1.1771748 0.08877284
1409 -0.52764314 0.17840125 0.0049326555 0.5251689 2.1948047 0.7676804 0.60157937 -1.6254822 0.16110747 -0.7701186 0.23654942 -0.5258726 -0.8812469 -1.0048195 -0.14124024 0.2196687 0.2325223 -0.60013795 0.3912159 1.5133489 -1.0200726 0.61551744 -0.015288516 1.3392897 0.53480285 1.2044709 -0.47879496 1.7714603 0.1496991 -0.58590174 -1.2306657 0.036255315
901 -0.6097261 0.1941438 -0.013397411 0.534468 2.2587085 0.5132633 0.57580334 -1.4426752 0.2625412 -0.83339065 0.2627464 -0.5656275 -0.9653606 -0.8797008 -0.2901905 0.18413155 0.34743008 -0.57914317 0.27755776 1.5270177 -1.0559527 0.51617056 -0.0757728 1.1477709 0.5541542 1.0970483 -0.4918356 1.7646973 0.11202452 -0.45728326 -1.2088441 0.06707102
902 -0.46822178 0.21581136 -0.01022162 0.5080978 2.214638 0.6868895 0.59081584 -1.4511836 0.20581095 -0.7788043 0.27737528 -0.47431606 -0.95921683 -0.923546 -0.18605778 0.2996208 0.37891474 -0.5238359 0.49488991 1.4777459 -0.939567 0.5458597 -0.15152211 1.2477869 0.5721583 1.1174501 -0.4369198 1.8221177 0.11302802 -0.5027536 -1.1697848 0.070230894
1543 -0.5001454 0.28069687 0.002462866 0.37433916 2.2587008 0.7107578 0.59505016 -1.4437966 0.30696604 -0.9515948 0.22019523 -0.47613683 -0.95710063 -0.8933057 -0.19731985 0.27897558 0.2794258 -0.6143391 0.51510715 1.4175981 -1.0356346 0.47754756 -0.10041947 1.2008057 0.64755696 1.1360177 -0.3887408 1.8127064 0.0025137907 -0.49193707 -1.1636652 0.1897081
1033 -0.51429206 0.24962716 -0.056895074 0.5444191 2.2017162 0.6005185 0.62853515 -1.448162 0.18999586 -0.83225906 0.2774625 -0.46660787 -0.8714982 -0.9029365 -0.12167931 0.3696817 0.26752302 -0.5691964 0.30262217 1.4598094 -1.0667118 0.5538088 -0.044555567 1.1791095 0.6010721 1.0836046 -0.42761913 1.7917062 0.058724638 -0.45648536 -1.1817344 0.15130875
398 -0.6559914 0.20632443 0.09583202 0.46162045 2.253925 0.5020848 0.60316426 -1.454709 0.28903008 -0.8235367 0.28185165 -0.5594624 -0.9443302 -0.86085874 -0.20315424 0.21003102 0.33572224 -0.5371286 0.434317 1.4342762 -1.1530516 0.45673865 -0.072244085 1.1585358 0.650321 1.1126771 -0.37276518 1.7853229 -0.02540945 -0.46540487 -1.1679024 0.058901194
1297 -0.56247044 0.36128742 -0.015709873 0.54001325 2.2719257 0.645174 0.6035943 -1.6687379 0.1079546 -0.6472855 0.25395522 -0.39821696 -0.90504783 -0.9958312 -0.16053867 0.2995332 0.32524678 -0.52797437 0.41386753 1.4715111 -0.95430946 0.5349972 0.03118513 1.2420806 0.6706096 1.1217121 -0.38039276 1.7030228 0.070835076 -0.60864437 -1.2626662 0.029969674
917 -0.53634804 0.22870442 -0.054753974 0.6401658 2.2020772 0.7378934 0.61502826 -1.4970516 0.30323365 -0.79098225 0.33431396 -0.51085895 -0.9160443 -0.9312378 -0.16340496 0.3668384 0.32406747 -0.66885453 0.48799187 1.571825 -1.032023 0.5454133 -0.1029053 1.2593912 0.53546846 1.1157681 -0.35687548 1.7707168 0.13641046 -0.536425 -1.228447 0.06948075
920 -0.57858545 0.2832403 -0.036698848 0.406564 2.251833 0.6790848 0.6888826 -1.5093943 0.12114854 -0.74249357 0.27734172 -0.43159825 -0.8463118 -0.94454014 -0.1800044 0.2984115 0.3411381 -0.54607177 0.3990552 1.5142695 -1.091629 0.6108992 0.08289185 1.2399364 0.5766765 1.0348198 -0.35586232 1.8951586 -0.007682815 -0.55890983 -1.2422457 0.02679532
1313 -0.5210471 0.2412449 0.01648742 0.5117457 2.2371402 0.5664181 0.6677775 -1.4871362 0.3252898 -0.8206361 0.33703405 -0.45987827 -0.9498454 -0.8274146 -0.23606375 0.2888251 0.3715362 -0.49778908 0.4396939 1.4372358 -0.98920584 0.44083244 -0.08421352 1.1518968 0.58499277 1.1609335 -0.42383328 1.838858 0.09213753 -0.46492922 -1.2349155 0.09375786
1570 -0.53382576 0.27485391 -0.07703746 0.50132364 2.2756407 0.7033153 0.6348737 -1.6071305 0.20151654 -0.7490737 0.29470563 -0.5380448 -0.8770116 -0.94080603 -0.17986636 0.16480373 0.31930047 -0.5180228 0.40195808 1.5162946 -0.93673646 0.5619717 0.0047180303 1.2242928 0.62531334 1.1612791 -0.49783736 1.8071356 0.075159915 -0.50301045 -1.2128803 0.059507053
172 -0.5940638 0.31098694 -0.05892013 0.5325388 2.260095 0.57231534 0.68754274 -1.4606255 0.27602836 -0.85297024 0.23734123 -0.57108444 -0.93428105 -0.90355414 -0.16923043 0.26465827 0.30349037 -0.5683993 0.4713706 1.4567274 -1.0353358 0.50357556 -0.104802154 1.1495275 0.5879422 1.117407 -0.483477 1.8274313 0.08531055 -0.45679545 -1.1300163 0.102636494
44 -0.4606777 0.30135432 0.048443023 0.4730314 2.1978514 0.6635708 0.55298567 -1.4198426 0.34021074 -0.875571 0.3010043 -0.5896929 -0.8937056 -0.92015976 -0.1813588 0.30727828 0.37291193 -0.55885917 0.4234217 1.4855595 -1.005015 0.51151246 -0.07430491 1.1599159 0.65117824 1.2120109 -0.46961865 1.7500671 0.122044586 -0.49662885 -1.2857419 0.14044443
457 -0.5546415 0.28155115 -0.064481296 0.5546306 2.3108528 0.65509886 0.63555086 -1.4938798 0.29713959 -0.7651293 0.23933427 -0.5275326 -0.9055513 -0.8964873 -0.2021713 0.19379696 0.25584212 -0.44531748 0.4461901 1.4531854 -1.043186 0.53997684 -0.10037297 1.2466909 0.5688621 1.1175808 -0.4402617 1.7769688 0.018167794 -0.4199764 -1.2166383 -0.026069256
458 -0.5435308 0.2175061 0.030665375 0.4259038 2.2042284 0.5576211 0.6151562 -1.4751608 0.30827114 -0.8477166 0.31888738 -0.50669837 -0.93544453 -0.8221975 -0.238628 0.20589139 0.38915363 -0.57952195 0.38987935 1.4775524 -1.0270989 0.5201677 -0.027748922 1.1321038 0.543956 1.1103312 -0.41823894 1.8836912 0.031020004 -0.40210864 -1.1835389 0.15432437
2122 -0.6433434 0.21423674 0.0052774693 0.4925839 2.3057325 0.74744827 0.66579455 -1.6243433 0.21337536 -0.7786422 0.2756164 -0.55088377 -0.83025616 -0.98112994 -0.19825181 0.2157835 0.41707382 -0.54666 0.3206428 1.5935143 -1.0361687 0.48827407 -0.066420905 1.2171599 0.47240672 1.0694935 -0.40559128 1.756375 0.078299165 -0.47177345 -1.2622797 0.074093565
460 -0.5812281 0.20019327 -0.053665936 0.566079 2.2558408 0.6542067 0.5852744 -1.6137058 0.2165502 -0.7460607 0.3056197 -0.46363994 -0.8945514 -0.97524476 -0.09342378 0.20235793 0.29457757 -0.564487 0.45511934 1.4169948 -1.048169 0.5404297 -0.040320117 1.2609564 0.6455246 1.1458111 -0.4118924 1.8150188 0.115556836 -0.46581113 -1.2627499 0.039199855
333 -0.53197205 0.32635558 -0.040485624 0.476697 2.2464871 0.71746063 0.6612898 -1.5785829 0.19688444 -0.8957157 0.31582347 -0.523603 -1.0433869 -0.8794479 -0.13639756 0.16366777 0.3633837 -0.55683655 0.47780523 1.4297478 -0.97651285 0.5212324 -0.044336565 1.2284914 0.5195678 1.0945752 -0.34915954 1.8702332 0.057167515 -0.43822035 -1.210399 0.14934884
461 -0.7231034 0.20122029 0.05836364 0.5699105 2.2163367 0.7022064 0.6340375 -1.4890041 0.14571168 -0.8913284 0.25972202 -0.5110188 -1.001594 -0.94778943 -0.107462354 0.33825055 0.36671406 -0.62264454 0.36529914 1.5007908 -1.0361645 0.5174421 -0.12021952 1.1725941 0.4684362 1.0957096 -0.40341377 1.7305915 0.035244837 -0.48282105 -1.1834975 0.087462634
462 -0.6038783 0.19871563 0.071366966 0.4531557 2.2248845 0.553496 0.697042 -1.4857868 0.26027784 -0.7129724 0.24622183 -0.4739232 -0.92071104 -0.8808508 -0.26473454 0.23626737 0.40584743 -0.5501833 0.37481442 1.5331904 -1.0757554 0.5039554 -0.10604505 1.1744465 0.54987377 1.0527345 -0.36156368 1.8055154 0.14635372 -0.4669573 -1.1815743 0.11859659
473 -0.6317921 0.27097 0.051626638 0.4545399 2.244593 0.67219853 0.66109824 -1.6587029 0.2619053 -0.7312207 0.320539 -0.56308043 -0.8299004 -0.95673376 -0.14457569 0.2252759 0.3565923 -0.6161499 0.40478906 1.5195348 -1.0596724 0.5675688 -0.0034173713 1.2482334 0.60244644 1.1767566 -0.4399319 1.7772514 0.1162753 -0.5054293 -1.1651685 0.09609313
1375 -0.5134421 0.20796162 -0.020028504 0.44989896 2.3185015 0.6708766 0.5602572 -1.5707062 0.23123427 -0.91213626 0.2565715 -0.49023506 -0.9271886 -0.9070605 -0.015249782 0.20426616 0.25698605 -0.57610923 0.5467657 1.4517192 -1.0117028 0.59128964 -0.00013928437 1.2534038 0.6031584 1.2164439 -0.41637185 1.7466295 0.04013846 -0.3764827 -1.2241074 -0.060257368
1892 -0.57546353 0.32895812 -0.03975898 0.48137477 2.2897377 0.692384 0.68738776 -1.479289 0.1836969 -0.754996 0.22009422 -0.55070573 -0.9059819 -0.94360065 -0.19436802 0.23959444 0.34348163 -0.61408883 0.40778083 1.5311425 -1.0296755 0.5926399 -0.056034546 1.188945 0.5924541 1.0881549 -0.38348338 1.8676597 0.05145803 -0.47376418 -1.264554 -0.0036629434
1515 -0.606293 0.20690303 0.058280434 0.39218375 2.3012483 0.72881293 0.6420225 -1.5120516 0.1684056 -0.757896 0.21090315 -0.4591711 -0.9359875 -0.9693155 -0.11263339 0.28151715 0.38546768 -0.5733509 0.4039527 1.5034868 -0.99045956 0.68155974 -0.042453036 1.1944054 0.54510725 1.0805302 -0.32014856 1.7935284 0.09206072 -0.44808048 -1.2074456 0.027694734
1519 -0.5356093 0.37570253 -0.05993196 0.52590966 2.1792336 0.5865477 0.6487835 -1.410006 0.30172956 -0.8853521 0.25567463 -0.47496614 -0.9219469 -0.95040613 -0.18628198 0.38476557 0.4642557 -0.6648207 0.3000614 1.509521 -0.96860373 0.480971 -0.053548057 1.133219 0.58473957 1.2321017 -0.43796816 1.7493514 0.12694187 -0.5076286 -1.3347843 0.13916868
1521 -0.56231564 0.3247817 -0.002631459 0.43823546 2.2061417 0.62284327 0.61813873 -1.5791239 0.17684668 -0.67539024 0.25672293 -0.5316821 -0.82890564 -0.94955206 -0.116013795 0.20259027 0.37170443 -0.50972587 0.4218472 1.509402 -1.0501455 0.5997521 -0.0018621519 1.2210766 0.71565306 1.1361706 -0.36372688 1.8556622 0.12991387 -0.5173395 -1.2200152 0.03999658
12 1.7817919 -0.33156633 0.33707014 -1.0454389 0.61642414 1.6203374 0.3941746 -2.0159028 1.2308954 0.17037216 0.27767023 -1.4510331 -1.0305508 0.80605996 -1.8084354 2.0870783 -2.4721255 0.17266043 -0.9978406 1.1967847 -0.9047394 -1.3504709 -0.12414485 2.2812095 -1.4541125 -0.8919294 -0.32330054 1.4620874 2.7902958 0.10457546 2.1880846 -0.2529977
984 1.8595668 -0.29205874 0.4483839 -0.8847491 0.6787241 1.5409069 0.3520001 -1.6686853 1.3242667 -0.10552886 0.06979924 -1.2843851 -0.96892583 1.0083572 -1.8689438 2.1947374 -2.5571997 -0.05810954 -0.63917184 1.2414403 -0.8649794 -1.2308288 -0.18598269 2.2414203 -1.257996 -1.0263846 -0.07048935 1.5146633 2.7009203 0.21905558 2.1214705 -0.39696306
289 1.8766271 -0.35198614 0.4135322 -0.7556525 0.640905 1.4057922 0.2062871 -1.534734 1.2619027 -0.20457092 0.2615577 -1.236331 -1.2194986 0.9505355 -2.0530388 2.155874 -2.2346911 -0.18298991 -0.6173782 1.0271709 -0.9850285 -1.3758316 -0.45601574 2.0332847 -1.3784229 -0.82499427 0.044366058 1.5818712 2.5832334 0.09039218 2.23714 -0.1938034
13 0.13249512 1.2845236 0.71310025 0.78823006 0.39716032 0.7656165 -0.28027108 -0.5182577 0.5019533 0.4643018 1.1745685 -0.13877298 -0.80177546 0.15661792 0.0069319876 0.6967085 0.3936728 -0.50329435 -0.09540097 1.0195496 -0.453212 0.24501783 0.6355891 0.23576543 0.004168159 0.791283 0.56044817 0.097649604 0.28587428 1.086586 0.56600857 -0.3358576
513 0.14162734 1.2673672 0.74458474 0.7927696 0.43182322 0.723062 -0.27726245 -0.55845064 0.5323281 0.49498117 1.1377337 -0.11078503 -0.8338465 0.21069074 0.06616572 0.7217399 0.3015138 -0.5297396 -0.14798738 1.029566 -0.4078279 0.32205105 0.68229795 0.23214075 -0.06576733 0.8230549 0.4821652 0.049454127 0.32123098 1.0945351 0.61418176 -0.41700503
1030 0.08555375 1.2175367 0.70175433 0.74838066 0.31677505 0.69641083 -0.25548604 -0.6181717 0.58289295 0.46707347 1.1743329 -0.13630232 -0.7941344 0.16670085 -0.042366408 0.7229594 0.26627862 -0.47128054 -0.10742502 0.9516316 -0.44362515 0.32334852 0.709111 0.22721092 0.0021976912 0.82454145 0.5226166 0.05851333 0.3051533 1.0462909 0.47556424 -0.36830354
14 0.0590096 1.2809044 0.7001274 0.7465882 0.43825725 0.6871139 -0.28092 -0.5384298 0.5366847 0.4950112 1.1313084 -0.15941438 -0.8628856 0.1642219 0.016040657 0.7099446 0.3010115 -0.5021612 -0.18684185 1.03074 -0.4392325 0.27291957 0.7259456 0.21182752 0.008786047 0.8078991 0.57573235 0.09265137 0.26802745 1.0783446 0.559537 -0.4098513
529 0.13112977 1.2699689 0.6676293 0.75749815 0.4121337 0.6699842 -0.29738325 -0.5405534 0.45824105 0.47111228 1.1537837 -0.12305472 -0.82932854 0.16932558 -0.010022762 0.71211916 0.35769397 -0.48513123 -0.07783405 1.0156 -0.4504119 0.2610447 0.6362929 0.22943456 0.0154447025 0.7969551 0.5387458 0.061065607 0.27823102 1.0637373 0.54592746 -0.29292542
530 0.104462154 1.3705866 0.68847597 0.8021501 0.37854967 0.7256597 -0.28388032 -0.5686445 0.44532248 0.5205297 1.1659168 -0.16355988 -0.8200097 0.16936336 -0.014227478 0.72316045 0.3323969 -0.4730092 -0.06827193 1.0286416 -0.40318146 0.29914686 0.73990077 0.26172653 0.053377286 0.76121575 0.48245206 0.11928807 0.23568663 1.1116407 0.5237582 -0.3929341
1557 0.102813885 1.2308323 0.6436595 0.8147876 0.3640569 0.7275083 -0.24878074 -0.5299358 0.47658816 0.5203589 1.1304876 -0.15716116 -0.850182 0.10687509 0.01636299 0.7067193 0.29494026 -0.49649206 -0.116076715 0.9637013 -0.39536858 0.29696468 0.6665638 0.24078262 -0.001183491 0.81631166 0.50723934 -0.0025248902 0.31458735 1.0799638 0.55489296 -0.33256447
536 0.06232317 1.2617779 0.7067021 0.78160554 0.41638616 0.7063565 -0.25111362 -0.49176666 0.51649064 0.5047222 1.0831553 -0.10080762 -0.79971445 0.17178352 0.0058678547 0.70089096 0.3411124 -0.5092877 -0.10234683 0.9784015 -0.42633316 0.31739786 0.66669416 0.19667023 -0.031875398 0.7721992 0.46607792 0.093619645 0.3011903 1.0835856 0.5663695 -0.37676
1051 0.14909063 1.2813774 0.7013914 0.776787 0.36913565 0.72626585 -0.29913715 -0.51215595 0.45428118 0.4178422 1.1459333 -0.083468385 -0.78151673 0.2074848 0.0005439757 0.7739812 0.298366 -0.49685618 -0.063239776 0.9854518 -0.36944443 0.3048567 0.6892296 0.23260242 -0.013286805 0.7685377 0.47930568 0.062173486 0.29418084 1.03972 0.54585266 -0.34411955
27 0.13662723 1.2851626 0.7693492 0.80317295 0.40398383 0.73437333 -0.32127744 -0.57551724 0.47416 0.4705773 1.1227931 -0.1133784 -0.7849633 0.1563842 0.05936799 0.680297 0.32113987 -0.48848668 -0.10877396 1.0278063 -0.45187163 0.24169278 0.68742985 0.26371834 -0.050118275 0.79619193 0.47850168 0.03795878 0.31703165 1.0635061 0.6088449 -0.40898478
2078 0.12184706 1.2712837 0.7021013 0.76002 0.42850593 0.7204211 -0.25916418 -0.5183547 0.512179 0.52601695 1.0901431 -0.10994899 -0.7839333 0.13513526 0.028656153 0.7151498 0.32904983 -0.545261 -0.082662195 0.99894655 -0.4140792 0.30676055 0.69700116 0.19575104 -0.00043093224 0.81012154 0.54062 0.030321976 0.2724475 1.0706749 0.5540059 -0.34227982
33 0.19757584 1.2386656 0.7359267 0.7641556 0.40581894 0.6720147 -0.29645988 -0.54200864 0.51651794 0.5023205 1.1876367 -0.113588944 -0.7792048 0.15286669 0.032449443 0.7265532 0.3585695 -0.533758 -0.08434238 1.0547618 -0.42814443 0.30461812 0.7094673 0.2287801 -0.027184615 0.79651004 0.44211972 0.090935536 0.3024113 1.0728692 0.6113959 -0.37193727
36 0.13752353 1.3185267 0.6883914 0.78711385 0.39326492 0.7370291 -0.29670224 -0.5221546 0.5306671 0.46255413 1.1529274 -0.12394601 -0.8352447 0.13601024 0.041372098 0.696407 0.28566864 -0.54724574 -0.09601559 1.015624 -0.39732093 0.34015515 0.64937586 0.23939054 -0.02250643 0.76934063 0.50996506 0.08751065 0.31309873 1.0867901 0.5716513 -0.34641466
2085 0.12617277 1.298833 0.7391597 0.77716136 0.40626237 0.6783309 -0.27248922 -0.5616897 0.5909179 0.529436 1.1185057 -0.13000397 -0.8024193 0.15466692 0.044428784 0.70735997 0.36698392 -0.5093448 -0.17239408 1.0009075 -0.43362236 0.24646133 0.6700403 0.23446074 -0.04401279 0.82328355 0.535808 0.041730013 0.29955363 1.0425959 0.54815125 -0.33670902
551 0.07064669 1.2792963 0.70800936 0.7840666 0.34707132 0.69958293 -0.27552363 -0.55845296 0.47021702 0.46246377 1.1294944 -0.1484094 -0.81558853 0.21455367 -0.011279038 0.7296595 0.3284307 -0.46231014 -0.12937593 1.0103083 -0.383027 0.29725456 0.65418315 0.24353385 0.037809256 0.82182 0.50343996 0.09484659 0.26302427 1.044959 0.5205213 -0.34663573
40 0.1111155 1.2608277 0.74445647 0.76877195 0.37584442 0.6623681 -0.23453215 -0.53575265 0.50521696 0.4662947 1.1558987 -0.094584286 -0.85572267 0.20055494 0.059736643 0.7160476 0.3101514 -0.44323435 -0.061315972 1.0559483 -0.43045837 0.28142697 0.64041007 0.19079283 -0.03363614 0.80952203 0.53104347 0.07925711 0.33014187 1.0855136 0.59669864 -0.38914785
41 0.11802796 1.2684064 0.7105804 0.83026654 0.442951 0.6526708 -0.2438818 -0.5182199 0.50166136 0.47232515 1.1417035 -0.13786674 -0.85316586 0.18403319 0.037521366 0.75811034 0.33412793 -0.52600247 -0.076910056 1.0143491 -0.44127154 0.234288 0.64838374 0.2175382 -0.01790602 0.80434394 0.5577724 0.081330754 0.3359733 1.1088103 0.5041625 -0.38463452
42 0.080987245 1.2808653 0.67788917 0.8687285 0.36830375 0.69789314 -0.3573296 -0.5698927 0.51731634 0.5286632 1.1064734 -0.10901892 -0.802601 0.17056923 0.08177805 0.7358891 0.30407637 -0.5421073 -0.07479946 1.0823137 -0.4792854 0.2772518 0.6754131 0.26030773 -0.008029325 0.82117575 0.4635018 0.14921631 0.3291321 1.0512214 0.56377095 -0.4279512
43 0.13748063 1.270702 0.69156563 0.75479037 0.40190542 0.70223254 -0.28696483 -0.55267215 0.48204243 0.4823133 1.1483686 -0.14587185 -0.8352818 0.20223345 0.09508085 0.6949721 0.2726537 -0.49601328 -0.06517227 0.96582454 -0.4461364 0.2829645 0.6705198 0.24937586 -0.027528312 0.79142684 0.46512482 0.010815355 0.2620487 1.1169977 0.5436227 -0.38393372
1576 0.14745921 1.3209158 0.76248455 0.7834571 0.3770749 0.71290445 -0.26015 -0.5316608 0.5321769 0.49818188 1.1796713 -0.08918436 -0.84178877 0.1495219 0.054499514 0.6967033 0.35457283 -0.44376212 -0.08628093 1.001169 -0.4938633 0.25313288 0.6262001 0.2339415 0.010505152 0.8079749 0.51921904 0.06633514 0.3326351 1.1152116 0.5854836 -0.35626534
