2335 32
1 -0.35905784 -1.0517869 0.26161283 0.10745839 0.05331315 -0.712816 -0.46091697 0.30502397 -0.45799085 -0.5891744 0.41758138 -0.32684144 0.6076421 0.03551505 0.96319294 -0.5296628 -0.48370355 -0.4569139 -0.20836604 0.41153273 0.54569376 0.68003803 -0.083670534 -0.06418291 0.56409574 -0.36575133 0.15451033 0.76514566 -0.30838466 -0.14933747 0.46446145 -0.8620322
256 0.12313925 -1.0713325 0.22611874 -0.06082147 0.39686987 -0.23587775 -0.2492143 0.5335591 -0.31200597 0.079506814 0.4605815 -0.0061812587 0.29066095 -0.106093384 -0.564963 -0.14770319 -0.7468924 0.08554147 0.5729739 0.21886076 0.43560392 0.3183774 -0.06683696 -0.46767944 0.26980874 -0.46723962 0.09520914 0.42075753 -0.08013522 -0.054668795 0.070055924 -0.12845479
2 -0.14914368 -1.9905654 0.27233505 0.3347766 0.0041214167 -0.8541133 -1.1901584 0.4097362 -0.9596662 -0.9904633 0.21942672 -0.75276476 0.86416334 0.09951912 1.7368536 -1.4954252 -0.2799699 -1.3799158 -0.28724742 1.3883532 0.644756 0.96890223 0.36190656 -0.2483539 0.940894 -0.2930222 0.7692208 2.33285 -0.59989965 -0.28720117 1.2058579 -1.7881585
3 -0.09465013 -2.052007 0.12713376 0.41397443 0.15595655 -1.0228242 -1.2807933 0.33006608 -0.83595026 -0.9072629 0.23220927 -0.7927208 0.7370589 0.0631708 1.6951212 -1.4265875 -0.1705372 -1.4713112 -0.093989305 1.4568249 0.9169514 0.90276265 0.32193092 -0.23798591 0.99847007 -0.24756818 0.73701453 2.2026832 -0.74689907 -0.17680621 1.2960464 -1.7917387
4 -0.19983222 -1.9147961 0.13298453 0.31073982 0.17939377 -0.7446921 -1.1190542 0.39752394 -0.79137105 -0.80898786 0.10919751 -0.90852547 0.977161 0.14160582 1.8951709 -1.5146414 -0.091379374 -1.3520225 0.03427422 1.453937 0.9751477 1.0613792 0.35763702 -0.11292751 0.9040441 -0.31607372 0.91464317 2.1775959 -0.7205684 -0.16516548 1.4399506 -1.7492356
5 -0.17025605 -1.9984311 0.037335478 0.5629915 0.15963994 -0.82869744 -1.1148717 0.42962906 -0.8957603 -0.99540067 0.1623966 -0.94130194 0.9707883 -0.08892081 1.7655525 -1.4851838 -0.11471351 -1.2506243 -0.051563215 1.3791716 0.7067612 1.0353265 0.26942593 -0.23283711 0.84361166 -0.2758323 0.9380797 2.0341659 -0.75407225 -0.20576845 1.3049848 -1.826158
6 -0.20196263 -1.7847878 0.14501294 0.46492097 0.1713047 -0.9966215 -1.0431557 0.37136555 -1.0560374 -0.89665985 0.006055471 -0.7117054 0.9542426 0.030431326 1.7575302 -1.2137175 -0.19432405 -1.3838949 -0.09180825 1.4266045 0.8346329 0.90370846 0.40984377 -0.023109432 1.0773008 -0.23917808 0.87287253 2.0432432 -0.60059255 -0.030040208 1.3651175 -1.8171962
7 -0.2403172 -2.1366785 0.07292313 0.46496958 0.08563027 -0.67670923 -1.2028376 0.47772825 -0.97648025 -0.8827661 0.04198445 -0.7129326 0.89662707 -0.060289174 1.7280347 -1.305853 -0.05267128 -1.4340485 -0.09936895 1.4348061 1.0155866 1.003104 0.3033777 -0.21364802 0.9940512 -0.21239619 0.9029523 2.081546 -0.76995236 -0.2244662 1.3429943 -1.9523189
8 -0.053583864 -1.9199322 0.086967 0.62438136 0.27461046 -0.7067437 -1.1887367 0.39734492 -1.0527165 -1.0271164 0.12314848 -0.78948355 1.0339966 0.10993289 1.7211857 -1.3612128 -0.14995265 -1.4643483 -0.15336075 1.2836909 0.7567613 1.0660034 0.31482682 0.11428055 0.8893181 -0.3770498 0.7169043 2.1798098 -0.66920894 -0.17774448 1.2294476 -1.8427579
14 0.3045121 -0.9961632 0.15937595 0.0070585567 0.25499445 -0.36326283 0.32902354 0.12881434 0.023855126 -0.0772737 0.46988705 -0.20743631 -0.0108717885 -0.21508466 -0.19692512 0.013521825 -0.031126931 0.3008698 -0.06686042 0.3658164 0.45197135 0.69802815 -0.11452088 0.039859753 -0.18983929 -0.74085236 -0.052013237 0.36599073 0.015647179 -0.6882726 0.034350093 -0.45984983
15 0.10590204 -0.5755154 0.481474 -0.043068226 0.2874418 -0.8820118 0.26144737 0.3331734 -0.13687168 0.01668184 0.7817962 -0.38051158 0.4564988 -0.2429997 0.26572305 -0.14393029 -0.4445357 0.07656558 0.032149967 0.3058419 0.27040285 0.509516 -0.23773624 -0.24918817 0.04478103 -0.33657536 -0.101808116 0.11217 -0.23248082 -0.33852193 0.23308544 -0.45472088
155 -0.030238705 -0.59074867 0.45961696 -0.3776014 -0.25980535 -0.52405685 -0.13015564 0.22856602 0.030808132 0.5137554 0.17735508 0.04176373 0.67644906 -0.046065528 0.54752195 -0.030178672 -0.37577516 -0.38676873 0.16851479 0.5531039 0.86848164 0.65731734 -0.16601825 -0.18775645 0.41321602 -0.50804573 -0.16297857 0.009524091 -0.004907272 -0.52114916 0.6091925 -0.7140529
924 -0.44388753 -0.5657862 -0.14015284 0.23409843 0.13075724 -0.97634244 -0.048550934 0.28800514 -0.74867153 -0.38357964 0.68354887 -0.36921763 1.0700225 -0.2449269 0.9712076 -0.2018533 -0.6210451 -0.31915754 -0.23640163 0.16401638 0.08126163 1.2916995 0.0648348 0.264772 0.94854 -0.27512613 0.13410234 0.6488535 -0.15850383 -0.28439462 0.8685365 -0.33137342
925 -0.28030202 -0.4132047 -0.014198064 0.29596165 -0.16593741 -0.92236525 -0.07557208 0.19444129 -0.6267032 -0.42831245 0.19435975 -0.13107617 1.1711918 -0.29423714 1.0067116 -0.14776014 -0.66034484 -0.52288765 -0.1565662 0.2532995 0.25952092 1.3087059 -0.037443236 0.015336708 0.8885879 -0.08065488 0.14609954 0.8570967 -0.12243109 -0.24864441 0.6494715 -0.36643884
30 0.115559235 -0.8513095 0.81881106 0.22419806 0.02904991 -0.69909036 0.19055223 0.35761705 -0.20667574 -0.23174201 0.45447418 -0.53719556 0.34775794 -0.25461692 0.023299053 -0.16612242 -0.43708873 -0.24977922 0.2806383 0.72620857 0.27176544 0.061973844 -0.24596217 -0.06627227 -0.02370658 -0.4706442 -0.43666017 0.42095953 0.014284987 -0.1017567 0.045831665 -0.38805375
669 -0.14901528 -0.9091768 0.5308376 -0.17383786 0.099159494 -0.67040586 0.03474026 0.105885886 -0.103249535 -0.32177323 0.64844215 -0.14777733 0.14659928 -0.1896064 0.5576033 -0.05228634 -0.4782648 0.055874866 -0.35840866 0.48759437 0.836428 0.8148726 -0.44432896 -0.47852495 0.2992674 -0.65883744 -0.010954763 0.32207733 -0.4376685 0.020296449 0.02220486 -0.60440063
161 0.13337378 -0.6500496 0.46068454 0.082835525 0.096252255 -0.2631114 0.0051499275 0.5527476 -0.4870836 -0.33794975 0.36608192 -0.12196845 0.04208541 -0.23061664 0.34211162 -0.12738349 -0.44873014 -0.11704096 0.28357264 0.34383953 0.26593456 0.6912671 0.11854477 -0.6832173 0.07201031 -0.6376993 0.029918589 0.22776678 -0.09555049 -0.12853429 0.14539228 -0.24683651
547 0.23625363 -0.7054203 0.06722592 0.14582397 -0.25508097 -0.7302852 0.10498563 0.24868178 -0.24902919 0.3531893 0.5124815 -0.21217528 0.41702276 0.46666422 0.410392 -0.11538007 -0.24311672 -0.079003185 0.45193106 0.5973864 0.34298307 0.5966053 -0.107715786 0.011593992 0.16666886 -0.03354797 -0.052007906 0.10782742 0.2273681 -0.5237963 0.05684393 -0.86456347
41 0.12921098 -0.44238198 0.5054402 0.01485496 0.53010404 -0.97855026 -0.054313224 0.17298362 -0.4339335 -0.27376527 0.53567713 -0.1624667 0.16856383 -0.12796609 0.09450118 -0.09304475 -0.44366276 0.06356214 0.37142906 0.28983024 0.16822194 0.5840243 -0.078141615 0.0021247477 0.41244358 -0.24351871 -0.11120355 0.37966904 -0.44101623 -0.3236177 0.24512367 -0.30709848
684 -0.40768936 -0.3495315 0.3890467 -0.35391098 -0.21042517 -0.6040595 -0.6826303 0.6416655 -0.123718984 -0.11613079 0.5122258 -0.32169706 0.28278017 -0.5655383 0.21580169 0.28260118 -0.6664227 -0.4178268 0.0015986507 0.6908292 0.40310034 1.0103947 0.061475456 -0.18406616 0.23510087 -0.886135 0.17279969 0.32018456 0.29365227 -0.29828364 -0.05457494 -0.37066945
47 0.32911125 -0.42138925 -0.032011423 -0.059531674 -0.07370207 -0.06314089 0.02749535 0.5284247 -0.13082838 -0.33747134 -0.13397498 0.053154178 0.5882538 0.07087255 0.6863175 -0.1376236 -0.3149537 -0.4086104 0.36507058 1.1087908 0.09388036 0.5451982 -0.08691449 0.20294501 -0.18429837 -0.35253012 -0.17538938 -0.2618574 0.24637847 0.07445596 0.14822182 0.17602189
183 -0.051948003 -0.8185562 0.64313364 -0.075996414 0.3238874 -0.61259097 0.35943875 0.091813095 -0.4311829 -0.4929104 0.34405863 -0.12719084 0.053537488 0.024298208 0.5675891 -0.1318194 -0.3417102 0.03416872 -0.082091525 0.40320498 0.49498364 0.90293205 -0.37541923 -0.5232878 0.11423845 -0.5109458 -0.39392164 0.17140277 -0.38150707 -0.25948706 0.45387858 -0.43936685
184 0.13392738 -0.7305841 0.4505259 -0.12710568 0.13361159 -0.36087865 -0.04060645 0.40042546 -0.30872008 -0.18002568 0.14445047 -0.09297467 0.16878593 -0.42248186 0.23199041 -0.16370511 -0.2717687 -0.27950472 0.41328305 0.5108282 0.3807995 0.8691884 0.01625186 -0.32886857 0.22349554 -0.66730267 0.30420992 0.036620006 0.09929348 -0.31627592 0.18976174 -0.26585984
186 -0.09893505 -0.8275534 0.6762443 0.013387677 0.33325043 -0.6598711 0.39391515 0.11711034 -0.44668853 -0.53823936 0.3849081 -0.119263485 0.06356146 0.032525405 0.61325985 -0.13835382 -0.2354565 -0.031437445 -0.19592126 0.2646166 0.41199577 0.8444715 -0.44059 -0.5419781 0.17919876 -0.5466417 -0.41107616 0.22752361 -0.5449738 -0.21204583 0.50474715 -0.47407806
89 0.08839694 0.05419173 -0.06745308 -0.04962396 -0.46692654 -0.25857064 0.3290017 0.5434888 -0.5114515 -0.16139121 0.50049365 -0.45138678 0.7016808 -0.36168024 0.25641626 0.18083699 -0.4611885 -0.35492882 -0.04941667 0.59259784 0.20509931 0.87407047 0.31692028 -0.2981175 0.101302885 -0.63823426 -0.06812591 0.01334421 0.3253463 -0.34080005 0.3249806 -0.05033987
861 -0.361171 -1.1859249 -0.13505173 0.17241 0.048832197 -0.83783454 -0.26432088 0.19844592 -0.48885995 -0.53668445 0.32625946 -0.50690454 0.6865021 -0.12928829 1.435587 -0.776334 -0.42312706 -0.7454506 -0.53307134 0.5252584 0.62869465 1.024819 0.14795879 -0.14281636 0.41181067 -0.1856297 -0.069559075 1.2809455 0.17858265 -0.4234937 0.67399055 -1.0312985
94 0.17249107 -0.767555 0.5395994 0.0632356 -0.11178446 -0.76942873 -0.17059867 0.08261315 -0.50367767 0.24149819 0.4504246 -0.09771963 0.10869778 -0.21960245 0.033998303 -0.123721726 -0.6280242 0.19340602 0.45300743 0.1717823 0.21939632 0.55086976 -0.048664708 -0.27208456 0.31377992 -0.06030908 0.05030788 0.21993077 -0.018093627 -0.5170344 0.1545113 -0.50260735
95 -0.14175276 -0.39805046 0.4208621 -0.4653008 -0.24316019 -0.5978431 -0.18609841 0.06632188 -0.43333235 -0.14378846 0.63836193 -0.43509197 -0.08381097 -0.2431976 0.345356 -0.3217511 -1.0536727 0.029864512 0.264884 0.4701331 0.19072044 0.6554631 -0.11880569 -0.11667825 0.1201277 -0.31216037 -0.0055739926 0.21848364 0.02635853 -0.40830693 0.3025153 0.08172087
990 -0.21434578 -0.69589394 0.54837036 -0.40147227 -0.34623507 -0.7792543 -0.24667352 -0.13020799 -0.26869774 0.36251238 0.20187739 -0.099121824 0.07549128 0.12488729 0.21567999 -0.27073818 -0.94575274 -0.13032998 -0.021830438 0.5107874 0.8213435 0.7028891 -0.21276881 -0.08614911 0.2849771 -0.15368624 0.086554475 0.08203173 0.219924 -0.4237522 0.5536799 -0.53221005
105 0.18013206 -0.58724463 0.16491576 -0.15365209 -0.26594827 -0.7325422 0.4001614 0.46334144 -0.17153779 -0.00595396 0.32040882 -0.0028760827 0.26813513 -0.3650448 -0.22033504 0.3325125 -0.18377069 -0.20258746 0.17804849 0.25403267 0.2727676 0.4617671 -0.07824132 -0.058229078 0.28588164 -0.1977005 0.025012134 0.10762718 -0.14094545 -0.7712242 0.2681406 -0.13390881
107 0.25466004 -0.7758407 0.40772945 -0.045814607 0.012227606 -0.85395294 -0.044115733 0.15033028 -0.47743046 0.119872734 0.78375 -0.5190315 0.3846573 -0.08650009 0.18025714 -0.035586346 -0.8264486 -0.007795812 0.25160375 0.3795252 0.36621073 0.37055895 0.0029440331 -0.04613653 0.03939288 -0.12169464 -0.29145968 0.13283856 0.12662892 -0.20673396 -0.118346035 -0.38309237
1273 0.08842365 -0.9955302 0.14415811 -0.080002785 0.07419643 -0.4422578 0.18158369 0.56826437 -0.056753494 -0.16694304 0.68115026 -0.23823288 0.4715341 0.292811 0.3963544 0.22728826 -0.39967567 0.048002757 0.25236714 0.7440223 0.27892128 0.31383088 0.053667273 0.11997793 -0.017077137 -0.7072628 -0.37516865 0.47487518 0.099763595 -0.2336285 -0.26504183 -0.3582132
9 0.91535 0.10474923 0.051629324 -0.03634949 0.02621469 -0.86688465 0.36248687 0.46339312 -0.8896516 -0.3468586 0.588248 -0.15639965 0.30065238 0.13334635 0.08972641 -0.23476328 -0.15179323 -0.4485078 -0.37851405 0.49262562 -0.25621668 0.6478372 0.13951196 -0.40021425 -0.38791615 -0.4609936 -0.5245086 -0.46136236 0.32748473 -0.37313053 0.20009688 0.43791083
1539 1.2158768 -0.41885683 -0.54921764 -0.6834979 -0.024294937 -0.5408046 -0.6648866 -0.36208385 -0.096590355 0.5520132 0.8141751 -0.24047193 0.4345163 0.05572043 0.4719604 0.43209517 0.22240478 -0.30428728 -0.22479835 1.3003687 -0.8976038 0.41464692 -0.7147197 -1.0863925 0.15505154 -0.14222655 -0.37963694 -0.24674273 -0.05088701 -0.32249203 0.63480914 -1.1341212
532 1.3051757 0.21762578 0.14995454 -0.11238411 0.08426819 -1.1395911 0.36726215 0.21743977 -1.0736405 -0.6783609 0.27079234 -0.2818431 0.34857178 0.2299872 -0.0315889 -0.51436675 -0.060894318 -1.0173149 -0.21986419 0.63665617 -0.5408364 0.7917144 0.1921026 -0.34486714 -0.2567367 -0.55468893 -0.5610291 -0.38124967 0.0025909264 -0.22370522 0.59923506 0.4084159
29 0.2816517 -0.6365034 0.42609096 -0.058858275 0.16083905 -0.48217016 0.26970348 0.27881345 -0.21333179 -0.0011544464 0.3238943 -0.29823515 0.18424967 -0.051968403 0.11485178 -0.13670237 -0.39501822 0.11147157 0.57516605 0.50655144 0.16986205 0.5451725 -0.03491128 -0.09015861 0.13090964 -0.31553167 0.1628764 0.19343854 -0.01200479 -0.42285004 -0.15826792 -0.31261763
543 0.22371991 -0.5605491 -0.10649408 0.028552808 -0.16197933 -0.9381026 0.0269984 0.17394485 -0.30076477 0.14708656 0.5383315 -0.35929573 0.09294751 -0.19372569 -0.043073982 -0.26521173 -0.4706801 0.07557701 0.19168466 0.6902458 0.85580134 0.560967 0.058975108 0.20666742 -0.22441198 -0.13778146 0.07664669 0.20522901 0.5377666 -0.49210605 0.4763753 -0.6457707
31 0.086776435 -0.029249823 0.6277725 -0.32377118 0.18018678 -0.6059467 -0.042118125 0.05730381 -0.5322399 -0.28403926 1.156125 -0.61079246 -0.34857857 0.12369794 0.19525203 -0.33425164 -1.0661919 -0.029999891 0.2683629 0.629507 -0.29354957 0.6239647 -0.14931914 -0.57248825 -0.2923241 -0.618755 -0.46307874 -0.009785437 -0.23626556 -0.19982174 0.21396123 0.41664842
1056 0.7606421 0.42607555 0.5968296 -0.7418726 0.4417772 -0.8803688 -0.024235228 0.2611792 -0.7517093 -0.037933704 1.0869386 -0.47899017 -0.41586992 -0.0769862 -0.089188084 -0.19910748 -0.29212216 -0.6540177 0.36739242 0.8829716 -0.5016234 0.8959146 0.4596794 -1.1724029 -0.66055876 -0.9318063 -0.5052585 -0.8352432 -0.23604138 -0.59978914 -0.03451978 0.796399
37 0.28968284 -0.6207153 0.30417305 0.02451234 0.19506527 -0.38995415 0.14023638 0.10684717 -0.34846172 -0.17336246 0.32498166 -0.05432072 0.16389196 -0.2064393 0.14940147 -0.09055771 -0.41053256 0.1754842 0.7605236 0.6794873 0.13355011 0.61091626 0.12563999 -0.11083059 0.0070088506 -0.4205677 0.14639336 0.21745893 0.14194965 -0.51661634 -0.16059573 -0.3313482
42 0.26826295 -0.72128415 -0.010645117 -0.2693855 0.1842908 -0.69330657 0.047220632 0.17593247 -0.5452182 -0.08616443 0.4518323 -0.07488897 -0.19833732 0.78573 0.36785626 0.27299812 -0.52426887 0.43527308 0.6386035 0.68986285 0.108777985 0.32367492 0.8374389 0.19858232 -0.15926464 -0.39554638 -0.3490644 0.46119434 0.08911405 -0.4616133 -0.19863962 -0.2837028
43 0.4514521 -0.39970842 0.6144906 -0.07593591 0.13860248 -0.21927838 0.3154077 0.3950104 -0.14919756 0.004629897 -0.05812888 -0.09007092 0.21603101 0.28988722 -0.015450259 -0.0052512703 -0.29102778 0.03626654 0.70303404 1.188451 0.10435154 0.757836 0.30017284 -0.08926194 0.05349682 -0.8557878 0.1990487 0.04580829 0.3760941 -0.46251348 0.066745065 -0.04181635
52 0.79004633 -1.1997359 0.23414834 0.52396214 0.120609105 -0.5260713 0.027371325 0.98998624 -0.7544868 0.010794928 0.48218572 -0.53161275 0.02201845 0.9251789 -0.23716603 -0.23303394 -0.43479845 -0.22255534 0.21321875 0.39108586 0.4519709 0.16225247 -0.087628774 -0.084266834 -0.38145372 -0.81701946 -0.356667 0.40339565 0.3139343 0.35784164 0.19700347 0.011198163
579 0.61302763 -0.6585207 0.053168338 -0.27239755 0.31716642 -1.2542688 0.332083 -0.13800818 0.040194824 0.1590178 0.6381746 -0.4815549 0.21330602 0.11882139 0.1511103 -0.2707218 0.16452692 0.29854295 0.16397364 0.70022655 0.23205622 0.8159052 -0.24525449 0.31043842 0.03214829 -0.052674748 -0.15769151 0.21997978 0.15611118 -0.7099669 -0.08294136 -0.7368767
582 0.7403762 0.10900241 -0.3725764 -0.022612318 -0.011719654 -0.49483868 0.4388455 0.6207093 -0.7246907 -0.39776027 0.1285965 -0.3372709 0.9782099 -0.121263266 -0.27047312 0.03788633 -0.22128299 -0.74556196 0.064942755 1.0321544 -0.053211052 0.65536207 0.40771955 0.11623207 -0.24392536 -0.4576453 -0.51614386 -0.45840856 0.45916227 -0.3057772 0.07576478 0.543383
604 0.6378472 0.22344553 -0.71170086 0.64975125 0.52173 -0.5938423 -0.06221267 -0.16095594 -0.82521725 0.100979365 -0.111793555 -0.48814413 0.6496503 -0.18449475 -0.041190524 -0.40744177 -0.4917621 -1.0846113 -0.69944346 0.9944236 0.039359365 0.24136645 0.2434312 -0.31609192 0.0568973 0.024351709 -0.30141515 -0.061930526 -0.21694128 -0.66482294 0.37094787 0.6617367
1119 1.310179 0.33459023 0.02416203 -0.20750573 0.12240025 -1.2176291 0.25989026 0.16434214 -0.95693684 -0.6869741 0.435386 -0.26426786 0.5176599 0.37097672 0.08363148 -0.4041165 0.06484786 -0.94263995 -0.22198595 0.7426839 -0.4561147 0.92008007 0.20308843 -0.3729341 -0.13584544 -0.36688545 -0.43603584 -0.36195275 0.074037686 -0.35895297 0.39736733 0.3054341
106 0.45377105 -0.3153509 0.6573592 -0.13239819 0.15492126 -0.7306423 -0.08358062 0.21275283 -0.511458 -0.11816792 0.6981659 -0.05921134 -0.34783003 -0.29992697 -0.023732007 -0.29949653 -0.61111355 -0.040401626 0.18522073 0.4324901 0.14851704 0.6477989 -0.02016085 -0.8447416 -0.0076577403 -0.70462435 -0.17647743 -0.23131101 -0.117560185 -0.26304233 0.29708862 0.13245364
123 0.16946694 -0.22559755 -0.41586423 0.04365882 -0.22885974 -0.20989361 0.7893531 0.6308025 -1.1047965 -0.21013302 -0.11141345 -0.1414467 0.9743581 0.18801604 -0.32800868 -0.5508811 -0.2958349 -0.75164205 -0.6042464 0.74652594 0.061045382 0.49733514 0.010139382 -0.50463563 -0.2875242 0.4363376 -0.56272763 -0.31760213 0.19895132 -1.1648685 0.34002396 0.26902965
128 0.14962609 -0.23003504 -0.3510187 0.14165048 -0.10804487 -0.07812061 0.49294055 0.49298993 -0.6857222 -0.15480442 -0.30507678 -0.57757324 0.89554024 0.055728916 -0.30723795 -0.48911613 -0.21411952 -0.72179335 -0.69481033 0.7576194 -0.16590425 0.6786838 0.016031992 -0.15725537 -0.16034171 0.25255728 -0.52053475 -0.20936391 -0.10644902 -1.1114916 -0.076268874 0.37866756
142 0.41769263 -0.2531666 -0.08615495 0.06350001 -0.01664584 -0.7335146 0.18996254 0.3318709 -0.60267305 -0.25405803 0.2145622 -0.3386224 0.64927053 -0.50607497 0.024937175 -0.12702042 -0.60202825 -0.41684598 -0.06968616 0.67716897 0.28305322 0.48355514 0.10529213 0.03528324 -0.03908693 -0.39611647 -0.19517116 -0.26869047 0.46596155 -0.42884383 0.5208319 0.18071519
667 0.3441384 -0.7496813 0.50001204 -0.20455913 0.07819027 -0.49625826 0.24393345 0.19248842 -0.38950095 -0.30628443 0.48937526 0.48163465 -0.12063751 -0.28767267 -0.6528993 -0.33601615 -0.31947666 -0.23242608 0.23828322 0.3253311 -0.1087525 0.9109089 -0.38449916 -0.71098393 0.12393639 -0.9591805 -0.07729959 -0.23027796 -0.26462218 -0.19922137 0.26150438 0.021868153
162 0.044920906 -0.8915743 0.6331098 -0.37013066 -0.23659807 -0.36022434 0.1295536 -0.091358 -0.44247207 -0.093195505 0.77140826 -0.014348794 -0.18625672 0.23106678 0.17748427 -0.48359314 -0.7721385 0.28675884 -0.017287713 0.22942269 0.112145066 0.7546785 -0.3044607 -0.8091218 0.33949608 -0.41780293 -0.316011 -0.024292422 -0.55267143 -0.24824142 0.032409888 -0.016627135
677 0.27672908 -0.19831176 -0.10584319 -0.2961075 -0.31097245 -0.6147001 -0.04848773 0.3689211 -0.37757596 -0.33579445 0.47954828 -0.2822387 0.29632676 -0.37540844 -0.08536776 -0.1403817 -0.52805895 -0.48684296 -0.1101062 0.71584386 0.08882049 0.79013234 0.055889282 -0.042881068 -0.0024480962 -0.62583 0.029630894 -0.009123988 0.58934623 -0.707715 0.09039955 0.05889603
166 0.18938044 -0.8404457 0.07616803 0.045763254 0.14492463 -0.60009456 0.13369048 0.24860561 -0.59565234 -0.40698475 0.25823227 0.045797117 0.08119614 -0.3682826 0.060570344 -0.041721396 -0.65359294 0.14240038 0.5889211 0.51708955 0.57395506 0.5098895 0.060406215 -0.3869594 0.20072225 -0.08878413 -0.25310138 0.26250568 -0.12248407 -0.105896875 0.556881 -0.1403015
2221 1.7201581 -0.493352 -0.05679674 -0.08331598 -0.044051405 -1.4567313 0.35648486 -0.0728701 -0.95970744 0.13055493 0.42991555 -0.54154384 0.49415132 0.8489758 0.3272125 -0.20105828 0.78048563 -0.45907885 -0.6544993 1.0091223 -1.0713367 0.6458639 -0.427736 0.1754492 0.2758994 -0.31647322 -0.43646577 -0.25183538 0.51902163 -0.55355376 0.07145957 -1.0362203
2228 1.6315869 -0.27019972 -0.2276794 -0.31265303 0.22304516 -1.5955746 0.1789184 -0.16642727 -0.8277384 0.12420929 0.40662962 -0.45005322 0.25187 0.46021983 0.39541572 -0.2410767 0.6391008 -0.44508424 -0.54887307 0.9567396 -0.8302775 0.7500424 -0.29101938 -0.22277646 0.38817307 -0.2695935 -0.44172794 -0.20831124 0.46873134 -0.55325043 0.09947741 -0.939091
188 0.61753565 -0.07801467 0.38243756 -0.25120252 0.14729679 -0.6692989 0.0040708473 0.1686805 -0.44277292 -0.15275209 0.72534347 -0.34370425 -0.11284536 -0.3857981 -0.10109016 -0.070864476 -0.47667047 -0.08818067 0.35423005 0.80768275 0.26946566 0.6279052 0.39816913 -0.5443764 -0.37557384 -0.7944312 -0.19720203 -0.2962326 0.20047253 -0.19090073 0.123400584 0.30017328
2253 1.3161781 0.23211591 -0.0026382443 -0.11530008 0.006680923 -1.1445613 0.306538 0.038932122 -1.0605828 -0.7313807 0.51106364 -0.41860142 0.4246917 0.31272894 0.15052934 -0.632218 -0.17117499 -0.80805343 -0.09382092 0.70051485 -0.80329466 0.7254709 0.3088503 -0.3596827 -0.13303667 -0.5191342 -0.42491385 -0.35022587 -0.007830563 -0.22505008 0.12782386 0.21304347
1237 0.9058208 0.73568344 0.7700485 -0.3418284 0.5903286 -1.0712602 0.22394238 0.1815995 -1.0219308 0.81757736 1.3117728 -0.4774369 -0.6489115 -0.00086060143 -0.009078225 -0.24963216 0.15418604 0.031515352 0.35567418 0.9590348 -0.1741581 1.2551298 0.4505718 -1.4609815 -0.6748478 -0.7208429 -0.4871794 -1.6724228 -0.75405055 -0.51144314 -0.1946267 1.0219961
2272 1.0385165 -0.21843977 0.26545888 0.6545127 -0.2797705 -1.2110962 0.063413285 0.5498622 -1.3960373 -0.3914806 0.84592485 0.29330996 0.33780327 0.13406508 -0.027777523 -0.9302086 0.55695647 -0.92214906 -0.6341402 -0.14537162 -0.88460344 1.4643719 0.18752636 -0.8889236 0.5862914 -1.2467421 -0.451678 -0.5816684 -0.75840104 -0.21680556 0.5650703 0.20193404
236 0.50885403 -0.5628021 0.43170255 -0.0733153 0.5192187 -0.22791423 0.49759316 0.37655234 -0.47696748 -0.06234951 -0.065823525 0.061136935 0.2607693 0.24273907 0.32748955 -0.4627634 -0.36774594 0.040672608 0.9239091 0.94691175 0.16521345 0.72596747 0.15098609 -0.10208711 0.066567354 -0.45340267 0.1628668 -0.015564451 0.22771521 -0.13973857 0.23741305 -0.14758845
778 0.36257604 -0.11889687 -0.49612546 0.3430399 0.17536153 -0.22802372 0.24386056 0.16619883 -0.33168766 -0.041242562 -0.23078637 -0.5424426 0.8504376 -0.22600189 -0.26879838 -0.4927512 -0.45713246 -0.83017373 -0.8094427 0.90861267 -0.3445744 0.60047954 0.078854315 -0.21987075 -0.14508615 -0.21377458 -0.23304024 -0.40508768 -0.31043112 -0.7999552 -0.19536352 0.5285032
786 0.48500326 -0.08762389 -0.4409617 0.33552578 0.2474104 -0.35804716 0.15550578 0.2561615 -0.4072019 -0.07755507 -0.2736176 -0.4322723 0.8601092 -0.2684162 -0.40669805 -0.41746604 -0.3933978 -0.9473504 -0.7203158 0.9057476 -0.3031862 0.44120738 0.07887655 -0.14736578 -0.12369761 -0.1992538 -0.16319273 -0.38727772 -0.17657526 -0.81216955 -0.16544978 0.49361518
1816 0.799686 0.50637 0.7152097 -0.59246963 0.49993262 -0.94529176 -0.04899204 0.14821334 -0.80153084 -0.07151215 1.0361714 -0.5521141 -0.44982752 0.025013547 0.045764115 -0.34019586 -0.39379933 -0.5168924 0.25901443 0.8803107 -0.5713908 0.94488794 0.3243775 -1.1101489 -0.8358897 -0.99936825 -0.6042132 -0.80505586 -0.20936342 -0.6665365 0.15925415 0.7883982
1817 0.9455468 0.4463475 0.636781 -0.7300771 0.44647545 -0.8461412 0.0004914592 0.08711312 -0.78478974 -0.061646007 1.2348857 -0.5604677 -0.49415588 -0.037991215 0.10497418 -0.22191213 -0.21273291 -0.50304526 0.20980889 0.89413697 -0.37104124 1.0783539 0.39161712 -1.2220597 -0.87160707 -0.96628374 -0.46512952 -0.87678826 -0.2501964 -0.65957236 -0.12696856 0.79852146
1818 0.6977478 0.15880118 0.42665172 -0.90261525 0.17469072 -0.4941291 -0.05352826 0.33159384 -0.6218667 0.004086674 1.163333 -0.62256867 -0.3915375 0.12533969 0.20555636 0.21192057 -0.07601975 -0.49313754 0.22412066 0.8150695 -0.8290549 0.7050229 0.36960864 -1.1252065 -0.21383062 -0.8573872 -0.45033115 -0.6877882 -0.22661285 -0.46386942 -0.31707984 0.87102914
1819 0.74549484 0.5171733 0.7028639 -0.6873123 0.3237661 -0.95876575 -0.06666437 0.23921885 -0.82151943 -0.07924876 1.3104368 -0.5497286 -0.4668759 0.06183394 -0.13645011 -0.17805241 -0.33240813 -0.6315181 0.25508118 0.84024096 -0.50194263 0.9705227 0.23031086 -1.1625463 -0.64606065 -0.89767414 -0.5018991 -0.76676387 -0.37308976 -0.74461067 0.09909766 0.9861836
830 0.40594104 -0.62581366 0.3523899 0.36581042 0.28311276 -0.69525266 0.33522016 0.35077462 -0.47338682 -0.5121898 0.64752954 0.033324998 0.13960175 -0.087982684 0.34291145 -0.0074493955 -0.37227586 -0.046898033 0.194066 0.47711357 0.47546253 0.77386355 -0.38393396 -0.0859121 -0.17355458 -0.7291558 -0.36115566 -0.17100967 -0.3927066 -0.11278163 0.22033954 -0.27387777
319 -0.009809766 -0.38095057 -0.011783206 0.18275756 0.02966347 -0.22990651 0.63478166 0.5166014 -0.64244 -0.49856883 1.0228368 -0.5523727 0.35960606 0.050296634 0.29781276 0.6297932 -0.24784842 0.26710638 0.331445 0.65912783 0.46081638 0.7502685 0.12791768 -0.0069695325 -0.19567016 -0.57842964 -0.51465124 0.35045722 -0.20189127 -0.022593973 -0.052297574 -0.2740434
318 0.72252107 -0.705039 -0.23200329 0.71174186 -0.22371925 -0.54903835 0.16978738 1.195691 -1.218753 -0.48390797 0.5598031 -0.16352864 -0.23629075 0.49997735 -0.5528692 0.19524136 -0.0039319065 -0.20289153 0.319637 0.24768296 0.06405203 0.81463003 -0.3064246 -0.30132246 -0.42050248 -0.8886682 -0.5014055 -0.0791643 0.051098302 0.27684888 0.75688446 0.2018571
835 0.8802664 -0.5098798 -0.30833197 -0.511746 0.21138874 -0.33789876 -0.41357577 -0.31352675 -0.3518584 0.26191336 1.0427024 0.20451385 0.74182606 0.19271442 0.33558103 0.5805933 -0.1790374 0.038711175 0.2573357 1.1359382 -0.53891313 0.2581852 -0.5418052 -0.8675591 0.34033856 -0.042627916 -0.54034114 0.28663948 -0.10665637 -0.24285693 0.72638565 -0.74291754
324 0.32471347 -0.28621674 0.12418341 -0.04174209 -0.07914817 -0.5526607 0.123342596 0.115799084 -0.28929833 0.001265096 0.75310475 0.41211906 0.6888839 -0.12871821 -0.1657174 -0.39424732 -0.5026864 0.053146224 0.8610288 0.48695675 -0.1913952 0.5568974 0.06895828 -0.3222805 -0.06174146 -0.2267417 0.08912555 0.3665549 0.09913479 -0.7827602 0.13571224 -0.29289034
836 0.3110161 -0.6727713 0.2505762 -0.026583143 0.53537536 -0.9105193 0.10870911 0.32546043 -0.91279924 -0.033911914 0.52579904 -0.18129434 0.037652235 0.33497235 0.0021839743 -0.10242992 -0.64263344 0.11209139 0.20252545 0.39314243 1.2074482 0.5314532 0.13443415 0.013795531 -0.17702608 -0.43801266 -0.22112282 0.024718298 0.1205899 -0.016562764 0.6139705 0.060436524
327 0.15281431 -0.4345733 0.3231423 -0.4552259 0.19404335 -0.8319903 -0.08947102 0.18401009 -0.28045505 -0.20758863 0.46869767 -0.16136934 0.16191252 -0.28773987 0.2307888 -0.053372808 -0.6171558 -0.016832078 0.11045594 0.7418274 0.81128335 0.86076754 -0.048166294 -0.031734083 -0.007884457 -0.43247834 -0.11365855 0.044470493 0.22534314 -0.35705787 0.5022804 -0.17128591
335 0.5911953 -0.26883486 -1.1008048 -0.17494673 0.47370595 -0.22325951 0.23561329 0.85947716 -1.1823958 -0.32526758 -0.0424503 -0.56401473 1.152038 -0.24252975 -0.60228205 0.21622786 -0.3820268 -0.86185324 -0.2710457 0.55611587 -0.35795233 0.74873513 0.20769686 0.63623595 -0.17999953 -0.10259485 -0.6267252 -0.38646668 0.34397954 -0.19248936 -0.0786683 0.44544664
1873 0.8692966 0.04994143 -0.54058033 0.16595304 -0.034581866 -0.46346033 0.4668993 0.49411365 -1.0781237 -0.62488407 0.24642055 -0.25698507 1.09148 -0.7947139 -0.100891314 -0.23811297 -0.101087086 -1.0432562 -0.7692686 0.85151845 -0.51884717 0.39252612 0.08664176 -0.28975794 -0.36014464 -0.29184708 -0.3858618 -0.103479944 0.33425048 -0.8450526 0.29435906 1.0459862
1908 0.8210145 0.07784379 -0.55509114 0.19519164 -0.058380205 -0.54100996 0.47086126 0.46458372 -1.0260338 -0.5839962 0.15665248 -0.33712575 1.1550784 -0.43619412 -0.14403063 -0.30411243 -0.40893874 -0.7834576 -0.5868751 0.9345439 -0.26930812 0.6309626 0.039724752 -0.12883961 -0.32004526 -0.3359423 -0.6116836 -0.33279553 0.4681337 -0.47254592 0.15242647 0.7670973
1909 0.720015 0.026137967 -0.51694345 0.07769133 0.050665524 -0.47171244 0.4144514 0.52233964 -1.0316966 -0.6218444 0.057534426 -0.32706958 1.0983018 -0.48143312 -0.17938884 -0.204018 -0.4343428 -0.93646723 -0.60850614 0.8604471 -0.14862975 0.59848696 0.055330932 -0.106278785 -0.3393433 -0.40747514 -0.5942935 -0.3107049 0.42426693 -0.40376574 0.0974736 0.73886824
374 0.16980062 -0.78104603 0.28865138 0.38961667 -0.2679875 -0.39608815 0.17218655 0.4773938 -0.19887365 -0.27676782 0.38145596 0.410827 0.49859574 -0.11367159 0.46151605 0.54520863 -0.089247584 -0.1830597 0.40445286 0.92576426 0.1055439 0.2926136 -0.14078294 0.47988263 -0.030459622 -0.291389 -0.32451034 -0.26510936 -0.24935113 -0.06350726 0.011913037 -0.0067560365
1911 0.75915533 0.111034706 -0.48940596 0.18131024 0.0037292268 -0.56887966 0.518692 0.38029122 -1.1859586 -0.6210752 0.15811047 -0.43836495 1.1615852 -0.5071769 -0.17200269 -0.26536915 -0.49140644 -0.8380345 -0.8849407 0.916838 -0.2244138 0.594368 0.08003415 -0.123177975 -0.24893568 -0.3378156 -0.40200713 -0.28037903 0.32120356 -0.6651033 0.18810597 0.75959545
1912 0.77926034 -0.026664145 -0.5167387 0.20747037 0.0859821 -0.50975645 0.48590162 0.39726576 -1.0815067 -0.55586165 0.048876736 -0.37753648 1.1411036 -0.47535214 -0.27122048 -0.20391607 -0.43726674 -0.8214583 -0.7595489 0.89112175 -0.21161866 0.52190405 0.103217386 -0.13860881 -0.32279858 -0.28486517 -0.4552185 -0.32595572 0.3762921 -0.7561002 0.290228 0.77299464
1913 0.6889269 0.02358796 -0.5747942 0.13307923 0.057309438 -0.47164246 0.43682072 0.6089652 -1.0581548 -0.58696854 0.124197856 -0.38195625 1.2292323 -0.38161197 -0.2800299 -0.16951609 -0.35312188 -0.88094413 -0.5905808 0.89531946 -0.19318213 0.533751 0.08647541 -0.04377359 -0.31120786 -0.293157 -0.61200374 -0.25907788 0.43346405 -0.52281713 0.0572861 0.7152563
1910 0.7196751 0.030990252 -0.547056 0.102050535 0.051785488 -0.49162674 0.4313427 0.49337688 -1.0220891 -0.5224775 0.10012995 -0.38654536 1.1931567 -0.38239223 -0.13726673 -0.23636933 -0.3256594 -0.8974221 -0.6863301 0.95081407 -0.28016573 0.5631536 0.008305015 -0.114668116 -0.22534893 -0.3202647 -0.5653768 -0.29651338 0.44868353 -0.5381281 0.101758234 0.7644652
900 0.74076986 -0.6607397 0.4760847 0.14995527 0.3681573 -0.8248327 0.42265397 0.42771107 -0.7524141 -0.23935942 0.43812197 -0.07328197 -0.13426004 0.3029252 0.16655262 -0.12718306 -0.07432555 -0.22269595 0.071768895 0.5269467 0.605371 0.8582238 0.42537975 0.028017648 -0.10948067 -0.82450193 -0.19610904 -0.098996095 0.15011856 -0.14961576 0.25519887 0.034205213
1981 0.4376961 0.07047204 -0.5675362 -0.13595338 -0.019932067 -0.58355653 0.45099896 0.72054607 -0.96520627 -0.56363386 0.28386497 -0.09086672 1.0776241 -0.25734374 -0.14747535 -0.20160222 -0.21198668 -0.8495477 -0.46685883 0.8558182 -0.33507833 0.8130666 0.199715 0.058982156 -0.29747668 -0.28563738 -0.6273875 -0.5028627 0.4312453 -0.5729088 0.02093437 0.5255159
1982 0.5721569 0.07123954 -0.53771853 -0.082412794 -0.12231251 -0.71451485 0.3734717 0.663041 -0.95413816 -0.52541083 0.21709661 -0.16755915 1.0690415 -0.33663037 -0.10894578 -0.25020665 -0.28335062 -0.93850327 -0.38552275 0.778826 -0.24292193 0.6540407 0.09508244 0.08227699 -0.2661515 -0.2862977 -0.47592008 -0.4585004 0.40192637 -0.49594674 0.10971931 0.5918834
1983 0.6516553 0.012258714 -0.56751865 -0.019412307 0.033297107 -0.5348373 0.526264 0.70263374 -1.023589 -0.6591324 0.119065285 -0.3172577 1.2103857 -0.33366725 -0.046922944 -0.14174302 -0.35147947 -0.8645388 -0.40075734 0.87082636 -0.23607948 0.6931026 0.12345896 0.18187344 -0.26584935 -0.3358845 -0.52682513 -0.37666512 0.41913962 -0.5481668 0.11528862 0.6858211
1984 0.5359742 0.13259704 -0.50343645 -0.0012887492 0.022943709 -0.65848285 0.5191238 0.69789916 -0.9996614 -0.67780626 0.121774554 -0.23004961 1.2328345 -0.33061576 -0.18194501 -0.19043879 -0.32210642 -0.86907154 -0.5674114 0.8715826 -0.2835428 0.58813214 0.09882051 0.060451217 -0.39303404 -0.2644494 -0.5472002 -0.3284223 0.35324827 -0.63121665 0.11079291 0.63484514
1985 0.5447055 0.005900441 -0.48095053 -0.08283082 -0.040470634 -0.61652243 0.55644083 0.67695117 -0.8978958 -0.61771125 0.23895316 -0.15232821 1.2463732 -0.30129924 -0.062392537 -0.23230669 -0.26546434 -0.862903 -0.45972618 0.9141721 -0.29628044 0.59687185 0.09715659 0.023673201 -0.25404656 -0.2614403 -0.5971359 -0.41576457 0.34116197 -0.55709064 0.08260337 0.7784995
1986 0.50620455 0.073032655 -0.45748454 -0.085243806 -0.088844724 -0.5737377 0.61371434 0.622317 -0.93212163 -0.6154779 0.15709426 -0.23858912 1.158483 -0.3293673 -0.09876798 -0.1345307 -0.31381714 -0.87306416 -0.39780205 0.83931714 -0.19226658 0.72263485 0.027433671 0.13750243 -0.29035777 -0.25349662 -0.5754516 -0.44343555 0.3479098 -0.5774617 0.22517285 0.6895502
1987 0.56710404 0.06755784 -0.49861214 -0.052468494 0.037613872 -0.62782645 0.45084313 0.651988 -0.9489091 -0.6675137 0.13409124 -0.18132477 1.1722172 -0.3606369 0.052581422 -0.15973805 -0.3501128 -0.93408835 -0.45221078 0.9189479 -0.12891619 0.59530246 0.061183047 0.10168807 -0.34531158 -0.33316243 -0.5727752 -0.3871772 0.40009817 -0.52815855 0.13078037 0.67576945
1988 0.60070723 0.11862017 -0.47918853 0.0005719546 -0.06612272 -0.5471497 0.5593602 0.65517825 -1.0165656 -0.6286575 0.05066581 -0.15011929 1.1873178 -0.40870586 -0.15953147 -0.14472403 -0.29595295 -0.892456 -0.5161047 0.8951047 -0.20152526 0.6829956 0.1381459 -0.05802338 -0.25044367 -0.24853955 -0.64268994 -0.24891448 0.3992257 -0.62172675 0.19227383 0.69791234
1989 0.58100843 0.07478834 -0.5212671 0.08030464 0.014650453 -0.61020625 0.45566547 0.6208143 -1.0286437 -0.57530427 0.07322903 -0.18836477 1.1306044 -0.41824865 -0.06288313 -0.20284542 -0.36342856 -0.936325 -0.54546523 0.81709313 -0.15658812 0.6775806 0.121236816 -0.048329968 -0.27197883 -0.30511454 -0.5509228 -0.3219903 0.45104238 -0.59168714 0.25574696 0.65913486
1990 0.5890629 0.06378691 -0.6026382 0.029969994 0.007048095 -0.5129884 0.40410787 0.6367616 -1.0197079 -0.63296354 0.16920415 -0.19749603 1.1974097 -0.4732398 -0.07611111 -0.27562 -0.32345024 -0.97746176 -0.50103945 0.86435425 -0.28107718 0.5781004 0.07433292 -0.030887833 -0.29722717 -0.2817683 -0.5664456 -0.27278107 0.49506643 -0.56581086 0.12379581 0.77932554
1991 0.6580032 0.08661548 -0.5219063 0.025252404 0.029980922 -0.6186984 0.5177856 0.6063385 -0.9869689 -0.5257702 0.16670516 -0.22975251 1.1947271 -0.36872497 -0.15178968 -0.30655974 -0.30441403 -0.9473209 -0.5343193 0.8810853 -0.1813041 0.5363454 0.122890025 -0.056619998 -0.3053181 -0.26987737 -0.51871955 -0.3169653 0.51111346 -0.5498953 0.20120443 0.6358583
1992 0.7139694 0.06838876 -0.58222413 0.062756844 -0.0013121385 -0.5535269 0.4757426 0.46657744 -1.0226561 -0.6268917 0.05410074 -0.2345774 1.076375 -0.4873423 -0.17901744 -0.1866249 -0.35698405 -0.92426217 -0.44813347 0.8927806 -0.2524152 0.5788585 0.15120634 -0.11462152 -0.27309594 -0.35316297 -0.52356535 -0.26947975 0.46383083 -0.47208127 0.12316689 0.6939151
1993 0.6551659 0.09284818 -0.57325923 0.11507117 -0.021049824 -0.4515572 0.564774 0.51546115 -0.9464972 -0.53057027 0.028724069 -0.26844886 1.1454608 -0.36706558 -0.1443385 -0.2263041 -0.30125165 -0.8689008 -0.503522 0.95073915 -0.11961204 0.6100079 0.11435839 -0.07695936 -0.2978778 -0.28339174 -0.55934274 -0.25704038 0.4366344 -0.5514094 0.079981744 0.65537876
1994 0.69281876 0.06158033 -0.49336055 0.06416957 -0.09536766 -0.6042108 0.5315531 0.5317498 -0.9842617 -0.5706035 0.13003819 -0.2503793 1.2272155 -0.45550022 -0.14742237 -0.11951441 -0.42206028 -0.87228924 -0.5433495 0.8928134 -0.24741547 0.5551659 0.14706759 -0.070475414 -0.27086923 -0.30022603 -0.6023184 -0.37302864 0.4255268 -0.47979507 0.10036041 0.69456476
1995 0.72431576 0.07347014 -0.5683503 0.082810335 0.0433553 -0.47697446 0.4917881 0.5587284 -1.0941231 -0.60414803 0.07619349 -0.26488242 1.1379066 -0.43385327 -0.25434294 -0.22321478 -0.4398982 -0.91806805 -0.54912925 0.8880681 -0.19375491 0.57818997 0.1369609 -0.15847245 -0.3481369 -0.3526098 -0.5721256 -0.29896206 0.4818815 -0.54325324 0.2029443 0.782672
1996 0.77002877 0.009300379 -0.57972443 0.22018945 0.08269743 -0.4963682 0.36216828 0.47866824 -0.9920447 -0.4995112 0.084226176 -0.34423605 1.2417711 -0.55299217 -0.2791344 -0.25743598 -0.39075106 -0.84580564 -0.6337808 0.9061393 -0.21737236 0.5774174 0.060700912 -0.11046603 -0.30356342 -0.38613024 -0.61884326 -0.29694128 0.47800007 -0.50661516 0.09975604 0.7473751
11 0.79846656 -0.5598125 -0.36896577 -0.4965673 0.3230936 -0.24526925 -0.46983418 -0.15773453 -0.40001687 0.47801495 0.6008224 0.18557099 0.56135684 0.53183043 0.19385065 0.9449215 0.07752771 0.13384676 0.35277876 1.6290525 -0.78903687 0.19075626 -0.9393252 -1.0381885 0.1920498 -0.286012 -0.59588695 0.4681213 -0.058914706 -0.16112725 1.1920216 -0.81413245
1536 0.90948015 -0.65194154 -0.33614323 -0.65852547 0.35909128 -0.21765059 -0.4939504 -0.22196887 -0.30160457 0.46339613 0.9577592 0.19000208 0.7353585 0.29066223 0.34339646 0.9180011 -0.12531126 0.098939255 0.2664276 1.682253 -0.774736 0.19646113 -0.6591927 -0.9206982 0.36973643 -0.30861148 -0.6374871 0.3624386 -0.11818083 -0.19324599 0.9664237 -0.8839667
1537 0.9380798 -0.5713054 -0.40221334 -0.6747802 0.2509358 -0.15713637 -0.60866326 -0.3295527 -0.37184775 0.5250276 0.8415685 0.13980317 0.7131784 0.28617677 0.48596305 0.81096363 0.012941554 -0.07205295 0.13528727 1.6459445 -0.88546574 0.2860627 -0.69887716 -1.0216911 0.33380756 -0.2732195 -0.57477117 0.3384002 -0.009023456 -0.23167534 1.004954 -0.8964036
1538 0.94831795 -0.60019696 -0.36723992 -0.6014196 0.24189635 -0.17163244 -0.6031402 -0.20503439 -0.3383387 0.46893048 0.90356475 0.20336097 0.66489923 0.30951962 0.41746953 0.8677928 -0.017629411 -0.052818287 0.26546475 1.6422204 -0.7837279 0.19037482 -0.60419625 -0.9958076 0.28437653 -0.24499117 -0.6246003 0.37142634 -0.07018077 -0.20779985 0.82244164 -0.9101176
1527 0.9520618 -0.6882236 -0.38393778 -0.56891906 0.31297863 -0.19487444 -0.46826404 -0.2183607 -0.3407109 0.4076304 0.92495507 0.2706621 0.772976 0.31656593 0.28968292 0.84423167 -0.022231204 0.03877631 0.31018713 1.6197681 -0.78913784 0.13584061 -0.67427766 -0.98350084 0.27937767 -0.23973483 -0.6361864 0.44748658 -0.081683554 -0.15517934 0.9342431 -0.8241096
1528 0.97959465 -0.6552426 -0.44539937 -0.621124 0.3951313 -0.1050558 -0.52985424 -0.26559803 -0.37392488 0.42980194 0.88735306 0.17657398 0.6092074 0.2615105 0.4864482 0.793143 0.018913003 0.053949937 0.23478217 1.6449822 -0.80649424 0.20600653 -0.5568991 -1.0982553 0.20301652 -0.27531976 -0.71144074 0.41435847 0.032727137 -0.2511509 1.0152214 -0.7611442
12 0.7391998 -0.59677327 -0.17171444 -0.37371823 0.046330683 -0.15410829 -0.566014 -0.18046586 -0.5927001 0.5032565 0.79898053 0.18580106 0.6493375 0.5686896 0.3108194 0.7346146 0.0540968 -0.103446275 0.4161482 1.5142157 -0.7159742 0.12750779 -0.83745825 -1.2468631 0.3413111 -0.10548991 -0.6822 0.4192271 0.06295022 -0.05002049 1.1820893 -0.67250466
275 0.877509 -0.82737774 -0.35972285 -0.5738434 0.04570704 0.17048669 -0.63951164 -0.39139837 -0.3117215 0.26547337 0.8977766 -0.05749901 0.47611883 0.113431096 0.51532423 0.79108554 -0.31412914 -0.24773505 0.0055836425 1.8609884 -0.9483609 0.11064425 -0.8794544 -0.8584905 0.5735197 0.13782984 -0.82179904 0.5680638 -0.038614243 -0.09179366 0.72965646 -0.6448586
1314 0.9928044 -0.7252428 -0.3672483 -0.59375954 0.28064865 -0.163227 -0.4219716 -0.3198583 -0.3631038 0.4125994 0.8394528 0.2129238 0.72468436 0.401255 0.33931264 0.77080077 0.06730548 -0.014361974 0.29568315 1.6822848 -0.84714985 0.1786558 -0.68851805 -1.0040114 0.32997984 -0.2235415 -0.7020009 0.36363956 -0.06537339 -0.16200526 1.0324699 -0.79837656
296 1.1162177 -0.96735007 -1.236388 -0.8013174 0.2115953 0.036460616 -0.73132867 -0.27205926 -0.34038094 0.8088912 0.4996947 -0.54506266 0.46103483 -0.57516146 0.90456927 0.35229677 0.2939995 0.34535766 0.101379335 1.0499982 -1.109617 0.22811957 -0.54591 -1.1993937 0.2969205 0.34705094 -0.4281739 0.3607472 -0.27819282 0.18933028 0.9548468 -0.5869203
816 0.7027559 -0.5093953 -0.3908729 -0.5360146 0.28193703 -0.30462742 -0.46338832 -0.24538638 -0.27760887 0.36482295 0.60375005 0.2512318 0.52110296 0.61902064 0.15222245 0.91515136 0.021946713 0.050035365 0.35307473 1.6796998 -0.8045638 0.20445909 -0.81082225 -1.001489 0.2852833 -0.28994262 -0.5419329 0.53656954 -0.06825727 -0.18912365 1.051949 -0.82353914
1330 0.51760495 0.15371428 -0.35460642 -0.15678434 -0.06253111 -0.43879852 -0.10809321 -0.7683466 -0.40646684 0.3352608 -0.54336274 -0.020439317 0.23215115 0.66776454 -0.11128399 1.3452882 -0.07793539 -0.43476298 0.6184217 1.601032 -1.5367761 0.78065014 -0.6734234 -1.4598453 0.0017395709 -1.305954 -0.29587832 0.5542606 -0.59900767 0.07723007 1.9126102 -1.0540304
1335 0.84583163 -0.100303516 -0.37906027 -0.6678796 0.12850456 -0.02584459 -0.4189054 -0.7293327 -0.17318226 0.13923714 0.025544424 0.037750706 0.36630866 0.16069017 0.6241314 0.9521476 -0.2001278 -0.41931075 0.19358566 1.4399393 -1.7126087 0.8519439 -0.3878371 -1.3127656 0.09469606 -0.70814914 -0.21791306 0.2620343 -0.589938 -0.27018082 1.1812555 -1.0719941
1340 0.628042 -0.40635476 -0.07154046 -0.093883194 -0.010678623 -0.4001365 0.03521239 0.05820391 -0.3651214 0.52079475 0.3928294 -0.007964848 0.77855843 0.2988518 0.26537326 0.6190819 -0.25551176 -0.002647534 0.32719576 0.9277241 -0.2096021 0.16618271 -0.48918858 -0.61956817 0.41886812 -0.32569572 -0.35937724 -0.050678015 0.11169317 -0.24757789 0.9004218 -0.7432742
316 0.32299682 -0.5352865 0.07057085 -0.22310942 0.2917184 -0.23143323 -0.039179925 0.053207837 -0.24282835 -0.05083165 0.24948895 -0.15539438 0.5179569 0.040674478 0.27779147 0.39881587 -0.23433754 -0.039911345 0.55835795 1.0225141 0.14289992 0.32802343 -0.04984037 -0.077615775 0.0725633 -0.39454645 -0.14947213 0.07037762 0.40732148 -0.40558603 0.18822911 -0.5542334
1491 0.25302365 -0.270217 0.12850022 0.19740596 -0.20006385 -0.33743042 -0.31315044 -0.18769763 -0.49003187 0.48569357 0.27331942 0.00023019244 0.46177083 0.6813477 -0.025465563 1.0652022 0.13243154 -0.1543084 0.7504449 1.4393075 -0.76154107 0.1559718 -1.2073798 -1.2257628 0.44781965 -0.4168247 -0.9140124 0.631709 -0.14996687 -0.19916816 1.4234649 -0.39972878
1493 0.61852056 -0.51946396 -0.21947776 -0.3900221 0.104355924 -0.2078891 -0.4712325 -0.18432543 -0.39075664 0.49505532 0.6482599 0.035692126 0.50551856 0.5734197 0.23568264 0.9153402 0.009315817 -0.02853421 0.4358969 1.5927778 -0.7957828 0.10853896 -1.047592 -1.1270944 0.32580185 -0.21274899 -0.66287994 0.45202202 -0.1832526 -0.12305923 1.2141424 -0.7295806
1494 0.20329563 -0.23148261 0.11964966 0.12929507 -0.09485854 -0.37857315 -0.30262715 -0.24945149 -0.4989132 0.5998946 0.37085262 0.07993493 0.3660714 0.7446546 -0.067498796 1.1088464 0.04667979 -0.09689237 0.7539583 1.44507 -0.7332871 0.17286183 -1.2396172 -1.2441264 0.4024737 -0.35829285 -0.8977534 0.70329523 -0.12640883 -0.20420212 1.3606907 -0.39395025
1495 0.7012858 -0.54432917 -0.15355827 -0.316318 0.10009182 -0.23091899 -0.29023734 -0.16343091 -0.5194728 0.52043384 0.850055 0.10953601 0.73581034 0.53745437 0.22936752 0.8982181 -0.16730128 -0.0053047086 0.55169266 1.5637279 -0.68984544 0.1842285 -1.0624515 -1.093495 0.43308905 -0.18036292 -0.85123634 0.35053483 -0.039219905 0.010261413 1.0374695 -0.7772992
1499 0.5306806 -0.8567748 -0.30073455 -0.16484012 0.34108058 -0.48013672 -0.06658417 0.10334855 -0.06372173 0.016181055 0.5989296 0.3320647 0.47806397 0.30707514 -0.09801392 0.6568542 -0.027956814 0.42682493 0.6250618 1.0172124 -0.27211383 0.05887132 -0.42513353 -0.34047586 0.65468967 -0.18698104 -0.47538015 0.64238095 -0.24106632 -0.20004345 0.28403834 -0.4899645
1500 0.38991004 -0.19579728 -0.08293616 -0.01913418 0.018666621 -0.5667828 -0.16770408 -0.24030942 -0.3829065 0.5796341 0.26387048 0.28139305 0.40528798 0.70000446 -0.32146472 1.46858 0.17070353 -0.0038575022 0.67231476 1.5273712 -0.68896055 0.25306532 -1.1103489 -1.0874028 0.24196373 -0.44943222 -0.85106754 0.67184263 -0.19013414 -0.30417022 1.5302643 -0.549496
1501 0.5017593 -0.21606301 -0.028676825 -0.033082344 0.02708723 -0.48831207 -0.0461476 -0.3772843 -0.25145674 0.62009376 0.0048844786 0.25098813 0.46898192 0.7833731 -0.17251411 1.5025996 0.16130614 0.10898322 0.5993433 1.6073357 -0.64151406 0.32774118 -1.0556376 -0.97876585 0.21205981 -0.52674836 -0.8019477 0.77567464 -0.1166852 -0.47081468 1.4538828 -0.6282575
1502 0.79294854 -0.57710934 -0.36331108 -0.44997108 0.33162072 -0.30684462 -0.331298 -0.20343474 -0.26739207 0.557409 0.6259697 0.15298396 0.5205103 0.57722765 0.16079563 1.0848585 0.07622405 0.15069026 0.53320175 1.7037586 -0.72545785 0.16161449 -0.97945523 -0.95702463 0.18348256 -0.25164393 -0.63353837 0.503761 -0.06710169 -0.31784707 1.1747797 -0.8276973
1503 0.44280538 -0.25147265 0.04020139 0.06834883 0.025685882 -0.4317565 -0.0785972 -0.3409771 -0.2778667 0.6918715 0.10079191 0.13986552 0.39029184 0.794411 -0.20735233 1.4974489 0.23298322 -0.015575491 0.7365496 1.6179234 -0.75571406 0.29947993 -1.0687468 -1.0071888 0.107213415 -0.5421478 -0.8372501 0.6483379 -0.18972246 -0.34187558 1.3626771 -0.6926402
1504 0.38918447 -0.76427865 0.086283915 -0.4888448 0.6032393 -0.054940995 -0.16815771 -0.07077894 -0.54411805 0.32705444 0.47669291 0.08084698 0.368335 0.41248408 0.12865677 0.9040379 -0.26514688 -0.11217548 0.08773536 1.1845679 -1.0639293 -0.07268665 -1.1602575 -1.0537738 -0.12192765 -0.6499385 -0.5039484 0.11115109 -0.135634 -0.1006207 1.1413758 -0.9794373
1512 0.93539387 -0.7157549 -0.4546333 -0.57937735 0.30228558 -0.21620789 -0.41846737 -0.16953583 -0.42252278 0.43014994 0.9365585 0.3491286 0.8530191 0.46933088 0.3057896 0.98766 -0.040904872 0.082935244 0.3834415 1.8133295 -0.6497036 0.24257316 -0.62853104 -1.0009738 0.3129654 -0.31486827 -0.71194285 0.3662924 0.036760163 -0.13682917 0.9932366 -0.862074
1513 1.0223951 -0.7820166 -0.5000808 -0.5465145 0.35968062 -0.26172894 -0.4019973 -0.11340106 -0.41007337 0.43752164 0.82229006 0.2577429 0.7983938 0.38552597 0.274388 0.9436216 -0.0012421143 0.12639713 0.26518315 1.6623014 -0.7568227 0.18820243 -0.77416587 -1.0075155 0.3904898 -0.244007 -0.7298322 0.369036 -0.10690048 -0.17500551 1.0355388 -0.8450369
1514 1.1133777 -0.8694837 -0.53602266 -0.57199943 0.42927974 -0.22466736 -0.37638944 -0.37894067 -0.03982132 0.4121607 0.95221424 0.66742057 0.8804597 0.39308006 0.17336255 0.83372146 0.38162717 0.06769373 0.31786454 1.7194169 -0.36968505 0.1155076 -0.35119134 -1.058146 -0.07008674 -0.35400245 -0.63568383 0.49211642 -0.10840065 -0.043649804 0.8377727 -0.77047634
1515 1.0233456 -0.83540255 -0.44989476 -0.61572534 0.4516914 -0.12840773 -0.41871923 -0.22773539 -0.27652457 0.42269436 0.91447115 0.25060898 0.77675617 0.35414794 0.27889863 0.84118 0.06593024 0.08999444 0.35654223 1.7965103 -0.7351468 0.17951712 -0.69769573 -1.0278591 0.21055904 -0.2706199 -0.6985324 0.36315054 -0.042678673 -0.09880206 0.95314074 -0.7995627
876 0.3539299 -0.0769693 0.06388542 -0.09713592 0.10557259 -0.60155517 -0.12786749 -0.17070238 -0.45209515 0.62923306 0.16435744 0.25157747 0.412801 0.81112605 -0.29792976 1.6698937 0.23547864 -0.017617157 0.6374001 1.6040231 -0.6247513 0.3053696 -1.1390438 -1.1612236 0.2525344 -0.5791188 -0.86618245 0.68169355 -0.1456498 -0.39710033 1.5472231 -0.579271
1516 1.0043603 -0.6898029 -0.39738643 -0.66005564 0.4226045 -0.12141618 -0.41036615 -0.2234374 -0.3243183 0.4737786 0.8984935 0.2681335 0.75211525 0.33834687 0.29513907 0.8609037 -0.00043392333 0.12980376 0.35325435 1.7218801 -0.6556329 0.19388752 -0.77485406 -0.99714184 0.2254219 -0.26562604 -0.67985463 0.38399473 0.016961038 -0.09935354 0.9876864 -0.73912704
1517 0.9332517 -0.75433147 -0.41571844 -0.6657517 0.44853613 -0.21512885 -0.46992046 -0.22860184 -0.30493915 0.42422128 0.8808003 0.26620775 0.80480385 0.35338232 0.30608186 0.84475356 0.008519811 0.06957056 0.3827845 1.700003 -0.6500595 0.22892 -0.6866668 -0.9139651 0.32746497 -0.30009994 -0.6337658 0.4244508 0.05184034 -0.19325948 0.9233245 -0.7306555
1518 1.0073828 -0.7354354 -0.42849067 -0.5584211 0.3390013 -0.19524945 -0.520785 -0.13300775 -0.45651996 0.41455305 0.9613974 0.26509842 0.78997993 0.39115548 0.30049917 0.9739484 0.03325601 0.034635272 0.30774942 1.6870679 -0.6454474 0.2108682 -0.7608318 -0.9741064 0.38377643 -0.22803278 -0.7214852 0.43557286 0.02429049 -0.20162848 1.0005823 -0.7520865
1519 1.0130891 -0.68502706 -0.37257427 -0.6811072 0.3689321 -0.0894768 -0.464711 -0.2575304 -0.41545215 0.48928943 0.9217482 0.22595954 0.7332741 0.39382756 0.31395313 0.92613757 -0.0010729316 0.04252663 0.32807016 1.6519502 -0.78007895 0.2899387 -0.79734254 -0.99616605 0.28172463 -0.24999347 -0.7255616 0.3924055 -0.043624777 -0.11397849 0.9271085 -0.8369122
1520 0.8326185 -0.7199471 -0.33594507 -0.69095 0.3470493 -0.0536562 -0.38635895 -0.23263827 -0.39312607 0.4661566 0.96068674 0.18606576 0.7475144 0.32996017 0.29481623 0.8796986 -0.02805689 0.08783067 0.31554177 1.5779418 -0.6430858 0.13930517 -0.6924918 -0.9459415 0.31264699 -0.16914345 -0.6903172 0.4091429 -0.07740942 -0.23331182 0.91747516 -0.79011875
1521 1.0050777 -0.845752 -0.36802688 -0.5627812 0.3382549 -0.07229787 -0.42848262 -0.23249063 -0.35869607 0.42987555 0.9652855 0.13249965 0.8119626 0.31968555 0.38540688 0.8689527 0.017065175 0.0581413 0.31427997 1.689042 -0.6565502 0.20711787 -0.7193355 -0.96166974 0.238259 -0.22274739 -0.6850261 0.39793906 -0.034092735 -0.13058518 0.9991321 -0.81713444
1267 0.4846675 -0.7588214 -0.2464288 -0.459878 0.19184831 -0.12742339 -0.08219304 0.11783327 -0.06569139 -0.10198693 0.79647344 -0.029183773 0.561841 0.47549105 0.27142033 0.7558776 -0.020318693 0.22868572 0.27059275 1.167569 -0.45510903 0.16024078 -0.181966 -0.31253007 0.2246583 -0.5281976 -0.5844289 0.36498216 -0.049335636 -0.20585395 -0.0920988 -0.6048985
1522 0.979439 -0.744818 -0.40901414 -0.6194538 0.348813 -0.08312379 -0.47922912 -0.24400525 -0.33948097 0.43820646 0.8676476 0.24727167 0.69987077 0.37644452 0.24575713 0.8950008 0.08802501 0.14218295 0.26265582 1.6329416 -0.7813365 0.20666495 -0.6595871 -1.0209308 0.22411723 -0.258065 -0.6922161 0.44236466 -0.07677792 -0.20970242 0.8244718 -0.7974537
1523 0.9289987 -0.6577673 -0.4512179 -0.59681195 0.38786313 -0.24630927 -0.5527911 -0.20449936 -0.36954957 0.43336397 0.8929794 0.21475665 0.6849992 0.30716953 0.28236803 0.84580624 -0.056105297 0.037711333 0.29315418 1.6406571 -0.85231483 0.19937183 -0.69136745 -0.91236395 0.40190676 -0.19888742 -0.67799926 0.45016265 -0.07710146 -0.22318287 1.0216706 -0.8152971
1524 0.9092682 -0.65878195 -0.34429213 -0.60954773 0.40693364 -0.23330623 -0.51311564 -0.25931126 -0.39294088 0.41201863 0.8991168 0.25081784 0.67780787 0.24590205 0.34029457 0.83702874 0.08240874 0.017149951 0.26131916 1.5962043 -0.70848805 0.19099075 -0.6444722 -0.99093217 0.2813923 -0.24265215 -0.6028519 0.47609752 0.011973518 -0.20375775 1.003098 -0.8155031
1525 0.8922832 -0.79667836 -0.36963162 -0.6297262 0.40988922 -0.1997502 -0.4115604 -0.3216638 -0.3865853 0.4115024 0.8660575 0.28082347 0.73875976 0.3810831 0.40093386 0.9822741 0.055913564 0.00644434 0.31399685 1.6010208 -0.7585508 0.2008064 -0.67355406 -1.01531 0.3724362 -0.20522207 -0.6655273 0.32723948 -0.14840384 -0.23157915 1.0118293 -0.74920815
1526 1.0354768 -0.7736157 -0.4001476 -0.62537324 0.39641878 -0.13679951 -0.45416346 -0.33650336 -0.36829984 0.43807662 0.97315663 0.24498743 0.6772508 0.43158066 0.28257728 0.79363114 0.12143825 0.086658515 0.26358363 1.6633481 -0.71346915 0.18904439 -0.6384653 -1.0774931 0.23052217 -0.22649476 -0.7516463 0.38145092 -0.075964846 -0.19727123 0.9515749 -0.81771094
1529 0.9276457 -0.64172864 -0.37942368 -0.64486486 0.3463749 -0.18574154 -0.45359886 -0.28796753 -0.27092588 0.41789043 0.8667831 0.14798926 0.5702197 0.3136939 0.36682832 0.9285905 -0.016809387 0.05618661 0.24871944 1.6855721 -0.74847007 0.13948458 -0.5794472 -0.9540217 0.21155229 -0.25503486 -0.62105864 0.37917888 -0.08773904 -0.13378236 0.9510335 -0.886718
1530 0.9828636 -0.64587104 -0.4108077 -0.6219875 0.29632634 -0.17324625 -0.4963243 -0.24980544 -0.32278562 0.45405254 0.9374953 0.16661657 0.5836773 0.35252935 0.34823033 0.9099014 0.0037538526 0.036026064 0.2202538 1.5843548 -0.8444249 0.22844782 -0.65468675 -1.0251255 0.2869397 -0.27717808 -0.65190244 0.38147438 -0.20789461 -0.14052257 0.9237494 -0.82400453
1531 0.8791048 -0.6265829 -0.4122563 -0.5949695 0.34898722 -0.20501418 -0.4630559 -0.24985981 -0.27991873 0.40134963 0.7752921 0.23077106 0.67930967 0.25780082 0.37997168 0.88006735 0.017974593 0.060908362 0.34047067 1.6104563 -0.8200695 0.17016427 -0.57891035 -0.9884775 0.33541572 -0.24802117 -0.6364261 0.42735144 -0.16154124 -0.14062336 0.9542104 -0.77801377
1532 0.9364583 -0.59366244 -0.38104126 -0.63836694 0.29587743 -0.19304164 -0.52131915 -0.19065176 -0.35978872 0.5292838 0.8098337 0.29831058 0.6451526 0.35710382 0.39154765 0.8808136 0.023208257 -0.0045383302 0.30014518 1.670554 -0.82289267 0.1900967 -0.50691706 -1.0207896 0.34960258 -0.2784789 -0.6093489 0.326644 -0.061982777 -0.22668174 0.9068578 -0.83763826
1533 0.95926833 -0.72163814 -0.39412633 -0.67775065 0.297796 -0.08286115 -0.5507156 -0.281122 -0.29212403 0.4181388 0.8252514 0.11654513 0.6418399 0.35292542 0.47286123 0.75041354 0.051451206 -0.0602179 0.15980178 1.6395324 -0.78309745 0.25721636 -0.6121721 -0.9989446 0.19031659 -0.28156954 -0.6567928 0.28905877 -0.0018943285 -0.15226884 0.9907802 -0.8620579
1534 0.8948216 -0.63100386 -0.4390996 -0.6036236 0.3377566 -0.21732415 -0.46690843 -0.2702926 -0.4287577 0.40422234 0.90916437 0.20065746 0.62674606 0.39280248 0.3908981 0.8640697 0.013975018 0.03114605 0.20846891 1.5452832 -0.850145 0.17531997 -0.5534271 -0.9963235 0.2561517 -0.25650486 -0.61739445 0.42455947 -0.08588119 -0.20680924 0.94292134 -0.8663727
1535 0.89511275 -0.65279 -0.39712712 -0.65445566 0.28063956 -0.15835375 -0.5844353 -0.3261206 -0.25110862 0.49598166 0.8209688 0.19806525 0.6199234 0.2812608 0.3828542 0.84841317 0.09875355 0.044165995 0.31454295 1.5573887 -0.88804793 0.25037628 -0.59107995 -1.0275217 0.3066017 -0.23331726 -0.62988526 0.42701325 -0.1480658 -0.2941985 1.0372398 -0.85752
1546 0.3637085 -0.36007354 -0.28897542 -0.2706465 0.06851205 -0.08580006 -0.5392823 -0.3522267 -0.4183555 0.7180024 0.80578405 0.2208612 0.36947203 0.1803437 0.23153564 0.45107216 -0.027614877 0.19747545 0.44191745 2.0851114 -0.7884213 0.11880904 -0.8294468 -1.0199739 0.6717515 -0.36879566 -1.0061167 0.8353339 0.3715992 0.023567852 1.4414395 -0.6893837
48 0.21616095 -0.25533172 0.5153575 0.23490335 -0.14289808 -0.4870981 -0.16864638 0.048763823 -0.60633856 0.27626124 0.40895534 -0.017957894 0.28290504 0.519652 0.2672152 -0.06690037 -0.4225623 0.12970416 0.4845175 0.517477 -0.10748452 0.5378943 -0.592693 -0.73719454 0.38104334 -0.27800903 -0.6225939 -0.12030666 -0.13926019 -0.16432251 0.71632266 -0.2719457
1490 0.09958428 -0.28900045 0.29349932 0.25646207 -0.25930455 -0.38896608 -0.48701802 -0.067209676 -0.8329954 0.7155631 0.75551593 -0.1595079 0.4287392 0.7124811 0.101603344 0.67607874 0.11518175 -0.28000066 0.8676323 1.6174836 -0.7007763 0.1775589 -1.4094696 -1.2174808 0.80371183 -0.175511 -1.114609 0.25345758 -0.04285773 -0.1471776 1.2983158 -0.6452141
1492 0.28138015 -0.39965326 0.23988481 0.45476952 -0.089088716 -0.4385548 -0.3251351 -0.065193236 -0.7224479 0.7532292 0.7289491 -0.043395665 0.5751791 0.56739277 0.13347442 0.76275826 0.03618685 -0.13027762 1.0400691 1.5237052 -0.6088082 0.05222699 -1.1892297 -1.2159778 0.68036383 -0.035613135 -0.9947201 0.35672504 -0.068406396 -0.23759383 1.3774881 -0.6098806
1496 0.20135076 -0.22348566 0.19644578 0.3311353 -0.24345805 -0.3624665 -0.52191246 -0.04791295 -0.7411028 0.766002 0.7616173 -0.12905753 0.43837824 0.58495885 0.08740824 0.6429179 -0.0070907464 -0.09133707 0.8844347 1.5786839 -0.59300053 0.20538424 -1.2938052 -1.409409 0.8964001 -0.14924252 -1.1744725 0.40153933 -0.09479963 -0.085643694 1.162003 -0.64967936
1497 0.2619968 -0.3685254 0.28706062 0.2599689 -0.14165947 -0.4089411 -0.706378 -0.007106637 -0.991821 0.81204057 0.71812457 -0.13738765 0.52504355 0.68634 0.06398211 0.57715017 0.11392751 -0.21509035 0.8429707 1.5050718 -0.7585417 0.21675694 -1.4489381 -1.3306261 0.88238764 -0.0768873 -1.080601 0.5134933 0.13992834 -0.23631376 1.4053915 -0.53838515
13 0.05094184 -0.88098854 0.15416437 -0.61531043 -0.4372321 0.79544437 -0.61887985 0.8584114 -0.82067287 0.3166078 0.9577738 -1.0491499 0.25954634 0.48035505 -0.28365943 0.9302888 -0.043765984 0.1948538 0.34386328 1.4350052 -0.79456633 1.2233427 0.6267439 -0.15210412 0.22183071 -0.16253322 1.7094331 -0.37456247 0.121120386 0.077538066 -1.0569609 -1.0545391
392 -0.027281813 -1.0584955 0.5232519 -0.5853731 -0.2566841 0.5996292 -0.5358497 0.9125124 -1.3804317 0.16559911 0.7978093 -1.1071054 0.2647944 0.20808563 -0.830077 0.9811198 0.15381749 -0.038091496 -0.034404915 1.3972746 -0.5937868 1.1218569 1.0563523 0.1627992 -0.032035593 0.051756397 1.3331481 -1.0420128 -0.17975387 0.66634023 -0.63178235 -1.2683079
299 -0.2661345 -0.70808005 0.058865808 -0.37999818 -0.036413897 0.18692906 0.11537201 0.8662477 -0.12432569 0.1770224 0.34485134 -0.6185537 0.14663549 0.057970133 0.18535891 0.33523503 -0.08114692 -0.3699949 0.6347207 0.70758957 -0.32842925 0.72817945 0.23455743 -0.11258264 0.342167 -0.4239241 0.6825798 0.033537723 0.072606206 -0.26341605 -0.34774393 -0.3282276
2247 0.1776777 -1.0689926 0.069475345 -0.49496463 -0.39522904 1.0087235 -0.752182 0.967332 -0.89586306 0.45217544 0.8645534 -1.1986763 0.39624515 0.49010935 -0.29872736 0.8407053 -0.17952444 0.17100216 0.44308233 1.3041545 -0.74832183 1.3450354 0.65888476 -0.094729304 0.015281978 -0.38148114 1.7103626 -0.5104766 0.119956225 0.14566469 -0.8546098 -1.0643497
1024 0.06304231 -0.36892533 0.1412569 -0.19761524 -0.35276487 -0.33781102 0.25938812 0.16004793 -0.10087075 -0.121732675 0.74087787 -0.28299883 0.4715118 -0.3856808 -0.45225334 0.0050754393 -0.47185037 -0.0065605515 0.70328104 1.0895809 -0.09230029 0.7686494 -0.02391025 0.050777763 -0.23995507 -0.65156376 0.2095556 0.5381184 0.65914637 -0.98893833 -0.050616883 -0.2111226
1025 0.018872138 -0.30946612 0.21749936 -0.22666048 -0.2638476 -0.23613065 0.1760516 0.089733995 -0.052081358 -0.035036597 0.7981712 -0.24555093 0.52372813 -0.43498406 -0.20474851 0.059598014 -0.49008256 0.026723605 0.77243465 1.021449 -0.07199321 0.7903927 0.0068367855 -0.030357303 -0.23678349 -0.5619961 0.16481565 0.53560156 0.50954837 -1.0318351 -0.027578576 -0.18639134
1026 0.062568545 -0.42413476 0.2316668 -0.25472957 -0.37705407 -0.2921949 0.16278169 0.10355106 -0.07930571 -0.044565946 0.6691183 -0.25217775 0.5141093 -0.3623449 -0.35889134 -0.021772668 -0.5679109 -0.07153338 0.6686749 1.0183896 -0.057252966 0.80923676 0.026930928 0.017006885 -0.25486097 -0.672628 0.18123235 0.5564073 0.6210687 -0.9611925 0.03783577 -0.23817794
1027 0.2168351 -0.39353836 0.40876585 -0.46715698 -0.022774823 -0.63861185 -0.13110161 0.37240094 -0.38021287 -0.25752038 0.6194638 -0.30709377 0.14033824 -0.58152926 0.31540725 -0.09020257 -0.39497882 -0.050372034 0.37059242 0.90054995 0.49804276 0.9941196 0.167012 -0.3198136 0.03395278 -0.80283195 0.008654607 0.03198508 0.30898425 -0.61388236 0.13869983 0.046404596
1028 0.30293655 -0.30962047 0.4030252 -0.38103354 0.073448256 -0.63313794 -0.101865344 0.3295922 -0.38416067 -0.22201028 0.5859301 -0.3397887 0.14106368 -0.5368814 0.25183737 -0.02077671 -0.48908016 -0.15762985 0.36720565 0.84719145 0.51986647 1.0011303 0.32346913 -0.38005164 0.08746108 -0.78499705 0.09432275 0.099565595 0.3186719 -0.61975014 0.14321573 0.032548636
1029 0.24294418 -0.44616944 0.35039356 -0.43822458 0.0626497 -0.6242739 -0.15300727 0.3387223 -0.33759618 -0.32543138 0.5583888 -0.26161408 0.04377312 -0.589222 0.14614248 -0.1773433 -0.48265898 -0.10152933 0.34161842 0.7855705 0.47927806 1.0366689 0.13847233 -0.33065322 -0.005426346 -0.80767196 -0.053147797 0.02394979 0.29890096 -0.5269448 0.1233839 0.021779388
523 -0.34831813 -0.39703542 0.10294459 -0.4473017 0.21132092 -0.38410568 0.08814771 -0.58310413 -0.3821815 0.33818513 0.32976994 0.6849119 0.39946526 -0.41128367 -0.90517294 -0.6412709 -0.094366096 0.15988344 0.5867366 0.2591965 0.14877246 1.200864 -0.4010026 -0.6619295 0.1393754 -0.768674 -0.36485434 0.015604963 -0.11056163 0.091998495 -0.030984508 0.31433254
524 -0.7900922 -0.2618432 -0.13325919 -0.3869446 0.02846738 -0.66994995 0.17263156 -0.9333445 -0.33558154 0.650713 0.32591322 0.56140816 0.6698237 -0.5928869 -0.56541693 -0.46938077 0.25118655 0.33778238 0.5230166 0.39124507 0.36653146 1.4011551 -0.2615926 -0.17070183 -0.18674085 -0.6576338 -0.7412493 0.25505787 -0.014215745 0.011393615 0.005571546 0.37591925
1547 0.36351237 -1.2896272 0.3518154 -0.87432384 -0.38619778 -0.5244327 0.106214285 0.03031267 0.07658843 0.074684955 1.1817397 0.2906019 -0.40119338 0.38029283 -0.12728955 -0.5636435 -0.2755927 1.3827721 -0.53703946 0.65105253 0.2782439 1.2238237 -0.4927828 -0.6660524 -0.02139652 -0.28880376 -0.569995 0.17392369 -0.7580801 -0.7972994 -0.17071344 -0.76995
16 0.19108588 -0.8003144 0.269513 -0.3986147 0.10843603 -0.5163963 -0.14699648 0.54300183 0.17283222 0.23010343 0.6167146 -0.4325142 0.30053133 -0.44395277 0.010984217 -0.34437293 -0.074896306 -0.090968154 0.09168698 0.5619501 0.40543753 0.66186696 0.1255038 -0.123155065 0.06965696 -0.8370656 0.25341123 0.45561388 0.39028797 -0.7692974 -0.024036394 -0.27837428
17 0.012200093 -0.82041115 0.46433893 -0.3069449 0.43433222 -0.6212317 0.27774662 0.09419457 -0.048677463 -0.054981094 0.6878191 -0.22238268 0.48412842 -0.16417006 0.4053499 -0.07025072 -0.06925063 0.14203076 0.138926 0.4539641 0.66169184 0.6467562 -0.1368761 -0.058777466 0.25778633 -0.602682 -0.22582784 0.32111362 -0.25872913 -0.4786213 0.032948107 -0.18778321
18 0.8248423 -1.8746431 0.7135799 -0.33600622 0.41832832 0.036818136 0.45770717 -0.26508832 0.34328815 1.3096783 0.15932767 -0.43765855 0.92220956 -0.8519423 0.6100981 -0.41467622 -0.4251174 -0.43920752 -0.07460156 0.31732973 0.9981794 0.24749373 0.4414346 -0.99359065 -0.29505458 -0.86279047 -1.0543609 0.44305286 -0.07240448 0.32007357 -0.10510514 -0.23244143
19 0.2080796 -0.80251014 0.48854792 -0.048438348 0.5216108 -0.84637785 0.5645373 0.06485743 0.15988326 -0.13059184 0.2697064 0.088465825 0.59937316 -0.56906974 0.35458615 0.018886397 -0.23313963 -0.10471218 0.008209898 0.5174605 1.0222849 0.7266083 -0.075392894 -0.113898 -0.01820572 -0.7606677 -0.40489647 0.17626482 -0.34470034 -0.17030643 0.18366082 -0.53420085
1044 -0.1639725 -1.3022164 0.28090313 -0.55842865 0.36609375 0.3841552 -0.56758547 0.051483493 0.20056374 0.274517 0.33491984 -0.41333026 -0.090872 -0.2923233 0.016781725 -0.9045905 -0.32219216 0.4148939 0.24742351 0.7790048 0.61632913 1.2137142 -0.22587027 -0.14311548 -0.76608557 -1.2651294 0.4869792 1.1275107 0.77709 -1.4480006 0.1691693 -0.05170013
1045 -0.1965863 -1.1074841 0.3286209 -0.6825797 0.16254333 0.34779432 -0.5208294 0.03531611 0.24820785 0.3582871 0.4001614 -0.56124043 -0.0977289 -0.22064553 0.15149981 -0.93638945 -0.2249464 0.39828268 0.067023546 0.82543164 0.6926331 1.1429603 -0.35092658 -0.15318304 -0.7941607 -1.1424029 0.3378826 1.0601373 0.80778724 -1.3439776 0.37749755 0.100016534
1042 0.1368566 -1.1808736 0.50381637 0.12355335 0.63226706 -0.12506934 -0.1870138 0.82443905 -0.24360904 -0.0606969 0.70929813 -0.6633056 0.08110099 0.28713554 -0.2211979 -0.21704908 -0.7827328 -0.08391636 0.36315474 0.7799141 0.23338656 0.18571581 -0.02020904 0.052387193 -0.6710141 -0.53315026 -0.5448485 0.9302909 0.46808195 0.055509977 -0.34797606 0.034926876
1558 0.17962709 -0.8272401 0.2884046 0.12243791 0.2527435 -0.97900146 0.13367485 0.24240561 -0.3156308 0.025568713 0.29711175 -0.14122085 0.15529895 -0.31577128 -0.1726764 -0.1258572 -0.12746897 -0.07526635 0.055999503 0.39010724 0.54015374 0.7061943 -0.20284449 0.093549386 0.06847921 -0.16844423 0.25357383 0.26004493 0.37401485 -1.0449476 0.30586725 -0.28794226
1559 0.16564426 -0.8673436 0.27410802 0.084305935 0.115613975 -0.9537674 0.22461458 0.23808537 -0.23274726 -0.010743839 0.3995314 -0.21175326 0.27380118 -0.36091143 -0.14028947 -0.06402373 -0.040775646 -0.14130087 -0.0058762347 0.36213508 0.5887199 0.6089531 -0.23126534 0.06110207 0.18562303 -0.3121272 0.15378277 0.24988815 0.19529627 -0.87422884 0.22873521 -0.3637205
528 0.87000406 -1.9850795 -0.260836 -0.7624334 0.24132769 0.11683212 0.7404462 -0.5525088 0.091344215 -0.81350976 -0.09214306 -0.20323075 0.38513625 -1.3015553 -0.21610306 -0.18749303 -0.10565976 0.61946046 -0.0816316 1.0229077 0.37988618 0.6595974 -0.42164096 0.22959168 -0.64029473 -1.431329 -0.1336805 0.022075305 -0.37764633 -0.14102143 -0.07708472 -0.6982283
28 0.035523653 -0.57959116 0.68840855 0.25724822 -0.121518746 -0.5035901 0.10822742 -0.19354253 -0.36996302 -0.022647126 0.7406224 -0.8662036 0.0050390707 -0.5366589 -0.33209407 -0.32346785 -0.7680835 -0.012437287 0.74925876 0.77827585 -0.03437381 0.086586356 -0.029920291 0.05083565 0.03686222 -0.29296917 -0.0059425095 0.3858161 -0.07708569 -0.26938596 0.25548327 -0.10091591
540 0.26941842 -0.77998537 0.26529577 -0.5084679 0.58563846 -1.1009102 0.63589424 -0.035265293 0.32782266 0.29494676 0.67580295 -0.2486467 0.29556483 -0.05558712 -0.062284295 -0.37697747 0.3149697 0.7184661 0.032691818 0.4320372 0.39397383 1.2353882 -0.46531385 0.34676754 0.33287773 -0.19458832 -0.20076303 0.36152437 -0.41246325 -0.9282911 0.09455158 -0.2697897
32 0.41943002 -0.8651529 0.679249 0.15109509 0.4090761 -0.8093872 0.013922266 0.35241312 -0.49058983 -0.30925256 0.3355253 0.22741622 -0.041483458 -0.48396558 -0.6558452 -0.2532066 -0.70870054 -0.013518013 0.5087045 0.27373144 -0.20904669 0.56852835 -0.14096904 -0.6457147 0.36842343 -0.89512557 0.067193456 0.34622395 -0.31950414 -0.06430478 -0.071550846 -0.21174657
33 0.37905642 -1.1379963 0.28727126 -0.034538638 0.08955881 -0.048439283 0.4109462 0.56107545 -0.1882978 -0.044462815 0.6308562 -0.3125367 0.39081857 0.4549862 0.13074148 0.21201584 -0.53327143 0.33729464 0.49051607 0.71314335 -0.016718257 0.19605258 0.2866019 -0.32898012 -0.09475466 -0.6155449 -0.43448165 0.52484566 0.017070431 -0.13547823 -0.5248631 -0.034600228
35 0.0137849655 -0.99338853 0.73189384 0.04359306 0.51208997 -0.2762305 0.22214691 0.46848553 -0.47146505 -0.094451636 0.32753894 -0.30284598 -0.1800206 0.3704721 0.40120998 0.02271407 -0.6436877 0.2410332 0.4800656 0.25088826 -0.41927406 0.38310286 0.6379607 -0.60029644 -0.4655232 -0.50513417 -0.32064593 0.76194376 -0.006437635 -0.35940358 -0.25791946 -0.15218066
36 0.60416925 -1.1492686 0.10258963 -0.56365544 0.23278211 -0.6636 0.8493818 0.41569862 0.32104927 -0.28590116 0.2523624 -0.056028415 0.36000594 0.04312317 -0.09649691 0.04924115 0.22506905 0.704319 -0.18859383 0.9894134 0.29256746 0.8235168 0.12460671 0.27273446 -0.12557209 -0.72900146 -0.23142247 0.2652677 -0.10701787 -0.53547925 0.11362807 -0.58222944
39 -0.07848445 -0.547816 0.7948189 -0.2496216 -0.5962443 -0.9381056 0.33556515 0.017225336 0.084372774 0.37089872 0.45959207 -0.55070263 0.017919112 0.26124522 -0.25053167 -0.30747727 -0.6923937 -0.13604121 0.35900554 1.1734706 0.093431555 0.22589107 -0.1849637 0.17176262 0.041320365 -0.14438683 0.11891542 0.13257624 0.3585735 -0.0855091 0.20184913 -0.4922593
1576 0.2147665 -0.7188096 -0.06639149 -0.17518799 -0.36855164 -1.0411797 0.11896739 -0.18728457 -0.19315347 0.18370974 0.660198 -0.406443 0.19357961 0.07958903 -0.041894685 -0.011209727 -0.36633375 0.11149127 0.46371695 0.792681 0.38498828 0.48753533 0.027520454 0.39416516 -0.326264 -0.046293486 -0.11359584 0.20901275 0.45411354 -0.75414294 -0.23069754 -0.86770856
44 0.2853915 -0.9097546 0.13173825 -0.13859163 0.5008378 -1.1729354 0.12532048 0.201241 -0.17962931 -0.11390803 0.52734494 -0.07709173 0.27584562 -0.47123885 0.16506888 -0.18359932 -0.27940035 0.048276678 0.09904882 0.39060903 0.4668898 0.70221925 -0.1020604 0.19402905 0.401591 -0.5225503 -0.07797578 0.22235838 -0.09887574 -0.7711424 0.2802189 -0.3745271
45 0.5825667 -0.9922939 0.0016593891 -0.23716277 0.5935896 -1.0664937 0.39611775 0.26168233 -0.05171606 0.07714959 0.26117232 -0.09006808 0.24072066 -0.4717644 -0.32052317 -0.20918977 0.06672635 0.32258135 0.4273204 0.28906408 0.3542361 0.6130526 -0.044216998 0.13899933 0.5707245 -0.1208054 0.20458819 0.62150127 -0.22802036 -0.78613555 0.37597707 -0.2258603
1577 0.35195458 -0.78749835 -0.03985449 -0.21329914 -0.27652052 -1.0381318 0.20354584 -0.14557843 -0.26498076 0.15675454 0.5861758 -0.37973914 0.13867563 0.08783873 -0.04631837 -0.09368675 -0.38018897 0.17207171 0.4908421 0.8509299 0.36303392 0.5197444 0.168077 0.266839 -0.2207174 -0.13750112 -0.062619284 0.16813001 0.5323446 -0.8352879 -0.22144635 -0.7528848
1578 0.28697377 -0.7794806 -0.008328576 -0.19332927 -0.27880082 -0.9573833 0.091680735 -0.2099225 -0.19323528 0.20481858 0.632793 -0.30278504 0.12837298 0.13230953 0.009518643 -0.020020908 -0.3602322 0.17464674 0.45682663 0.81959456 0.3663384 0.5381014 0.022480084 0.24563147 -0.27244565 -0.03229816 -0.15949401 0.19014685 0.4472786 -0.70994425 -0.20442842 -0.76841843
1579 0.2812055 -0.70809704 -0.0066699516 -0.11476953 -0.27835178 -0.97755903 0.06991254 -0.18935552 -0.29931206 0.1620113 0.5477449 -0.4110488 0.145907 0.05245871 -0.05105809 -0.07945815 -0.4378657 0.19174826 0.566324 0.86828524 0.3474891 0.56642413 0.13295901 0.28728622 -0.23091576 0.014820545 -0.08678335 0.2905016 0.5499066 -0.8423712 -0.13121203 -0.77105355
1580 0.29294032 -0.79247355 -0.024072988 -0.19053613 -0.1878719 -0.95803976 0.07542706 -0.20521903 -0.20868802 0.17147909 0.6101976 -0.4293612 0.05738651 0.055340618 0.024765743 -0.04207045 -0.4272611 0.070734724 0.44047144 0.89050335 0.42200413 0.5286715 0.122095175 0.23736674 -0.21650131 -0.1484591 -0.114079155 0.2246942 0.51073354 -0.73669446 -0.11157734 -0.8134137
51 0.22089374 -0.9062735 0.047539726 0.48789686 -0.6733439 -0.5451269 0.6055704 0.66933686 -0.4664994 0.022494566 0.36206484 0.10293914 0.58391696 0.76281565 0.118124865 0.41944715 0.24286659 0.23266603 0.5785418 0.5645354 -0.0016772599 0.34600782 0.07612151 -0.12393233 0.41344887 -0.6390448 -0.33328694 0.29250753 -0.24321848 -0.3952868 -0.05741367 -0.44483984
2102 0.109186515 -0.73382884 0.52728003 -0.067295246 -0.1165825 -0.40794766 0.36430055 -0.018903958 -0.6597099 -0.11246365 0.56032634 -0.6504015 0.090699345 -0.8894454 0.48655453 -0.123352826 -0.7069916 0.2403172 0.43206084 0.3030074 0.12527287 0.6411035 0.052143097 -0.116345465 0.14342329 -0.26492405 -0.063923605 0.10784804 -0.19188665 -0.48476872 0.051713277 0.16942102
2103 0.029185034 -0.90000206 0.58734375 -0.07761034 -0.090552725 -0.520626 0.32268652 -0.10431416 -0.65424526 -0.04822083 0.5562833 -0.79344934 0.1384469 -0.78067386 0.4618329 -0.09844232 -0.6772757 0.25199288 0.32055894 0.29715058 -0.0012576046 0.516952 -0.035967316 0.014672517 0.034106806 -0.112639375 -0.157905 0.09004846 -0.11819487 -0.5347576 0.037533466 0.15422563
56 -0.24860696 -0.9503625 -0.04908923 -0.12898435 0.8789336 -0.35365966 0.4808627 0.46730912 -0.4651798 0.23509726 0.08211436 0.065263845 -0.11563136 0.33693358 0.5577103 -0.47073597 0.067494005 0.34866706 0.5227475 -0.0056777913 -1.028382 0.76783717 0.94644684 -0.25046936 -0.88829 -0.5844874 -0.075500846 0.5480783 0.110181786 -0.81021607 0.50611955 -0.18016663
57 -0.23707317 -0.9450738 -0.6846191 -0.033683944 1.1326406 -0.85242635 0.62730074 0.14059073 -0.58548915 1.0263878 0.18442689 0.0316689 -0.4449567 0.07081926 0.16698186 -0.8011603 0.6208489 0.30502117 0.7875968 -0.096461505 -1.432647 1.1078677 0.36581528 0.23452327 -0.4386852 -0.72849274 -0.005812638 0.13883649 0.050185546 -0.44729313 0.98487455 0.012685496
2104 0.13967529 -0.768919 0.61148524 -0.17296785 0.18128663 -0.49942628 0.09904967 -0.1915283 -0.5621817 -0.30171674 0.5213788 -0.86563045 0.2865952 -0.7423226 0.4645055 -0.14894983 -0.42747468 0.24516241 0.5153508 0.27283835 -0.05664648 0.8755096 -0.008600713 0.18743883 0.43683165 -0.15909259 -0.112350285 0.32717228 -0.5500688 -0.47183818 -0.12852718 0.26145887
2105 0.11991218 -0.9009958 0.5114851 -0.17534685 -0.10239664 -0.44160667 0.43141985 -0.0012621684 -0.5532219 -0.11639993 0.54766303 -0.6855261 0.065912195 -0.82974595 0.45878792 -0.07968715 -0.7108655 0.29759195 0.37062836 0.3402736 -0.019575203 0.64249206 -0.003964007 -0.040361166 0.02847952 -0.2522114 -0.17503978 0.08837215 -0.1292344 -0.49706715 -0.03985799 0.08252813
60 0.41530088 -0.7003429 0.015597568 -0.11618671 0.47835487 -0.12969531 0.3595889 0.2821584 -0.4763666 0.061134644 -0.07554061 0.25676543 0.12594697 0.026264478 0.33728367 -0.72735584 0.0011725767 -0.18530586 1.2860314 0.57455623 -0.15618184 0.7091604 0.35393098 -0.36114115 -0.31539094 -0.5472418 0.52923775 0.18081848 0.17520043 -0.38343233 0.32641423 -0.37511864
580 0.44585514 -0.66956455 0.4540076 -0.12141591 0.44294074 0.099830024 0.2762838 0.32906765 -0.4244172 -0.11278282 -0.3647086 -0.28365773 0.19535138 0.013222144 0.5945031 0.010007034 -0.04144511 -0.23031011 1.066455 1.0633092 0.1449802 0.9791378 0.07308478 -0.18955015 -0.039497964 -0.515723 0.50998616 0.014446196 0.108367726 -0.36762014 -0.031634923 -0.47164124
1092 0.24555862 -1.0879371 0.03672285 -0.22725695 -0.21971172 -0.46798798 0.4935358 0.18363594 0.1017158 -0.22047552 0.31062973 0.0891244 -0.064227864 -0.40238392 -0.21424618 0.42601386 0.10977378 -0.07837386 -0.1521103 0.38290867 0.49134502 0.8437008 -0.0732349 -0.0041025914 -0.048219595 -0.4954912 -0.016485421 0.17881444 -0.090320006 -0.82633674 0.02697878 -0.3176358
581 0.68037546 -0.28482825 0.12837115 0.13635147 0.5481434 -0.3717877 0.36305022 0.77929217 -0.641294 0.14229143 0.32360786 -0.25562197 0.4557405 0.34889522 -0.5098372 0.55878323 0.11031024 -0.098244004 0.8548751 0.8847625 0.08299608 0.51468545 0.74149036 -0.17080049 -0.026762038 -0.6842889 -0.307109 -0.093740284 0.22881949 -0.38896194 0.23244368 0.040828403
586 0.10336861 -1.1032819 0.29895926 -0.034001943 -0.5070475 -0.963763 0.19630425 0.03975939 -0.16134459 0.19956549 0.5674668 -0.3662935 0.20576033 0.32268792 -0.27772352 0.034062244 -0.39298725 0.043172363 0.37811276 0.56296676 0.3281562 0.54070437 0.09795986 0.07433157 -0.1280814 -0.27282467 -0.15685587 0.24814284 0.22970363 -0.70398474 -0.0059566186 -0.5884125
90 0.2092565 -0.6260997 0.3998082 -0.18744648 0.37986445 -0.6087637 -0.12039081 0.12838547 -0.49066117 -0.34447086 0.428267 0.18978253 0.1543744 -0.5535103 -0.30300316 -0.20056388 -0.7058622 -0.03581701 0.5383619 0.39988947 0.21268348 0.69968706 -0.26135108 -0.19163886 0.31528372 -0.48491842 -0.12346803 0.07158962 -0.16552028 -0.08837273 0.175231 0.13439329
91 -0.06460578 -0.36693746 0.26924866 -0.21152265 -0.0981282 -0.44770837 0.30151635 -0.42172447 -0.17725638 0.1557661 0.49306554 -0.04897935 0.39607885 0.04586893 -0.0756499 -0.31547955 -0.3529147 0.5406327 0.47031555 0.7127595 0.37007567 0.7986134 -0.14461608 0.039775968 0.110265374 -0.619488 -0.17682283 0.013172088 0.12332481 -0.22400904 0.017005486 0.0726154
527 -0.014266362 -0.91638273 0.7198974 0.119722486 0.30030587 -0.7238338 0.12932411 0.15546006 -0.18049128 -0.37682882 0.1496506 0.05396934 0.425093 -0.32532617 0.35638002 0.08844136 -0.015526535 -0.20415238 0.06150399 0.34811938 0.5511123 0.846018 -0.3059759 -0.11564724 0.20488568 -0.5194925 -0.18480149 0.241514 -0.33215722 -0.22494718 0.099885456 -0.36490434
93 0.31175643 -1.2257065 0.6814164 -0.059590384 0.10570274 -0.010300661 0.2165539 -0.06289902 -0.1757147 0.5931797 0.5752096 -0.711341 0.4888314 -0.58300817 0.4795797 -0.24475072 -0.68821365 0.04137998 0.26193523 0.02322322 0.17467776 0.37076172 0.3437249 -0.7064207 0.027704453 -0.34167922 -0.4296601 0.3945146 -0.13286527 -0.22395685 -0.52707684 0.15818675
96 0.40313125 -0.56046736 0.24543047 -0.0032038814 0.20724553 -0.631335 -0.05499562 0.43040332 -0.499959 -0.33302012 0.4934266 0.3235062 0.2056057 -0.7078779 -0.20879701 -0.24554306 -0.61835265 0.07058883 0.7601225 0.44637612 0.110937014 0.6833998 0.35368952 -0.61708045 0.24790663 -0.56975305 0.21644652 0.38016793 -0.043474752 -0.2678413 0.11421948 -0.053209215
97 0.07849105 -0.66339743 0.5353315 -0.1003448 0.31670505 -0.7074027 -0.049419604 0.09993843 -0.61899036 -0.25179115 0.49047896 -0.092055224 -0.05615922 -0.45808256 0.015943933 -0.059462044 -0.72528094 0.254042 0.40269482 0.44769454 0.4780644 0.55104613 -0.08066595 -0.18338019 0.19825494 -0.5294074 -0.08003354 0.14596708 -0.1389901 -0.31968382 0.33737972 -0.15964216
1128 0.19473219 -1.1254845 -0.0035479397 -0.7020164 -0.21190307 -0.56969476 -0.12067194 -1.1352578 -0.40418813 0.14665973 0.05632618 0.5199276 0.19346441 0.24336971 -0.16242556 0.72611725 -0.33647045 -0.091416195 -0.39698985 0.4205122 0.2964078 0.7249204 -0.24867819 0.03214503 -0.40762877 -0.47913632 0.88149786 0.17603777 -0.6531155 0.25355557 -0.2863345 0.39503726
137 0.1263858 -0.73500955 0.18468596 0.38016984 0.036339723 -0.18160687 0.73607534 0.35264206 -0.535697 -0.07048364 -0.11288002 -0.14878324 0.08433199 -0.32603943 -0.44502413 -0.057121456 0.15589392 -0.274681 -0.3262976 0.44003683 0.6126053 0.9401944 -0.074826755 -0.14590381 -0.23719306 0.3254134 -0.31384376 0.38907757 0.38596815 -1.3579026 0.5520519 -0.19969732
146 0.06369545 -0.6248707 0.26217288 -0.24488042 0.21177539 -0.042139858 0.26912767 0.3245996 -0.3436409 -0.27392578 0.44030064 -0.31209782 0.18840627 -0.21882479 0.2992907 -0.19015968 -0.5540912 0.07052323 0.9218349 0.7197543 -0.00037580938 0.5940195 0.11730622 -0.21180293 -0.04084594 -0.46316883 0.17843065 0.29967666 0.06760995 -0.39487517 -0.16184348 -0.03315227
147 0.16106957 -0.72694016 0.2366451 -0.38612798 -0.063525714 -0.35902876 0.2761073 -0.10729722 -0.058034617 -0.6056199 0.74006075 -0.006263334 -0.012761924 -0.5998796 -0.086882636 0.0923742 0.063422136 -0.0027438526 0.10537576 0.849319 0.5890065 0.8992803 0.14746206 -0.08994001 -0.33602712 -1.0218412 0.4872766 0.6161683 0.07860387 -1.3944958 0.0014167115 -0.18541153
148 0.090739645 -0.3765433 0.35958707 -0.32976085 -0.15817936 -0.43207812 -0.10171775 0.21756957 -0.2046304 -0.26293868 0.6826155 -0.3722155 0.25154853 -0.5430756 -0.14574724 -0.09760902 -0.52021223 -0.025106426 0.40449408 0.86472976 0.25861144 0.94031334 0.1646406 -0.19060539 -0.13029939 -0.75999445 0.14266424 0.37565023 0.40413904 -0.9341808 0.071326226 -0.036572378
664 -0.095069654 -0.7408799 0.625664 -0.06755448 0.38226974 -0.43575668 0.057817344 0.10960031 -0.6073712 -0.09760161 0.4318766 0.463383 0.056513395 -0.094150305 -0.017035268 -0.13212618 -0.71909046 -0.014276168 0.08214305 0.18577704 -0.1785822 0.3877832 -0.75086725 -0.5488655 -0.16485357 -0.8375385 -0.4868437 -0.38839012 -0.29055074 -0.12126336 0.60777956 -0.4916634
665 0.50707155 -0.8540455 0.47490072 0.1645523 -0.15151107 -0.54912287 0.22230068 0.26838726 -0.39098087 -0.07851473 0.7504533 0.34023118 0.06075641 -0.2324402 -0.7282671 -0.60280424 -0.080227844 -0.078336306 0.006778754 0.06946522 -0.17045173 1.1318003 -0.40666184 -0.81991774 0.4891783 -1.1527151 0.16002071 -0.1664146 -0.46070486 -0.12239905 0.41919488 -0.035119183
666 0.14235009 -0.8721959 0.54170334 -0.24130018 0.11150605 -0.39568663 0.1600628 0.18307738 -0.2657873 -0.2297281 0.4910724 0.3973074 -0.23401256 -0.43906808 -0.7460582 -0.44801065 -0.45574155 -0.1701888 0.22658402 0.2867327 0.007677634 1.0128155 -0.37561738 -0.68125224 0.29128876 -0.96458584 0.06740873 -0.07102447 -0.39944065 -0.37044114 0.17201696 0.04168276
668 0.15632576 -0.8995011 0.42852762 -0.22427748 0.15698504 -0.5487647 0.2304885 0.28784123 -0.29688823 -0.27161488 0.6794285 0.43463147 -0.18840717 -0.44234776 -0.6832341 -0.41013187 -0.4882087 -0.13508162 0.19310527 0.26907125 -0.04810224 0.9964967 -0.37875167 -0.7206601 0.25616792 -0.9613856 0.012974546 -0.049053892 -0.35834083 -0.26698482 0.15902425 -0.0032190967
671 0.1945463 -1.0327991 0.55927765 -0.13303483 0.39963904 -0.7528849 0.63867056 0.06979984 -0.30243155 -0.3371674 0.7776596 -0.27235857 0.16656697 -0.17907698 0.6517831 -0.101609364 -0.20715779 0.08473688 -0.40253073 0.23330566 0.49365935 0.87032986 -0.3412913 -0.7112525 0.45351678 -0.7411379 -0.3730162 0.2482338 -0.78100425 -0.17000338 0.17386378 -0.26541853
152 -0.34957147 -0.55475956 0.408325 -0.065959364 -0.2941596 -0.61332166 0.5433135 0.25778356 0.02640352 -0.36227506 0.84869516 -0.6333466 0.27491054 -0.070642084 0.24435085 0.08261296 -0.48731232 -0.06316225 0.5805418 1.0510763 -0.04369038 0.02717265 -0.14967857 -0.20253365 -0.09126339 -0.16631716 -0.3596221 0.5432749 -0.27838388 0.1120181 -0.22970992 -0.34093013
154 0.2431508 -1.189846 0.65589255 -0.18627836 0.043789472 -0.40309325 0.13401549 0.4416959 -0.26824597 0.077197425 0.36928335 -0.32613903 0.0374653 -0.1956827 0.122139834 -0.05945116 -0.6385063 0.18725406 0.08243944 0.11981975 0.1683592 0.5654406 -0.06022682 -0.554074 -0.020584298 -0.47861022 -0.19001949 0.19440295 -0.12590519 -0.7059422 -0.14479263 -0.23662196
164 0.031250827 -0.88393056 0.6018077 -0.37144625 0.13818964 -0.44628897 0.4875687 -0.2824624 -0.4095614 -0.24708746 0.7093423 -0.46188912 0.06844809 -0.5937 0.66775227 -0.23194274 -0.46055022 0.16442159 0.05061675 0.37577516 0.50894797 0.69347954 -0.1869712 -0.38951263 0.06163248 -0.31666917 -0.30036286 0.10262031 -0.33128574 -0.16089813 0.071454614 0.03767421
160 -0.11738284 -0.83267444 0.4751795 -0.21045196 -0.29447088 -0.37295803 0.38993096 -0.1593425 -0.5090395 -0.22443657 0.6059367 -0.5509945 -0.015632149 -0.8575415 0.4854833 -0.115440734 -0.84124243 0.25437754 0.42180562 0.4364173 0.12202346 0.49927348 0.07842355 -0.20960532 0.091822445 -0.11482366 -0.1923201 0.24639636 -0.28311235 -0.34128165 -0.05709098 0.09326796
679 0.075255245 -0.5033949 0.20709488 -0.51172256 -0.23056667 -0.5860734 -0.29334104 0.5921419 -0.30648607 -0.114576705 0.534364 -0.36275956 0.078009516 -0.7064799 0.11873088 0.1745264 -0.35073915 -0.48313454 0.13116688 0.6455799 0.28392762 1.0314842 0.3588069 -0.4739422 0.30374524 -0.9922429 0.30636376 0.1410829 0.36954787 -0.65762025 -0.00078408973 -0.13193986
2271 0.24765381 -1.0148994 0.45272636 0.35966837 -0.5459031 -0.4738603 0.5358736 0.05417807 -0.09798914 0.16199516 0.14684369 -0.05146829 0.44723114 0.30053803 -0.44883654 0.15844062 0.22717181 0.62720877 0.3622764 1.1244338 0.32364392 0.5742462 0.04928628 -0.050307907 0.07766871 -1.2122085 -0.35225222 0.32200098 0.36541706 -0.6732229 -0.07225977 -0.34547254
169 0.47492182 -0.89036375 0.12835331 0.09322282 -0.0055554523 -0.5685723 0.29643768 0.30666634 -0.2812034 -0.08258885 0.4015552 -0.2069622 0.19546913 0.4704619 -0.058681782 0.28304234 -0.26810303 0.15304276 0.49628937 1.0743436 0.33739957 0.26654834 0.14392586 0.27855724 -0.22499374 -0.5750271 -0.45084807 0.19200128 0.42562103 -0.4498082 -0.16885443 -0.39176095
171 -0.029267278 -0.7917384 0.28491458 -0.40642974 -0.15960932 -0.9336331 0.33667737 0.26254997 -0.23596779 -0.08319985 0.22960813 -0.054181572 0.4906285 -0.9081734 0.32909817 0.3312229 -0.43532297 -0.41482326 0.58273345 0.296741 0.37381366 -0.04020637 -0.27280134 -0.050999094 -0.11093193 0.21735881 -0.21769442 -0.0064378963 -0.41783297 -0.73712945 0.35976967 0.02212433
686 0.0999101 -0.6832678 0.41678473 -0.49188983 -0.34382683 -0.5339801 -0.056546055 0.47823906 -0.40340656 -0.18670304 0.4370217 -0.625819 0.015843717 -1.0275083 0.2461025 -0.005775114 -0.38459772 -0.22277527 0.050297022 0.40510762 0.050999593 0.95442367 0.22656614 -0.22127986 0.42103964 -0.6757766 0.40441236 0.1503746 0.12556024 -0.71845925 0.050376933 0.08009284
178 0.3428435 -1.0254318 0.2546822 0.46986568 0.17630325 -0.44262344 0.49143293 -0.019258602 0.29120475 -0.13416237 -0.08998868 0.20925096 0.48582363 -0.8982283 -0.14025302 0.3182215 -0.3420071 -0.2830015 0.35158792 0.9802871 1.1901389 0.3411319 0.7252079 -0.68333304 -0.27655658 -0.8653795 -0.31507283 0.27651623 -0.28717524 -0.24357413 0.64599186 -0.7301541
694 -0.03398332 -0.42528898 0.32966954 -0.4878091 -0.30017078 -0.5338003 -0.25340387 0.6258982 -0.35245693 -0.06832407 0.6163851 -0.35572836 0.030105026 -0.67313766 0.24138796 0.13340515 -0.28263935 -0.4217852 0.19542576 0.67320925 0.27360183 1.1224513 0.40605852 -0.54635924 0.33469388 -1.0911776 0.28355262 0.13753521 0.3554943 -0.6700874 0.028846169 -0.090394974
185 -0.04609586 -0.4734119 0.3653707 -0.32113844 0.08433338 -0.5101507 0.00042068734 0.25022388 -0.20743698 -0.37509948 0.27521378 -0.10556048 0.2467936 -0.70225245 0.2809103 0.14302495 -0.29698387 -0.11204156 0.2733104 0.7081065 0.4620656 0.92402893 0.13528775 -0.42661527 0.11370313 -0.5024964 -0.13480268 0.16768317 0.08020917 -0.6688221 0.19479042 -0.0870229
201 0.64309365 -0.7982792 0.2947021 0.11863196 0.27539346 -0.7625227 0.10607957 0.22129998 -0.5764643 -0.080489285 0.38007933 0.56678295 0.04952262 -0.4586849 -0.55471504 -0.40348127 -0.5601875 0.23820853 0.9032652 0.16450143 -0.105642386 0.593185 0.028329296 -0.60476595 0.5388973 -0.46192557 0.23011753 0.35138357 -0.42249176 -0.26162022 0.25758752 -0.13348134
2252 0.28664076 -1.0815724 0.051740974 0.20910713 -0.050121065 -0.34074235 0.16841559 0.073007904 -0.030444697 -0.17204672 0.10742843 0.10383078 0.44135138 0.10509501 0.3790421 -0.1342203 0.27130285 -0.118569545 0.30336094 0.58986944 0.27466688 0.99958766 -0.10153294 0.47463903 -0.45575103 -0.5654797 -0.3895528 -0.10077074 0.15067126 -0.41193408 0.19588304 -0.5516147
719 -0.047394484 -0.60039884 -0.2993873 -0.097870655 -0.33133075 -1.1779821 -0.09710243 0.015239495 0.13997972 0.3903334 0.95485395 -0.49451646 -0.07642859 -0.30439147 0.09089892 -0.3304612 -0.23464674 -0.15833014 0.7311132 0.52845764 -0.12733728 0.3110707 -0.14933845 -0.16102791 -0.74401593 0.063608564 0.00027941426 -0.027635368 0.056245115 -0.46488544 -0.56613076 -1.1362762
735 -0.020211918 -1.0639007 0.4092499 -0.22180368 0.23616292 -0.4886445 0.6440023 -0.06461362 -0.25102037 -0.27120042 0.89964616 -0.40058097 0.18370758 -0.08784257 0.6873901 -0.13486516 -0.2662151 0.016641997 -0.4647181 0.110117175 0.5497777 1.0683532 -0.519856 -0.7875555 0.40848368 -0.80691165 -0.29966268 0.28856766 -0.8651623 -0.33750165 0.22984931 -0.31306553
736 0.09537497 -1.0218631 0.38261315 -0.24461944 0.20099984 -0.4572184 0.7902409 -0.12712999 -0.11659784 -0.18437438 0.7166105 -0.17609924 0.19418304 -0.13749097 0.66182446 -0.08614288 -0.15577406 0.07534862 -0.29321998 0.11278064 0.56144315 1.0432631 -0.4601478 -0.75220966 0.38442355 -0.69458026 -0.3808239 0.20831698 -0.89363784 -0.361647 0.24379398 -0.31323183
737 0.04488591 -1.065773 0.4773757 -0.19370359 0.21271747 -0.43709657 0.75411355 -0.0017467465 -0.31343126 -0.3095531 0.83176327 -0.3853348 0.1714112 -0.17277487 0.8042079 -0.073173024 -0.14520963 -0.035918858 -0.37050754 0.056350805 0.53650343 1.003168 -0.4937736 -0.6884736 0.3731559 -0.70223653 -0.30081078 0.13781275 -0.92336106 -0.2799586 0.092591465 -0.35982078
738 0.2108165 -0.7042181 0.30184057 0.06843921 0.1151812 -0.557405 0.48624876 0.15475278 -0.26700243 0.28835523 0.9014969 -0.0124605475 0.52600443 0.16271724 0.5460385 -0.50821054 0.35351706 -0.18713725 -0.010766578 -0.26272455 0.18694523 0.8971655 -0.28147206 -0.805677 0.17410268 -0.44133234 -0.11411208 -0.17247605 -0.87371874 -0.13947415 0.5209532 -0.5313881
739 0.09031788 -1.1328591 0.43287674 -0.37288308 0.21099685 -0.43485206 0.789809 -0.07784652 -0.31814358 -0.18510053 0.86778396 -0.37211236 0.15656197 -0.14019011 0.8788035 -0.21417585 -0.18489683 -0.020040737 -0.36409214 0.18354893 0.74751294 0.97283965 -0.49934626 -0.7017946 0.5238423 -0.74882203 -0.29806614 0.13432172 -0.8966794 -0.22407554 0.15187755 -0.330055
740 0.06391326 -1.0662249 0.37194094 -0.28963956 0.27680644 -0.47206736 0.7342682 0.08100872 -0.17554435 -0.26308677 0.7924073 -0.32222536 0.3143191 -0.23824982 0.78988045 -0.11297156 -0.11967171 -0.082194604 -0.4444391 0.1541278 0.6202245 1.0421535 -0.46784553 -0.51954746 0.5134171 -0.89811826 -0.34413135 0.20769648 -0.846756 -0.2738145 0.098032966 -0.31289735
229 -0.19424815 -0.4049129 0.56865263 -0.014684053 0.18981369 -0.25208703 -0.35665944 0.4366116 -0.11744465 -0.053334124 0.8587344 -0.53212893 0.48991254 -0.15627067 -0.19208603 -0.075534 -0.90746707 -0.15479182 0.46651965 0.73204976 0.15299007 0.50680524 -0.021885457 0.15320046 -0.4375079 -0.86064726 -0.26736468 0.44968426 0.23464963 -0.20792498 -0.1826287 -0.15099138
1250 0.40011495 -1.0166216 0.13863266 0.047399543 0.6488648 -0.7034037 0.11626624 -0.001027361 -0.4316079 0.12758842 0.5728436 -0.14464436 -0.2700662 -0.090456344 -0.046199907 -0.06836585 -0.16466855 0.1503083 -0.24691822 0.09888025 1.0027643 0.77646935 0.4956307 0.08154862 -0.22393815 -0.7753415 -0.15515631 0.42136282 0.13383482 -0.13664067 0.33695623 0.09839532
1248 0.15227257 -1.1727406 0.48013443 0.12447978 0.54922456 -0.1466324 0.059637032 0.75474113 -0.29578802 -0.10501155 0.07042097 -0.24095872 -0.012735502 0.5459496 0.24670137 0.0022220595 -0.47027746 -0.12662216 0.5319136 0.47007945 -0.24272823 0.16362624 0.6518926 -0.301409 -0.7549664 -0.6677081 -0.4417696 0.9003451 0.27244213 -0.34430036 -0.266626 -0.3936075
1249 0.27474347 -0.9675789 0.51436985 0.049338866 0.6167858 0.19026396 0.18815705 0.6237168 -0.41369447 -0.06810748 -0.20319352 -0.40406904 0.091570884 0.3211152 0.57780564 -0.026914377 -0.4103991 -0.26271927 0.9546299 0.7428789 0.07473304 0.46955538 0.41003785 -0.3297525 -0.44662532 -0.6165031 0.0490071 0.5635982 0.27030414 -0.32689452 -0.30137458 -0.35404134
742 -0.010699867 -1.2440137 0.5111756 -0.14821811 0.75963044 -0.7640842 0.17522459 0.3809809 0.10909364 0.117625356 0.58636373 -0.056773406 0.5654092 -0.42000395 0.17971288 -0.061007246 -0.23586568 -0.29595733 0.023006093 0.9001305 1.0768471 0.38802055 -0.5799514 0.4378811 -0.23848589 -1.2467145 -0.17793368 -0.23268406 0.0045002885 -0.529415 0.15603106 -0.80931973
234 0.36083704 -0.20087437 0.09716274 -0.10747027 0.5477572 -0.3350912 0.55769974 0.23579094 -0.26705882 -0.12917842 0.50896233 0.48510084 0.57495034 -0.2637001 0.22743493 0.2979186 -0.09061106 -0.055410765 0.58935785 0.6679848 1.2408444 1.1345797 0.34388274 -0.2653867 -0.5206675 -0.4039725 -0.1831824 -0.10593424 -0.22271763 -0.58846056 -0.004457198 -0.36132777
238 0.30710933 -0.7773436 0.20371515 -0.28696704 0.3190781 -0.72985137 0.94766766 0.40957665 0.16026373 -0.028343376 0.44897354 -0.22974014 0.5876456 0.26769328 0.2682016 0.15222512 0.17681555 0.58999413 0.2097767 1.0716571 0.24265003 0.7125572 -0.065973215 0.32726774 0.3947479 -0.46769038 -0.18502311 0.12943763 -0.09705278 -0.5021961 -0.08562893 -0.19704767
1268 0.03473692 -1.0619743 -0.08322446 -0.09351112 0.075087875 -0.36616105 0.56136364 0.43234736 -0.094192475 -0.21275043 0.638544 -0.0885837 0.4506447 0.42991364 0.33252737 0.5380411 0.007015284 0.40239415 0.50216985 0.96271 -0.032474775 0.36329183 0.0756748 0.34195527 0.12597366 -0.6281876 -0.45095935 0.36281624 -0.124050446 -0.3823562 -0.5030216 -0.26156598
1269 0.09862684 -1.022154 -0.112963505 -0.19361642 0.06938487 -0.4428673 0.62742776 0.49148217 0.018968992 -0.27839816 0.72163105 -0.03771748 0.3703177 0.39658102 0.26671395 0.49416858 -0.09947333 0.40377244 0.48602572 1.0301775 0.048779413 0.34685597 0.11100491 0.19215862 0.082949124 -0.50719815 -0.4094029 0.45010003 -0.078648746 -0.34917712 -0.52051264 -0.32529056
1270 0.1174062 -1.0170437 -0.14622217 0.017191947 0.059418984 -0.47049195 0.5629152 0.44173303 -0.060133975 -0.21075654 0.7301202 -0.027968196 0.4221053 0.40880758 0.29278052 0.5262562 -0.090814084 0.40587452 0.51868206 1.0524261 0.0061397115 0.25948223 0.12970896 0.23651026 0.05415963 -0.62140435 -0.4083189 0.44668922 -0.0052602007 -0.38683933 -0.42043355 -0.33728406
1271 0.099020995 -0.9623428 -0.17702588 -0.08370586 0.084981665 -0.38263935 0.52971244 0.46117344 -0.036888745 -0.2739926 0.67487997 -0.016048286 0.41117993 0.42329416 0.29609957 0.56443506 -0.07040883 0.34081832 0.5535793 1.0669045 0.037469428 0.3553052 0.027750166 0.22384536 0.09612157 -0.5614281 -0.3718296 0.3939374 -0.055163454 -0.3328408 -0.39256683 -0.3460377
1272 -0.077797815 -1.0421174 0.1325746 -0.11832613 0.36707 -0.21193351 0.44559672 0.5929302 -0.18901373 -0.24838498 0.29201663 -0.070398785 0.13485001 0.5974126 0.52296823 0.46427104 -0.082292005 0.2744451 0.5201198 0.7316601 -0.23088156 0.34000373 0.4315259 -0.042616334 -0.26838595 -0.5272327 -0.38248733 0.7321558 0.010765132 -0.49279863 -0.34897488 -0.35667887
1274 0.05033733 -1.1171879 -0.1273782 -0.13001142 0.054804187 -0.24497004 0.6061032 0.25757372 -0.017389895 -0.23982993 0.5434656 -0.09979368 0.5223843 0.30018768 0.23243836 0.74406254 0.15834 0.37075853 0.4714498 0.9801526 -0.07274865 0.5272732 0.13154295 0.13185313 0.13949443 -0.44130296 -0.37481704 0.465894 -0.027517285 -0.28687513 -0.6001237 -0.06254331
1275 0.07458735 -1.0149301 -0.13634983 -0.12759738 0.057794016 -0.39693958 0.59354794 0.45750394 -0.07079606 -0.2822511 0.64511865 -0.042413767 0.3943941 0.3614341 0.30759633 0.6240039 0.03678751 0.23189195 0.51424384 1.017861 0.10161408 0.34463894 -0.08856963 0.20752466 0.06864286 -0.48653343 -0.3623747 0.39354476 -0.045179136 -0.42156452 -0.4123901 -0.41893074
1276 -0.052902322 -0.9198481 -0.053754527 -0.12698261 0.03577154 -0.3692362 0.543026 0.48563138 -0.14375424 -0.17558785 0.74903345 0.0057780985 0.47664657 0.45921147 0.33609787 0.55828965 -0.012126654 0.33667776 0.6302043 0.98452425 0.046264663 0.32942483 -0.0018382554 0.19817424 0.13466139 -0.48709175 -0.35450488 0.41444427 -0.028740088 -0.3587408 -0.4271218 -0.26540002
253 0.5001674 -0.8796768 0.5008834 0.086998835 0.34032813 -0.8420197 -0.019055635 0.38447273 -0.580527 -0.31343904 0.35418335 0.44579148 -0.0575588 -0.58062017 -0.7793446 -0.24681534 -0.5766464 -0.047816828 0.4968616 0.22144449 0.014114856 0.8050089 -0.21448293 -0.7208338 0.40041703 -0.71668756 0.11281745 0.20916657 -0.30080783 -0.21802066 0.06827135 -0.23962578
254 0.4589775 -0.8908836 0.5813845 0.35297883 0.24250866 -1.031301 0.0030848123 0.46651933 -0.68552506 -0.17587245 0.38702458 0.08482467 0.24351439 -0.6025316 -0.2855952 0.1337703 -0.7052829 0.20519842 0.49112538 0.24588718 0.074553035 0.46699536 -0.17321928 -0.38257813 0.46289268 -0.42582858 -0.049282435 0.14000356 -0.33405963 -0.253541 0.047121238 -0.41253528
153 0.57023287 -0.88646036 0.6265209 0.38157338 -0.5636042 -0.7584927 0.5167378 0.18037061 -0.061729293 0.11950994 0.05177152 0.07036489 0.22187483 0.45769003 -0.5809151 0.41077572 0.1550746 0.33271858 0.31423053 1.3311194 0.4868087 0.48819056 0.18288647 -0.055251595 0.34953803 -1.1384745 -0.31459534 0.3832447 0.3202912 -0.7075858 -0.1188122 -0.4005137
261 0.58654773 -0.8113216 0.1388766 0.2851409 0.7489834 -0.9775655 -0.16572784 0.4679181 -0.6501574 -0.1873537 0.06885231 0.2443698 0.08400171 -0.30066332 -0.6652277 0.0821352 -0.59308785 0.20539723 0.7759653 0.22943829 0.14154336 0.56288 0.23656328 -0.27121785 0.20882669 -0.7169708 0.05196553 0.3504898 -0.15354516 -0.038481228 0.10648443 -0.42143038
263 0.1430639 -0.8449564 0.51535296 0.16451824 0.5659016 -0.8385541 -0.22215392 0.1144511 -0.37154394 -0.41480222 0.30049026 0.18385014 0.31033853 -0.47041383 -0.14616598 0.08308394 -0.5033821 0.23961857 0.3018888 0.39242494 0.6219268 0.8155984 -0.22081414 -0.27669314 0.33838975 -0.47567028 0.17986429 0.52175665 -0.25988433 -0.017013727 -0.044817436 -0.6365362
266 0.6036581 -0.59805685 0.0039185733 -0.13877665 0.2164716 -0.7114473 -0.14081182 0.3212203 -0.24563755 -0.45503747 0.57786554 0.24261355 0.29625902 -0.37247914 0.1761757 0.09260988 -0.17973879 -0.12141789 0.11502923 0.613006 0.6262978 0.8284468 -0.021363437 -0.07296006 -0.0019054195 -0.7819604 -0.31647402 -0.15883727 -0.1120338 -0.30229032 -0.0033751912 -0.19767901
1297 0.38666275 -1.2153145 0.5063969 0.24439387 0.3565561 -0.17380078 -0.045720797 0.61540943 -0.049120594 0.023745958 0.3495925 -0.27700743 0.3165132 0.28771585 -0.0112606175 -0.16324905 -0.55706066 0.03253403 0.40088224 0.70793974 0.15271336 0.11036535 0.078636944 -0.11098439 -0.5367062 -0.9263356 -0.49526405 0.66347474 0.31601322 -0.0656741 -0.44196296 -0.37035868
1298 0.45951313 -1.3202935 0.48816583 0.3575375 0.32420176 -0.12946343 -0.012778134 0.7248216 -0.056361437 0.021618066 0.4659466 -0.35178232 0.31688225 0.21348327 -0.09461618 -0.10734214 -0.48542657 0.0098792175 0.29523504 0.75058734 0.12715401 0.060621828 0.006282261 -0.13326748 -0.5827326 -1.0114872 -0.5588743 0.5482071 0.36042067 -0.028142856 -0.42959228 -0.41374215
1302 0.68031174 -1.5639855 0.7603258 0.31862712 0.36578363 0.081540465 -0.18049973 0.3476355 0.109463 0.7581456 0.20226917 -0.59808767 0.5949983 -0.2241719 0.29529336 -0.4440985 -0.5376344 -0.33986315 0.3316632 0.32600066 0.27882358 0.20407607 0.4290308 -0.7124611 -0.32545242 -0.8110553 -0.6944517 0.73949623 0.20710367 0.34189823 -0.70655835 -0.20732085
1303 0.44741493 -0.9615804 0.21142574 0.30140588 0.14989196 -0.2841235 0.0719676 0.6490521 -0.3173165 0.2080855 0.28002825 -0.51232165 0.7099417 0.012465618 0.10229734 0.11919567 -0.738133 -0.089175954 0.34280986 0.77470934 0.36205402 0.057073653 0.32429522 -0.119315155 -0.29778683 -0.90289086 -0.5325225 0.3242019 0.58434594 -0.07828378 0.055102363 -0.35429585
1309 -0.24035713 -0.98674864 0.53847826 -0.20705721 0.21709684 -0.9707864 -0.23569407 0.31736013 0.026184283 -0.42435881 0.5885386 -0.029958779 0.01160199 -0.5998193 0.081564695 -0.011527306 -0.99461997 0.10933641 -0.21597739 0.93827826 0.7558594 0.6998287 -0.3713048 -0.17345266 0.07275667 -0.6914525 0.17976302 0.4320791 -0.017408049 0.12572154 0.115728594 -0.69044214
1310 -0.22635967 -0.94552326 0.5192034 -0.21787027 0.25343558 -0.9552837 -0.16580948 0.44391263 0.02657584 -0.35153311 0.5247112 -0.07060099 0.09949766 -0.38836017 0.11062816 0.124575965 -1.0897367 0.115980335 -0.2673931 0.9307668 0.8238389 0.72891474 -0.4639279 -0.26824015 -0.004875378 -0.77934706 0.061757818 0.2269239 0.033376534 0.16906989 0.24566838 -0.6762342
1311 -0.18940428 -0.94506526 0.5537605 -0.21377254 0.2707849 -1.0458566 -0.08233055 0.37519288 -0.008195912 -0.29914838 0.5918547 -0.054601945 0.08506379 -0.3925339 0.07327691 0.009029733 -0.9570005 0.13726738 -0.2234617 0.9430815 0.8879329 0.73942864 -0.49538475 -0.11797901 -0.087085396 -0.8013415 0.18995635 0.25896278 0.088959284 0.08364983 0.15689257 -0.79447633
286 0.23140651 -0.9331056 0.27023485 -0.04210715 0.11246874 -0.4071554 0.32008773 0.17739123 -0.17632683 -0.17360193 0.031938322 -0.030185651 0.1217616 -0.5050464 0.007029677 0.20632607 0.06250055 -0.359683 0.123410955 0.37844232 0.60873973 0.86788535 0.163723 0.05459476 0.103716046 -0.7742157 0.20316 -0.05295886 -0.124597944 -0.92387336 0.19958076 -0.27623168
1313 0.11917442 -1.0501769 0.69547945 -0.34984764 0.59822094 -0.8249163 0.19041958 0.26095918 -0.020692445 -0.095533065 0.2719238 -0.1508949 0.2916901 -0.82818985 0.19804929 0.03452776 -0.11697771 -0.11618766 0.213495 0.635243 0.9605142 0.54659075 -0.3510914 0.17452937 0.06778825 -0.80413806 -0.17261685 -0.018958844 -0.27129927 -0.5248698 0.122525364 -0.44956878
1317 0.3350102 -0.7137246 0.50203454 0.061196387 0.057330042 -0.0006994344 0.21621886 0.27794987 -0.43908677 0.2037239 -0.03737896 -0.16570924 0.37352833 0.29668722 0.72744936 -0.085108034 -0.07359561 -0.2239762 0.96074593 0.6679934 0.106189124 0.88113296 -0.081798784 -0.39802647 0.15349224 -0.36916554 0.3474416 -0.11880767 -0.0033568759 -0.47817844 0.072167 -0.5425625
294 0.2778723 -0.9890607 0.48190665 0.43070158 -0.37034565 -0.62949413 0.522382 0.152394 -0.00062884926 0.08438719 0.18134645 0.016577926 0.28920233 0.39156094 -0.33480084 0.16707893 0.12585308 0.3939094 0.56881845 1.2309296 0.25242904 0.44737723 0.13427062 -0.111208394 0.1647635 -1.2152196 -0.28278518 0.23018414 0.22742105 -0.6793992 -0.21195652 -0.45605606
